{"learner":{"attributes":{"scikit_learn":"{\"_estimator_type\": \"classifier\"}"},"feature_names":[],"feature_types":[],"gradient_booster":{"model":{"gbtree_model_param":{"num_parallel_tree":"1","num_trees":"300"},"iteration_indptr":[0,1,2,3,4,5,6,7,8,9,10,11,12,13,14,15,16,17,18,19,20,21,22,23,24,25,26,27,28,29,30,31,32,33,34,35,36,37,38,39,40,41,42,43,44,45,46,47,48,49,50,51,52,53,54,55,56,57,58,59,60,61,62,63,64,65,66,67,68,69,70,71,72,73,74,75,76,77,78,79,80,81,82,83,84,85,86,87,88,89,90,91,92,93,94,95,96,97,98,99,100,101,102,103,104,105,106,107,108,109,110,111,112,113,114,115,116,117,118,119,120,121,122,123,124,125,126,127,128,129,130,131,132,133,134,135,136,137,138,139,140,141,142,143,144,145,146,147,148,149,150,151,152,153,154,155,156,157,158,159,160,161,162,163,164,165,166,167,168,169,170,171,172,173,174,175,176,177,178,179,180,181,182,183,184,185,186,187,188,189,190,191,192,193,194,195,196,197,198,199,200,201,202,203,204,205,206,207,208,209,210,211,212,213,214,215,216,217,218,219,220,221,222,223,224,225,226,227,228,229,230,231,232,233,234,235,236,237,238,239,240,241,242,243,244,245,246,247,248,249,250,251,252,253,254,255,256,257,258,259,260,261,262,263,264,265,266,267,268,269,270,271,272,273,274,275,276,277,278,279,280,281,282,283,284,285,286,287,288,289,290,291,292,293,294,295,296,297,298,299,300],"tree_info":[0,0,0,0,0,0,0,0,0,0,0,0,0,0,0,0,0,0,0,0,0,0,0,0,0,0,0,0,0,0,0,0,0,0,0,0,0,0,0,0,0,0,0,0,0,0,0,0,0,0,0,0,0,0,0,0,0,0,0,0,0,0,0,0,0,0,0,0,0,0,0,0,0,0,0,0,0,0,0,0,0,0,0,0,0,0,0,0,0,0,0,0,0,0,0,0,0,0,0,0,0,0,0,0,0,0,0,0,0,0,0,0,0,0,0,0,0,0,0,0,0,0,0,0,0,0,0,0,0,0,0,0,0,0,0,0,0,0,0,0,0,0,0,0,0,0,0,0,0,0,0,0,0,0,0,0,0,0,0,0,0,0,0,0,0,0,0,0,0,0,0,0,0,0,0,0,0,0,0,0,0,0,0,0,0,0,0,0,0,0,0,0,0,0,0,0,0,0,0,0,0,0,0,0,0,0,0,0,0,0,0,0,0,0,0,0,0,0,0,0,0,0,0,0,0,0,0,0,0,0,0,0,0,0,0,0,0,0,0,0,0,0,0,0,0,0,0,0,0,0,0,0,0,0,0,0,0,0,0,0,0,0,0,0,0,0,0,0,0,0,0,0,0,0,0,0,0,0,0,0,0,0,0,0,0,0,0,0,0,0,0,0,0,0,0,0,0,0,0,0],"trees":[{"base_weights":[2.7565566E-1,1.0505855E0,-3.3714153E-2,1.1302558E0,6.4699342E-3,1.0086772E0,-6.450749E-1,7.744536E-1,3.6985915E-2,9.4598177E-4,1.1145208E0,-3.386075E-1,-2.2481089E0,4.087025E-3,3.4567755E-2,2.0261278E-2,3.6170185E-2,-6.801131E-1,4.8754424E-1,-2.2479352E-2,-9.178671E-2,-2.4860003E-3,-5.561402E-2,2.6782788E-2,-1.3862016E-2],"categories":[],"categories_nodes":[],"categories_segments":[],"categories_sizes":[],"default_left":[0,0,0,0,0,0,0,0,0,0,0,0,0,0,0,0,0,0,0,0,0,0,0,0,0],"id":0,"left_children":[1,3,5,7,-1,9,11,13,-1,-1,15,17,19,-1,-1,-1,-1,21,23,-1,-1,-1,-1,-1,-1],"loss_changes":[1.5576971E2,1.1432892E1,2.974634E2,3.6338806E0,0E0,1.7422897E1,1.4235213E2,9.839621E0,0E0,0E0,4.022537E0,7.116827E1,5.112242E1,0E0,0E0,0E0,0E0,1.2371622E2,2.940459E1,0E0,0E0,0E0,0E0,0E0,0E0],"parents":[2147483647,0,0,1,1,2,2,3,3,5,5,6,6,7,7,10,10,11,11,12,12,17,17,18,18],"right_children":[2,4,6,8,-1,10,12,14,-1,-1,16,18,20,-1,-1,-1,-1,22,24,-1,-1,-1,-1,-1,-1],"split_conditions":[-1.575E1,2.9E1,-3.275E1,5.75E-1,6.4699342E-3,-2.6E0,3E0,1E-1,3.6985915E-2,9.4598177E-4,4.22E1,1.725E1,4.559718E-1,4.087025E-3,3.4567755E-2,2.0261278E-2,3.6170185E-2,6.3E-2,3E0,-2.2479352E-2,-9.178671E-2,-2.4860003E-3,-5.561402E-2,2.6782788E-2,-1.3862016E-2],"split_indices":[190,173,211,164,0,98,223,71,0,0,38,211,267,0,0,0,0,97,195,0,0,0,0,0,0],"split_type":[0,0,0,0,0,0,0,0,0,0,0,0,0,0,0,0,0,0,0,0,0,0,0,0,0],"sum_hessian":[6.4617664E2,1.8327507E2,4.6290158E2,1.663361E2,1.6938978E1,1.70464E2,2.9243756E2,4.1712738E1,1.2462336E2,1.7190643E1,1.5327336E2,2.4769327E2,4.4744293E1,1.6817863E1,2.4894876E1,2.980263E1,1.2347073E2,1.7575731E2,7.193597E1,1.7196959E1,2.7547335E1,1.18071754E2,5.768555E1,5.0725983E1,2.1209986E1],"tree_param":{"num_deleted":"0","num_feature":"269","num_nodes":"25","size_leaf_vector":"1"}},{"base_weights":[2.7317563E-1,1.1165733E0,-8.1782825E-2,8.153953E-3,3.571185E-2,-1.2544234E0,7.5010616E-1,9.121543E-2,-1.6390738E0,-2.2573244E-2,8.560977E-1,-2.1486975E-2,3.2554388E-2,-0E0,-2.0621915E0,2.2687435E-2,1.028678E0,-1.776516E-2,1.821336E-2,-7.973129E-2,-7.697116E-3,2.6605515E-2,-2.532001E-2,5.698357E-3,3.3883467E-2],"categories":[],"categories_nodes":[],"categories_segments":[],"categories_sizes":[],"default_left":[0,0,0,0,0,0,0,0,0,0,0,0,0,0,0,0,0,0,0,0,0,0,0,0,0],"id":1,"left_children":[1,3,5,-1,-1,7,9,11,13,-1,15,-1,-1,17,19,21,23,-1,-1,-1,-1,-1,-1,-1,-1],"loss_changes":[1.938791E2,1.087085E1,4.471051E2,0E0,0E0,9.923309E1,4.4001053E1,3.6987564E1,1.03016174E2,0E0,3.5806442E1,0E0,0E0,1.2355515E1,1.2450186E2,3.557487E1,1.6753845E1,0E0,0E0,0E0,0E0,0E0,0E0,0E0,0E0],"parents":[2147483647,0,0,1,1,2,2,5,5,6,6,7,7,8,8,10,10,13,13,14,14,15,15,16,16],"right_children":[2,4,6,-1,-1,8,10,12,14,-1,16,-1,-1,18,20,22,24,-1,-1,-1,-1,-1,-1,-1,-1],"split_conditions":[2.3099408E-2,-7.6E0,1.75E1,8.153953E-3,3.571185E-2,4E0,7.9426694E-1,5.75E0,-4.7E0,-2.2573244E-2,4.9E-1,-2.1486975E-2,3.2554388E-2,2.83972E-1,1.171E2,4E0,-1.4E-2,-1.776516E-2,1.821336E-2,-7.973129E-2,-7.697116E-3,2.6605515E-2,-2.532001E-2,5.698357E-3,3.3883467E-2],"split_indices":[268,111,211,0,0,256,268,190,159,0,162,0,0,266,135,239,99,0,0,0,0,0,0,0,0],"split_type":[0,0,0,0,0,0,0,0,0,0,0,0,0,0,0,0,0,0,0,0,0,0,0,0,0],"sum_hessian":[6.439742E2,1.8972726E2,4.542469E2,1.6326242E1,1.7340103E2,1.8824263E2,2.6600424E2,4.2012917E1,1.4622972E2,1.6537552E1,2.494667E2,2.3322874E1,1.8690042E1,3.036285E1,1.1586687E2,4.348311E1,2.059836E2,1.5308241E1,1.505461E1,8.629548E1,2.9571386E1,2.1923294E1,2.1559814E1,2.3031902E1,1.8295169E2],"tree_param":{"num_deleted":"0","num_feature":"269","num_nodes":"25","size_leaf_vector":"1"}},{"base_weights":[2.6427552E-1,1.1004655E0,-7.172065E-2,3.5558093E-2,4.042148E-3,-1.1698377E0,7.5780016E-1,1.9831261E-1,-1.5143524E0,-2.7369654E-2,8.6836106E-1,-1.9258749E-2,3.0140683E-2,-2.111364E0,-8.565674E-2,9.640381E-1,-1.1453211E-2,-1.02012325E-2,-8.132074E-2,-2.0625997E-2,2.0613823E-2,3.1198908E-2,-2.029575E-3],"categories":[],"categories_nodes":[],"categories_segments":[],"categories_sizes":[],"default_left":[0,0,0,0,0,0,0,0,0,0,0,0,0,0,0,0,0,0,0,0,0,0,0],"id":2,"left_children":[1,3,5,-1,-1,7,9,11,13,-1,15,-1,-1,17,19,21,-1,-1,-1,-1,-1,-1,-1],"loss_changes":[1.8075497E2,1.4379532E1,4.2035178E2,0E0,0E0,9.461804E1,5.008876E1,2.9551016E1,1.346651E2,0E0,3.0529877E1,0E0,0E0,1.1610135E2,2.378983E1,1.8512756E1,0E0,0E0,0E0,0E0,0E0,0E0,0E0],"parents":[2147483647,0,0,1,1,2,2,5,5,6,6,7,7,8,8,10,10,13,13,14,14,15,15],"right_children":[2,4,6,-1,-1,8,10,12,14,-1,16,-1,-1,18,20,22,-1,-1,-1,-1,-1,-1,-1],"split_conditions":[2.3099408E-2,4.8E0,1.75E1,3.5558093E-2,4.042148E-3,3.5E-1,-6.3E0,3.301108E-1,1.162E2,-2.7369654E-2,1.3E1,-1.9258749E-2,3.0140683E-2,4E0,3.75E-1,-5E0,-1.1453211E-2,-1.02012325E-2,-8.132074E-2,-2.0625997E-2,2.0613823E-2,3.1198908E-2,-2.029575E-3],"split_indices":[268,90,211,0,0,139,101,266,124,0,255,0,0,256,33,190,0,0,0,0,0,0,0],"split_type":[0,0,0,0,0,0,0,0,0,0,0,0,0,0,0,0,0,0,0,0,0,0,0],"sum_hessian":[6.396951E2,1.823142E2,4.5738095E2,1.6689333E2,1.5420869E1,1.9662738E2,2.6075357E2,3.954855E1,1.5707883E2,1.5120957E1,2.4563261E2,1.938476E1,2.016379E1,1.09962845E2,4.7115986E1,2.2881808E2,1.6814528E1,2.8718918E1,8.124392E1,2.6829159E1,2.0286827E1,2.1338884E2,1.5429244E1],"tree_param":{"num_deleted":"0","num_feature":"269","num_nodes":"23","size_leaf_vector":"1"}},{"base_weights":[2.593013E-1,1.0992453E0,-7.245615E-2,9.414652E-3,3.5119146E-2,7.9412186E-1,-1.0122272E0,9.506336E-1,-2.021793E-2,-2.3425248E0,-7.2391367E-1,1.0631402E0,-0E0,-3.671616E-2,-9.5561855E-2,-1.4058679E0,-2.0110959E-1,1.951459E-2,3.5622448E-2,-1.87073E-2,-8.1904E-2,-4.5525756E-2,6.644182E-3],"categories":[],"categories_nodes":[],"categories_segments":[],"categories_sizes":[],"default_left":[0,0,0,0,0,0,0,0,0,0,0,0,0,0,0,0,0,0,0,0,0,0,0],"id":3,"left_children":[1,3,5,-1,-1,7,9,11,-1,13,15,17,-1,-1,-1,19,21,-1,-1,-1,-1,-1,-1],"loss_changes":[1.7927222E2,9.028824E0,3.7759583E2,0E0,0E0,5.6763184E1,8.102484E1,2.3098358E1,0E0,2.722992E1,6.524643E1,7.9271545E0,0E0,0E0,0E0,7.857677E1,6.1049553E1,0E0,0E0,0E0,0E0,0E0,0E0],"parents":[2147483647,0,0,1,1,2,2,5,5,6,6,7,7,9,9,10,10,11,11,15,15,16,16],"right_children":[2,4,6,-1,-1,8,10,12,-1,14,16,18,-1,-1,-1,20,22,-1,-1,-1,-1,-1,-1],"split_conditions":[2.3099408E-2,-7.6E0,-8.25E0,9.414652E-3,3.5119146E-2,1.207E2,4.5565E-1,1.2E1,-2.021793E-2,3.5427094E-1,-3.1E0,0E0,-0E0,-3.671616E-2,-9.5561855E-2,3E-1,4.25E0,1.951459E-2,3.5622448E-2,-1.87073E-2,-8.1904E-2,-4.5525756E-2,6.644182E-3],"split_indices":[268,111,190,0,0,15,23,255,0,268,67,159,0,0,0,62,130,0,0,0,0,0,0],"split_type":[0,0,0,0,0,0,0,0,0,0,0,0,0,0,0,0,0,0,0,0,0,0,0],"sum_hessian":[6.396651E2,1.8006181E2,4.5960327E2,1.6252695E1,1.6380911E2,2.3910835E2,2.2049492E2,2.1689413E2,2.2214216E1,3.655186E1,1.8394305E2,1.9345287E2,2.3441278E1,1.7966637E1,1.8585226E1,7.810699E1,1.0583607E2,4.822027E1,1.4523259E2,5.1092888E1,2.7014097E1,2.4631752E1,8.1204315E1],"tree_param":{"num_deleted":"0","num_feature":"269","num_nodes":"23","size_leaf_vector":"1"}},{"base_weights":[2.4321604E-1,1.0106229E0,-7.7659525E-2,-8.92524E-3,3.5307407E-2,7.741308E-1,-1.0213948E0,9.332255E-1,-2.2155885E-2,2.6052391E-2,-1.2646636E0,1.0120459E0,-2.513505E-3,-9.213394E-2,-1.6286926E0,3.3757847E-2,1.882229E-2,-2.6700238E-2,3.124507E-2,-5.6626815E-2,1.0050006E-2],"categories":[],"categories_nodes":[],"categories_segments":[],"categories_sizes":[],"default_left":[0,0,0,0,0,0,0,0,0,0,0,0,0,0,0,0,0,0,0,0,0],"id":4,"left_children":[1,3,5,-1,-1,7,9,11,-1,-1,13,15,-1,17,19,-1,-1,-1,-1,-1,-1],"loss_changes":[1.5715085E2,4.187387E1,3.6368204E2,0E0,0E0,5.863611E1,1.01009155E2,1.7772766E1,0E0,0E0,8.0772705E1,6.8153534E0,0E0,4.4863186E1,7.571814E1,0E0,0E0,0E0,0E0,0E0,0E0],"parents":[2147483647,0,0,1,1,2,2,5,5,6,6,7,7,10,10,11,11,13,13,14,14],"right_children":[2,4,6,-1,-1,8,10,12,-1,-1,14,16,-1,18,20,-1,-1,-1,-1,-1,-1],"split_conditions":[-9.5E0,-3E0,-8.25E0,-8.92524E-3,3.5307407E-2,1.207E2,2.5E-1,2.8E1,-2.2155885E-2,2.6052391E-2,4E0,-1.55E1,-2.513505E-3,5.75E0,1.2E2,3.3757847E-2,1.882229E-2,-2.6700238E-2,3.124507E-2,-5.6626815E-2,1.0050006E-2],"split_indices":[234,98,190,0,0,15,139,196,0,0,256,190,0,190,124,0,0,0,0,0,0],"split_type":[0,0,0,0,0,0,0,0,0,0,0,0,0,0,0,0,0,0,0,0,0],"sum_hessian":[6.344224E2,1.860649E2,4.483575E2,2.0603632E1,1.6546127E2,2.356803E2,2.126772E2,2.1412413E2,2.1556162E1,2.3528183E1,1.8914902E2,1.9900554E2,1.5118601E1,4.5600655E1,1.4354837E2,1.5017215E2,4.883339E1,2.7171387E1,1.8429268E1,1.2703237E2,1.6515999E1],"tree_param":{"num_deleted":"0","num_feature":"269","num_nodes":"21","size_leaf_vector":"1"}},{"base_weights":[2.389873E-1,1.062398E0,-7.467014E-2,1.1469632E0,4.3542846E-3,-1.0376244E0,6.857124E-1,3.598982E-2,2.0489996E-2,-6.0974836E-1,-2.0600543E0,-3.1927314E-2,8.054147E-1,-4.8465118E-2,-1.3790911E0,-2.681157E0,-6.1783143E-3,4.1276142E-1,1.1330935E0,9.63361E-3,-4.816317E-2,8.153129E-4,-5.9698824E-2,-9.9746995E-2,-5.3475544E-2,-6.7668734E-3,2.9756304E-2,1.873329E-2,3.5640057E-2],"categories":[],"categories_nodes":[],"categories_segments":[],"categories_sizes":[],"default_left":[0,0,0,0,0,0,0,0,0,0,0,0,0,0,0,0,0,0,0,0,0,0,0,0,0,0,0,0,0],"id":5,"left_children":[1,3,5,7,-1,9,11,-1,-1,13,15,-1,17,19,21,23,-1,25,27,-1,-1,-1,-1,-1,-1,-1,-1,-1,-1],"loss_changes":[1.6470183E2,1.2917511E1,3.399077E2,1.7179718E0,0E0,8.631407E1,5.5944168E1,0E0,0E0,6.31225E1,6.6428925E1,0E0,2.9989395E1,5.1806118E1,5.3881683E1,1.2185883E1,0E0,4.3018044E1,1.6430054E0,0E0,0E0,0E0,0E0,0E0,0E0,0E0,0E0,0E0,0E0],"parents":[2147483647,0,0,1,1,2,2,3,3,5,5,6,6,9,9,10,10,12,12,13,13,14,14,15,15,17,17,18,18],"right_children":[2,4,6,8,-1,10,12,-1,-1,14,16,-1,18,20,22,24,-1,26,28,-1,-1,-1,-1,-1,-1,-1,-1,-1,-1],"split_conditions":[2.3099408E-2,4.8E0,1.75E1,1.317027E-2,4.3542846E-3,1.2E1,-6.9E0,3.598982E-2,2.0489996E-2,2.5E-1,3.73E-1,-3.1927314E-2,9.841659E-1,7.5E0,4.556E-1,-3.4E-2,-6.1783143E-3,7.786E-1,8E-1,9.63361E-3,-4.816317E-2,8.153129E-4,-5.9698824E-2,-9.9746995E-2,-5.3475544E-2,-6.7668734E-3,2.9756304E-2,1.873329E-2,3.5640057E-2],"split_indices":[268,90,211,268,0,256,101,0,0,211,33,0,268,2,121,94,0,35,159,0,0,0,0,0,0,0,0,0,0],"split_type":[0,0,0,0,0,0,0,0,0,0,0,0,0,0,0,0,0,0,0,0,0,0,0,0,0,0,0,0,0],"sum_hessian":[6.339529E2,1.7382121E2,4.6013168E2,1.5839066E2,1.5430561E1,2.028748E2,2.5725687E2,1.3880682E2,1.9583832E1,1.454794E2,5.739541E1,1.5299665E1,2.419572E2,8.556811E1,5.9911297E1,4.220377E1,1.5191636E1,1.1253855E2,1.2941866E2,7.028022E1,1.5287888E1,1.857353E1,4.1337765E1,2.1248589E1,2.0955183E1,5.3867096E1,5.867146E1,1.5552757E1,1.138659E2],"tree_param":{"num_deleted":"0","num_feature":"269","num_nodes":"29","size_leaf_vector":"1"}},{"base_weights":[2.2135353E-1,9.896211E-1,-6.3069776E-2,1.0838374E0,4.6639685E-3,7.5118446E-1,-6.821882E-1,7.126748E-1,3.5671175E-2,-4.9667847E-1,9.9593496E-1,9.944003E-2,-1.1161534E0,3.4675293E-3,3.3013433E-2,1.7867347E-2,-4.981584E-2,6.8408563E-3,1.1264715E0,-4.1272008E-1,3.329079E-2,-6.4169407E-1,-2.054867E0,1.974434E-2,3.5176493E-2,-2.4524482E-2,1.9938363E-2,-1.0199991E-2,-6.7551784E-2,-8.034165E-2,-3.408503E-2],"categories":[],"categories_nodes":[],"categories_segments":[],"categories_sizes":[],"default_left":[0,0,0,0,0,0,0,0,0,0,0,0,0,0,0,0,0,0,0,0,0,0,0,0,0,0,0,0,0,0,0],"id":6,"left_children":[1,3,5,7,-1,9,11,13,-1,15,17,19,21,-1,-1,-1,-1,-1,23,25,-1,27,29,-1,-1,-1,-1,-1,-1,-1,-1],"loss_changes":[1.3741284E2,1.2637131E1,2.3249376E2,3.6668396E0,0E0,6.1942184E1,8.9435265E1,8.450758E0,0E0,4.523692E1,1.5850586E1,5.0363605E1,7.1800476E1,0E0,0E0,0E0,0E0,0E0,9.750519E-1,2.9219267E1,0E0,5.3719353E1,2.4603973E1,0E0,0E0,0E0,0E0,0E0,0E0,0E0,0E0],"parents":[2147483647,0,0,1,1,2,2,3,3,5,5,6,6,7,7,9,9,10,10,11,11,12,12,18,18,19,19,21,21,22,22],"right_children":[2,4,6,8,-1,10,12,14,-1,16,18,20,22,-1,-1,-1,-1,-1,24,26,-1,28,30,-1,-1,-1,-1,-1,-1,-1,-1],"split_conditions":[-1.6E1,2.9E1,-2.025E1,5.75E-1,4.6639685E-3,-1.5E0,4.5E0,1E-1,3.5671175E-2,-4E0,1.18E1,1.725E1,1.15E1,3.4675293E-3,3.3013433E-2,1.7867347E-2,-4.981584E-2,6.8408563E-3,4.5E-1,5.5E0,3.329079E-2,2.8E0,4.65E0,1.974434E-2,3.5176493E-2,-2.4524482E-2,1.9938363E-2,-1.0199991E-2,-6.7551784E-2,-8.034165E-2,-3.408503E-2],"split_indices":[190,173,211,164,0,70,191,71,0,243,18,211,96,0,0,0,0,0,30,237,0,70,130,0,0,0,0,0,0,0,0],"split_type":[0,0,0,0,0,0,0,0,0,0,0,0,0,0,0,0,0,0,0,0,0,0,0,0,0,0,0,0,0,0,0],"sum_hessian":[6.250104E2,1.678148E2,4.5719556E2,1.49923E2,1.7891808E1,1.9708347E2,2.601121E2,3.717306E1,1.1274993E2,3.1778103E1,1.6530537E2,9.3163246E1,1.6694884E2,1.596305E1,2.1210012E1,1.6764048E1,1.5014054E1,2.5149656E1,1.4015572E2,6.2409805E1,3.0753439E1,1.1334634E2,5.3602505E1,1.5875767E1,1.24279945E2,4.5918648E1,1.649116E1,9.765586E1,1.5690471E1,2.9461208E1,2.4141294E1],"tree_param":{"num_deleted":"0","num_feature":"269","num_nodes":"31","size_leaf_vector":"1"}},{"base_weights":[2.4988881E-1,1.0545928E0,-4.628597E-2,9.166267E-3,3.4246236E-2,-6.7338353E-1,7.8834444E-1,-9.840699E-2,-1.1849235E0,-1.385048E-2,8.975108E-1,-4.1001704E-1,7.4844414E-1,1.5300881E-2,-1.4713559E0,-1.9912287E-3,1.062543E0,-2.4142755E-2,2.2346867E-2,9.2386175E-3,3.1472337E-2,-5.9318762E-2,-1.6097013E-2,1.1894966E-2,3.4148302E-2],"categories":[],"categories_nodes":[],"categories_segments":[],"categories_sizes":[],"default_left":[0,0,0,0,0,0,0,0,0,0,0,0,0,0,0,0,0,0,0,0,0,0,0,0,0],"id":7,"left_children":[1,3,5,-1,-1,7,9,11,13,-1,15,17,19,-1,21,-1,23,-1,-1,-1,-1,-1,-1,-1,-1],"loss_changes":[1.502456E2,9.907959E0,2.4242632E2,0E0,0E0,7.721696E1,2.8058418E1,3.403885E1,6.955641E1,0E0,2.963507E1,4.4264797E1,3.5317936E0,0E0,5.391165E1,0E0,6.5607147E0,0E0,0E0,0E0,0E0,0E0,0E0,0E0,0E0],"parents":[2147483647,0,0,1,1,2,2,5,5,6,6,7,7,8,8,10,10,11,11,12,12,14,14,16,16],"right_children":[2,4,6,-1,-1,8,10,12,14,-1,16,18,20,-1,22,-1,24,-1,-1,-1,-1,-1,-1,-1,-1],"split_conditions":[2.3099408E-2,-5E0,1.825E1,9.166267E-3,3.4246236E-2,5E0,8.361174E-1,1E1,-1.35E1,-1.385048E-2,4.9E-1,5.75E0,4.6605E-1,1.5300881E-2,1.501931E-1,-1.9912287E-3,-1.3E-2,-2.4142755E-2,2.2346867E-2,9.2386175E-3,3.1472337E-2,-5.9318762E-2,-1.6097013E-2,1.1894966E-2,3.4148302E-2],"split_indices":[268,83,234,0,0,219,268,234,234,0,162,237,132,0,265,0,99,0,0,0,0,0,0,0,0],"split_type":[0,0,0,0,0,0,0,0,0,0,0,0,0,0,0,0,0,0,0,0,0,0,0,0,0],"sum_hessian":[6.267231E2,1.6750502E2,4.5921808E2,1.8719246E1,1.4878577E2,2.6263428E2,1.965838E2,1.2504903E2,1.3758525E2,1.5049592E1,1.8153421E2,9.24257E1,3.2623333E1,1.951245E1,1.1807281E2,2.6446854E1,1.5508736E2,6.952771E1,2.2897982E1,1.5280643E1,1.734269E1,7.495401E1,4.3118793E1,1.751171E1,1.3757564E2],"tree_param":{"num_deleted":"0","num_feature":"269","num_nodes":"25","size_leaf_vector":"1"}},{"base_weights":[2.4027038E-1,1.0572658E0,-5.50056E-2,3.443318E-2,7.991437E-3,7.6603925E-1,-7.97869E-1,9.473453E-1,-1.0685234E-2,-1.5308523E0,-4.3137163E-1,4.0170993E-3,1.0332294E0,-2.1502483E0,-6.668041E-4,-1.1128672E0,1.8397053E-1,3.3568233E-2,1.181977E-2,-1.675542E-2,-8.295542E-2,8.1113195E-3,-5.554434E-2,1.6760452E-2,-2.97438E-2],"categories":[],"categories_nodes":[],"categories_segments":[],"categories_sizes":[],"default_left":[0,0,0,0,0,0,0,0,0,0,0,0,0,0,0,0,0,0,0,0,0,0,0,0,0],"id":8,"left_children":[1,3,5,-1,-1,7,9,11,-1,13,15,-1,17,19,-1,21,23,-1,-1,-1,-1,-1,-1,-1,-1],"loss_changes":[1.5060638E2,1.0821182E1,2.811448E2,0E0,0E0,4.537474E1,6.312961E1,1.2588409E1,0E0,7.367676E1,6.965578E1,0E0,8.004349E0,5.1022858E1,0E0,8.1729805E1,3.9697975E1,0E0,0E0,0E0,0E0,0E0,0E0,0E0,0E0],"parents":[2147483647,0,0,1,1,2,2,5,5,6,6,7,7,9,9,10,10,12,12,13,13,15,15,16,16],"right_children":[2,4,6,-1,-1,8,10,12,-1,14,16,-1,18,20,-1,22,24,-1,-1,-1,-1,-1,-1,-1,-1],"split_conditions":[2.3099408E-2,4.6E0,-9E0,3.443318E-2,7.991437E-3,1.182E2,-1.3E0,4E-1,-1.0685234E-2,7.96E-1,1.118E2,4.0170993E-3,2.86E1,-1.9E-2,-6.668041E-4,1.1115E2,8.017E-1,3.3568233E-2,1.181977E-2,-1.675542E-2,-8.295542E-2,8.1113195E-3,-5.554434E-2,1.6760452E-2,-2.97438E-2],"split_indices":[268,90,190,0,0,26,70,128,0,144,146,0,242,87,0,135,24,0,0,0,0,0,0,0,0],"split_type":[0,0,0,0,0,0,0,0,0,0,0,0,0,0,0,0,0,0,0,0,0,0,0,0,0],"sum_hessian":[6.205749E2,1.6364432E2,4.5693057E2,1.4569006E2,1.7954258E1,2.168226E2,2.4010797E2,1.8716328E2,2.9659323E1,7.764596E1,1.6246202E2,1.8696121E1,1.6846716E2,5.4301815E1,2.3344141E1,7.6551346E1,8.591067E1,1.4681178E2,2.1655373E1,1.63318E1,3.7970013E1,2.6947227E1,4.9604122E1,6.6132996E1,1.9777668E1],"tree_param":{"num_deleted":"0","num_feature":"269","num_nodes":"25","size_leaf_vector":"1"}},{"base_weights":[2.1237428E-1,1.0263407E0,-8.00426E-2,1.1206537E0,2.3229928E-3,7.6921225E-1,-8.6090285E-1,3.5199005E-2,1.9531187E-2,8.998137E-1,-1.3783619E-2,-1.09627E0,4.039946E-1,1.0171199E0,-0E0,-4.761319E-1,-1.869228E0,-6.85356E-3,2.713157E-2,3.2269172E-2,1.027126E-2,-2.4419075E-3,-6.4185E-2,-3.0322548E-3,-6.981361E-2],"categories":[],"categories_nodes":[],"categories_segments":[],"categories_sizes":[],"default_left":[0,0,0,0,0,0,0,0,0,0,0,0,0,0,0,0,0,0,0,0,0,0,0,0,0],"id":9,"left_children":[1,3,5,7,-1,9,11,-1,-1,13,-1,15,17,19,-1,21,23,-1,-1,-1,-1,-1,-1,-1,-1],"loss_changes":[1.4709825E2,1.4077805E1,3.030001E2,1.5856323E0,0E0,3.6063354E1,7.198134E1,0E0,0E0,2.0669357E1,0E0,9.409871E1,1.2836983E1,5.765579E0,0E0,7.429323E1,7.069122E1,0E0,0E0,0E0,0E0,0E0,0E0,0E0,0E0],"parents":[2147483647,0,0,1,1,2,2,3,3,5,5,6,6,9,9,11,11,12,12,13,13,15,15,16,16],"right_children":[2,4,6,8,-1,10,12,-1,-1,14,-1,16,18,20,-1,22,24,-1,-1,-1,-1,-1,-1,-1,-1],"split_conditions":[2.3099408E-2,3.4E0,-8.25E0,1.317027E-2,2.3229928E-3,1.207E2,9.4E0,3.5199005E-2,1.9531187E-2,1.2E1,-1.3783619E-2,-2E-1,1.5E0,2E0,-0E0,3.6E0,7.504E-1,-6.85356E-3,2.713157E-2,3.2269172E-2,1.027126E-2,-2.4419075E-3,-6.4185E-2,-3.0322548E-3,-6.981361E-2],"split_indices":[268,68,190,268,0,15,145,0,0,255,0,145,212,80,0,92,144,0,0,0,0,0,0,0,0],"split_type":[0,0,0,0,0,0,0,0,0,0,0,0,0,0,0,0,0,0,0,0,0,0,0,0,0],"sum_hessian":[6.1413135E2,1.6125925E2,4.5287213E2,1.4606366E2,1.5195584E1,2.1676576E2,2.3610637E2,1.2807056E2,1.799311E1,1.9664299E2,2.0122765E1,1.9948988E2,3.661649E1,1.7344498E2,2.319801E1,1.1269538E2,8.67945E1,1.6389324E1,2.0227165E1,1.5810036E2,1.5344625E1,9.292218E1,1.9773195E1,1.8490402E1,6.83041E1],"tree_param":{"num_deleted":"0","num_feature":"269","num_nodes":"25","size_leaf_vector":"1"}},{"base_weights":[2.2297585E-1,1.0364158E0,-5.7636634E-2,1.1142136E0,7.923785E-3,-7.8315115E-1,7.381428E-1,3.4964573E-2,2.0003164E-2,-1.4362321E0,-3.9326248E-1,9.0241855E-1,-1.13397785E-1,-0E0,-1.966447E0,-8.8139975E-1,5.521656E-1,-1.8595157E-3,1.020388E0,-4.0318523E-2,2.6058171E-2,-2.5870489E-2,-7.1569934E-2,-4.1535955E-2,1.1619496E-2,3.0388877E-2,-1.3014523E-2,7.793418E-3,3.2862816E-2],"categories":[],"categories_nodes":[],"categories_segments":[],"categories_sizes":[],"default_left":[0,0,0,0,0,0,0,0,0,0,0,0,0,0,0,0,0,0,0,0,0,0,0,0,0,0,0,0,0],"id":10,"left_children":[1,3,5,7,-1,9,11,-1,-1,13,15,17,19,-1,21,23,25,-1,27,-1,-1,-1,-1,-1,-1,-1,-1,-1,-1],"loss_changes":[1.3947427E2,8.409073E0,2.6362198E2,1.1383667E0,0E0,5.916667E1,3.0884377E1,0E0,0E0,6.689224E1,7.152917E1,2.122821E1,4.6796005E1,0E0,2.4716202E1,6.626745E1,2.5135008E1,0E0,8.35051E0,0E0,0E0,0E0,0E0,0E0,0E0,0E0,0E0,0E0,0E0],"parents":[2147483647,0,0,1,1,2,2,3,3,5,5,6,6,9,9,10,10,11,11,12,12,14,14,15,15,16,16,18,18],"right_children":[2,4,6,8,-1,10,12,-1,-1,14,16,18,20,-1,22,24,26,-1,28,-1,-1,-1,-1,-1,-1,-1,-1,-1,-1],"split_conditions":[2.3099408E-2,3.2E0,2.4E1,1.317027E-2,7.923785E-3,-5E-2,2.5E1,3.4964573E-2,2.0003164E-2,1.7866491E-1,1E0,-1.2531969E-1,7.778E-1,-0E0,-7.45E0,1.156E2,1.6E0,-1.8595157E-3,7.176E-1,-4.0318523E-2,2.6058171E-2,-2.5870489E-2,-7.1569934E-2,-4.1535955E-2,1.1619496E-2,3.0388877E-2,-1.3014523E-2,7.793418E-3,3.2862816E-2],"split_indices":[268,68,211,268,0,57,173,0,0,268,107,208,35,0,2,135,91,0,144,0,0,0,0,0,0,0,0,0,0],"split_type":[0,0,0,0,0,0,0,0,0,0,0,0,0,0,0,0,0,0,0,0,0,0,0,0,0,0,0,0,0],"sum_hessian":[6.072189E2,1.5463754E2,4.525813E2,1.3932817E2,1.5309374E1,2.3695628E2,2.1562502E2,1.2152287E2,1.7805296E1,8.6286194E1,1.5067009E2,1.8094974E2,3.4675278E1,2.3892279E1,6.2393913E1,9.966465E1,5.100544E1,1.9548285E1,1.6140146E2,1.5198416E1,1.9476864E1,1.90504E1,4.3343513E1,7.140257E1,2.826208E1,3.4930355E1,1.6075085E1,1.5653842E1,1.457476E2],"tree_param":{"num_deleted":"0","num_feature":"269","num_nodes":"29","size_leaf_vector":"1"}},{"base_weights":[1.8903351E-1,1.0187428E0,-9.131375E-2,1.1116607E0,3.921143E-3,7.469571E-1,-7.7363425E-1,3.4768894E-2,1.9803751E-2,8.864421E-1,-1.30438255E-2,-1.4493095E0,-4.0920162E-1,4.5054623E-1,1.0734619E0,-2.0048878E0,-7.138316E-4,2.6465258E-2,-7.0180696E-1,3.125974E-2,4.527413E-4,3.4293566E-2,1.6014883E-2,-1.7065952E-2,-7.833498E-2,-5.8218487E-2,-1.1160701E-2],"categories":[],"categories_nodes":[],"categories_segments":[],"categories_sizes":[],"default_left":[0,0,0,0,0,0,0,0,0,0,0,0,0,0,0,0,0,0,0,0,0,0,0,0,0,0,0],"id":11,"left_children":[1,3,5,7,-1,9,11,-1,-1,13,-1,15,17,19,21,23,-1,-1,25,-1,-1,-1,-1,-1,-1,-1,-1],"loss_changes":[1.4155482E2,1.2012878E1,2.61375E2,8.823395E-1,0E0,3.469136E1,6.0302994E1,0E0,0E0,1.3592346E1,0E0,6.836726E1,6.419878E1,1.490687E1,3.0493164E0,5.055861E1,0E0,0E0,5.3939423E1,0E0,0E0,0E0,0E0,0E0,0E0,0E0,0E0],"parents":[2147483647,0,0,1,1,2,2,3,3,5,5,6,6,9,9,11,11,12,12,13,13,14,14,15,15,18,18],"right_children":[2,4,6,8,-1,10,12,-1,-1,14,-1,16,18,20,22,24,-1,-1,26,-1,-1,-1,-1,-1,-1,-1,-1],"split_conditions":[2.3099408E-2,3.2E0,-9E0,1.317027E-2,3.921143E-3,1.207E2,-1.2E0,3.4768894E-2,1.9803751E-2,-2.2E0,-1.30438255E-2,7.96E-1,-6.75E0,4.4E0,2.4E1,-9E-1,-7.138316E-4,2.6465258E-2,4.5865E-1,3.125974E-2,4.527413E-4,3.4293566E-2,1.6014883E-2,-1.7065952E-2,-7.833498E-2,-5.8218487E-2,-1.1160701E-2],"split_indices":[268,68,190,268,0,15,70,0,0,145,0,144,234,32,173,68,0,0,23,0,0,0,0,0,0,0,0],"split_type":[0,0,0,0,0,0,0,0,0,0,0,0,0,0,0,0,0,0,0,0,0,0,0,0,0,0,0],"sum_hessian":[6.045626E2,1.5162352E2,4.529391E2,1.3649973E2,1.5123793E1,2.0296074E2,2.4997835E2,1.2011837E2,1.638135E1,1.8220795E2,2.0752804E1,8.5212814E1,1.6476553E2,5.723348E1,1.24974464E2,6.0579376E1,2.4633438E1,2.9502943E1,1.3526259E2,2.2796303E1,3.4437176E1,1.08213455E2,1.6761005E1,1.9281311E1,4.1298065E1,2.6192724E1,1.0906986E2],"tree_param":{"num_deleted":"0","num_feature":"269","num_nodes":"27","size_leaf_vector":"1"}},{"base_weights":[2.3364393E-1,9.992424E-1,-2.5075145E-2,3.5036479E-3,3.3244677E-2,-7.7405316E-1,6.766802E-1,2.8158545E-1,-1.0229828E0,3.3104412E-2,2.8370896E-1,-2.1788213E-2,2.6829273E-2,-1.4067776E0,-4.096856E-2,8.470152E-1,-6.116399E-1,-9.11124E-3,-5.3449813E-2,2.03623E-2,-1.9083943E-2,3.0686917E-2,7.2870315E-3,-3.982682E-2,1.0057759E-2],"categories":[],"categories_nodes":[],"categories_segments":[],"categories_sizes":[],"default_left":[0,0,0,0,0,0,0,0,0,0,0,0,0,0,0,0,0,0,0,0,0,0,0,0,0],"id":12,"left_children":[1,3,5,-1,-1,7,9,11,13,-1,15,-1,-1,17,19,21,23,-1,-1,-1,-1,-1,-1,-1,-1],"loss_changes":[1.2011552E2,1.4085587E1,2.394962E2,0E0,0E0,5.875833E1,3.83804E1,2.8166094E1,6.696648E1,0E0,6.436963E1,0E0,0E0,5.1438416E1,2.3389475E1,7.4150352E0,3.46734E1,0E0,0E0,0E0,0E0,0E0,0E0,0E0,0E0],"parents":[2147483647,0,0,1,1,2,2,5,5,6,6,7,7,8,8,10,10,13,13,14,14,15,15,16,16],"right_children":[2,4,6,-1,-1,8,10,12,14,-1,16,-1,-1,18,20,22,24,-1,-1,-1,-1,-1,-1,-1,-1],"split_conditions":[2.3099408E-2,-5E0,1.75E1,3.5036479E-3,3.3244677E-2,3.5E-1,-2.475E1,1.9683005E-1,1.162E2,3.3104412E-2,3E0,-2.1788213E-2,2.6829273E-2,1.305E1,-7.5E-1,1.49E1,4.9952842E-2,-9.11124E-3,-5.3449813E-2,2.03623E-2,-1.9083943E-2,3.0686917E-2,7.2870315E-3,-3.982682E-2,1.0057759E-2],"split_indices":[268,83,211,0,0,139,190,266,124,0,195,0,0,29,243,127,217,0,0,0,0,0,0,0,0],"split_type":[0,0,0,0,0,0,0,0,0,0,0,0,0,0,0,0,0,0,0,0,0,0,0,0,0],"sum_hessian":[6.0268604E2,1.5107162E2,4.5161438E2,1.7354967E1,1.3371666E2,2.185641E2,2.330503E2,4.142503E1,1.7713907E2,1.096172E2,1.2343309E2,1.5337071E1,2.6087957E1,1.26521034E2,5.0618034E1,7.603741E1,4.7395687E1,3.3213352E1,9.3307686E1,2.255638E1,2.8061657E1,5.743323E1,1.8604172E1,2.6712212E1,2.0683475E1],"tree_param":{"num_deleted":"0","num_feature":"269","num_nodes":"25","size_leaf_vector":"1"}},{"base_weights":[1.9402532E-1,9.8602855E-1,-4.4465166E-2,-3.96913E-3,3.4035947E-2,-5.8426726E-1,7.7723306E-1,-7.224956E-2,-1.1853291E0,9.692047E-1,-1.23851635E-1,7.8352624E-1,-3.6065134E-1,1.7959226E-2,-1.4995189E0,5.1772664E-3,1.0540696E0,-3.195115E-2,2.3789579E-2,3.258856E-2,8.787527E-3,-2.426332E-2,6.3587143E-3,-5.491094E-2,-7.2118426E-3,1.413504E-2,3.3762906E-2],"categories":[],"categories_nodes":[],"categories_segments":[],"categories_sizes":[],"default_left":[0,0,0,0,0,0,0,0,0,0,0,0,0,0,0,0,0,0,0,0,0,0,0,0,0,0,0],"id":13,"left_children":[1,3,5,-1,-1,7,9,11,13,15,17,19,21,-1,23,-1,25,-1,-1,-1,-1,-1,-1,-1,-1,-1,-1],"loss_changes":[1.1414263E2,2.3814636E1,2.0690723E2,0E0,0E0,8.615637E1,3.2465073E1,3.8578793E1,7.448212E1,9.602768E0,3.1074722E1,4.7903748E0,3.059937E1,0E0,4.4557632E1,0E0,4.1764526E0,0E0,0E0,0E0,0E0,0E0,0E0,0E0,0E0,0E0,0E0],"parents":[2147483647,0,0,1,1,2,2,5,5,6,6,7,7,8,8,9,9,10,10,11,11,12,12,14,14,16,16],"right_children":[2,4,6,-1,-1,8,10,12,14,16,18,20,22,-1,24,-1,26,-1,-1,-1,-1,-1,-1,-1,-1,-1,-1],"split_conditions":[-1.275E1,-2.9E0,2.975E1,-3.96913E-3,3.4035947E-2,5.1237434E-1,2.5E1,-4.25E0,1.123E2,1.083E2,7.76E-1,1.4E1,8.5E0,1.7959226E-2,4.515E-2,5.1772664E-3,9.797E1,-3.195115E-2,2.3789579E-2,3.258856E-2,8.787527E-3,-2.426332E-2,6.3587143E-3,-5.491094E-2,-7.2118426E-3,1.413504E-2,3.3762906E-2],"split_indices":[234,98,211,0,0,248,173,234,160,124,35,174,211,0,76,0,52,0,0,0,0,0,0,0,0,0,0],"split_type":[0,0,0,0,0,0,0,0,0,0,0,0,0,0,0,0,0,0,0,0,0,0,0,0,0,0,0],"sum_hessian":[6.003364E2,1.3777809E2,4.6255835E2,1.5939601E1,1.2183849E2,2.7973422E2,1.8282413E2,1.5253555E2,1.2719868E2,1.5086484E2,3.1959278E1,3.7320496E1,1.1521506E2,1.863329E1,1.08565384E2,1.5448792E1,1.3541605E2,1.5772164E1,1.6187115E1,2.119875E1,1.6121746E1,6.446415E1,5.0750908E1,8.506753E1,2.3497854E1,1.6886847E1,1.18529205E2],"tree_param":{"num_deleted":"0","num_feature":"269","num_nodes":"27","size_leaf_vector":"1"}},{"base_weights":[2.0769896E-1,1.0158294E0,-5.8131948E-2,3.2917842E-2,7.6315454E-3,6.806177E-1,-6.8070287E-1,8.235935E-1,-2.4662225E-2,-1.6457293E0,-4.4512418E-1,-1.8034348E-2,9.768017E-1,-7.442894E-2,-3.0045053E-2,2.4573982E-1,-7.8574663E-1,3.165295E-2,6.111178E-3,1.795109E-2,-1.9263297E-2,-3.811337E-2,2.495642E-3],"categories":[],"categories_nodes":[],"categories_segments":[],"categories_sizes":[],"default_left":[0,0,0,0,0,0,0,0,0,0,0,0,0,0,0,0,0,0,0,0,0,0,0],"id":14,"left_children":[1,3,5,-1,-1,7,9,11,-1,13,15,-1,17,-1,-1,19,21,-1,-1,-1,-1,-1,-1],"loss_changes":[1.286306E2,8.221161E0,2.082373E2,0E0,0E0,4.5811142E1,5.3794388E1,4.2787796E1,0E0,1.9407227E1,4.775058E1,0E0,9.641144E0,0E0,0E0,2.1879229E1,5.74738E1,0E0,0E0,0E0,0E0,0E0,0E0],"parents":[2147483647,0,0,1,1,2,2,5,5,6,6,7,7,9,9,10,10,12,12,15,15,16,16],"right_children":[2,4,6,-1,-1,8,10,12,-1,14,16,-1,18,-1,-1,20,22,-1,-1,-1,-1,-1,-1],"split_conditions":[2.3099408E-2,5.63E-1,-8.25E0,3.2917842E-2,7.6315454E-3,1.3E1,4.5565E-1,-9.9E0,-2.4662225E-2,2.5E0,1.3E1,-1.8034348E-2,1.04E1,-7.442894E-2,-3.0045053E-2,1.1745E2,1.157E2,3.165295E-2,6.111178E-3,1.795109E-2,-1.9263297E-2,-3.811337E-2,2.495642E-3],"split_indices":[268,48,190,0,0,255,23,66,0,190,174,0,148,0,0,26,135,0,0,0,0,0,0],"split_type":[0,0,0,0,0,0,0,0,0,0,0,0,0,0,0,0,0,0,0,0,0,0,0],"sum_hessian":[5.9487915E2,1.4612935E2,4.4874982E2,1.3085873E2,1.5270613E1,2.049205E2,2.4382932E2,1.881246E2,1.67959E1,4.5244423E1,1.985849E2,1.7507792E1,1.706168E2,1.7015785E1,2.8228638E1,6.5470795E1,1.331141E2,1.5391154E2,1.6705254E1,4.756805E1,1.790275E1,8.5077995E1,4.8036106E1],"tree_param":{"num_deleted":"0","num_feature":"269","num_nodes":"23","size_leaf_vector":"1"}},{"base_weights":[1.805207E-1,9.9267966E-1,-7.9208106E-2,5.5366005E-3,3.2991026E-2,6.8234885E-1,-6.519607E-1,8.4759355E-1,-1.8545663E-2,-8.344129E-1,4.2198706E-1,9.480111E-1,1.4367638E-3,1.6557232E-2,-1.0539573E0,-3.3806125E-3,2.896615E-2,3.159762E-2,1.1854252E-2,-5.302292E-3,-4.1233007E-2],"categories":[],"categories_nodes":[],"categories_segments":[],"categories_sizes":[],"default_left":[0,0,0,0,0,0,0,0,0,0,0,0,0,0,0,0,0,0,0,0,0],"id":15,"left_children":[1,3,5,-1,-1,7,9,11,-1,13,15,17,-1,-1,19,-1,-1,-1,-1,-1,-1],"loss_changes":[1.2534878E2,1.1656097E1,1.9728102E2,0E0,0E0,4.2815353E1,5.1428383E1,1.3519478E1,0E0,6.877475E1,1.1688747E1,7.661255E0,0E0,0E0,5.308699E1,0E0,0E0,0E0,0E0,0E0,0E0],"parents":[2147483647,0,0,1,1,2,2,5,5,6,6,7,7,9,9,10,10,11,11,14,14],"right_children":[2,4,6,-1,-1,8,10,12,-1,14,16,18,-1,-1,20,-1,-1,-1,-1,-1,-1],"split_conditions":[2.3099408E-2,-5E0,-9E0,5.5366005E-3,3.2991026E-2,1.207E2,9.4E0,1.2E1,-1.8545663E-2,3E-1,-1E0,1.55E0,1.4367638E-3,1.6557232E-2,1.31E1,-3.3806125E-3,2.896615E-2,3.159762E-2,1.1854252E-2,-5.302292E-3,-4.1233007E-2],"split_indices":[268,83,190,0,0,15,145,255,0,128,234,80,0,0,29,0,0,0,0,0,0],"split_type":[0,0,0,0,0,0,0,0,0,0,0,0,0,0,0,0,0,0,0,0,0],"sum_hessian":[5.901913E2,1.4192136E2,4.4826993E2,1.7561922E1,1.24359436E2,1.9203084E2,2.562391E2,1.7120496E2,2.082587E1,2.1964859E2,3.6590515E1,1.5144246E2,1.97625E1,2.942832E1,1.9022028E2,1.8966858E1,1.7623655E1,1.252478E2,2.6194656E1,5.1979637E1,1.3824063E2],"tree_param":{"num_deleted":"0","num_feature":"269","num_nodes":"21","size_leaf_vector":"1"}},{"base_weights":[1.8364069E-1,9.661854E-1,-6.006474E-2,2.3140167E-3,3.253738E-2,-5.9582156E-1,7.6462317E-1,-1.4294317E-1,-1.0472436E0,-1.118623E-2,9.052769E-1,-7.945054E-1,2.0459971E-1,1.8134547E-2,-1.2768986E0,1.0332255E0,7.202861E-3,-3.838698E-2,2.9966638E-3,1.3290582E-2,-2.4606561E-2,7.606159E-3,-4.539845E-2,1.4560135E-2,3.306969E-2],"categories":[],"categories_nodes":[],"categories_segments":[],"categories_sizes":[],"default_left":[0,0,0,0,0,0,0,0,0,0,0,0,0,0,0,0,0,0,0,0,0,0,0,0,0],"id":16,"left_children":[1,3,5,-1,-1,7,9,11,13,-1,15,17,19,-1,21,23,-1,-1,-1,-1,-1,-1,-1,-1,-1],"loss_changes":[1.11952415E2,1.4149704E1,1.9865347E2,0E0,0E0,5.5097176E1,2.9145714E1,3.1929523E1,5.330716E1,0E0,1.2594315E1,2.1861832E1,2.3043392E1,0E0,4.4607788E1,3.4424286E0,0E0,0E0,0E0,0E0,0E0,0E0,0E0,0E0,0E0],"parents":[2147483647,0,0,1,1,2,2,5,5,6,6,7,7,8,8,10,10,11,11,12,12,14,14,15,15],"right_children":[2,4,6,-1,-1,8,10,12,14,-1,16,18,20,-1,22,24,-1,-1,-1,-1,-1,-1,-1,-1,-1],"split_conditions":[2.3099408E-2,-5E0,2.975E1,2.3140167E-3,3.253738E-2,5.1237434E-1,4.87E-1,-5E-2,-1.35E1,-1.118623E-2,2.5E1,7.786E-1,1.224E2,1.8134547E-2,1.124E2,4.518E-1,7.202861E-3,-3.838698E-2,2.9966638E-3,1.3290582E-2,-2.4606561E-2,7.606159E-3,-4.539845E-2,1.4560135E-2,3.306969E-2],"split_indices":[268,83,211,0,0,248,162,57,234,0,173,35,37,0,160,23,0,0,0,0,0,0,0,0,0],"split_type":[0,0,0,0,0,0,0,0,0,0,0,0,0,0,0,0,0,0,0,0,0,0,0,0,0],"sum_hessian":[5.829944E2,1.3732903E2,4.4566537E2,1.682471E1,1.2050432E2,2.7071484E2,1.7495053E2,1.367857E2,1.3392914E2,1.8654291E1,1.5629625E2,4.698702E1,8.979868E1,1.5790424E1,1.1813871E2,1.2977603E2,2.6520214E1,3.0123913E1,1.6863106E1,7.400896E1,1.578972E1,1.561657E1,1.0252213E2,1.681735E1,1.1295868E2],"tree_param":{"num_deleted":"0","num_feature":"269","num_nodes":"25","size_leaf_vector":"1"}},{"base_weights":[1.8377581E-1,9.6287286E-1,-5.988467E-2,3.146436E-3,1.0645894E0,-7.0803785E-1,6.1086535E-1,3.350447E-2,1.909741E-2,-3.9901602E-1,-1.454056E0,-2.4648875E-2,7.3036706E-1,6.284306E-2,-1.0180547E0,-1.8804243E0,-8.995647E-3,9.569857E-1,1.4423645E-1,1.20437E-2,-4.2676363E-2,-5.668924E-2,-8.925994E-3,-4.1648984E-2,-6.80848E-2,3.3866495E-2,1.1327453E-2,-2.170739E-2,3.17148E-2],"categories":[],"categories_nodes":[],"categories_segments":[],"categories_sizes":[],"default_left":[0,0,0,0,0,0,0,0,0,0,0,0,0,0,0,0,0,0,0,0,0,0,0,0,0,0,0,0,0],"id":17,"left_children":[1,3,5,-1,7,9,11,-1,-1,13,15,-1,17,19,21,23,-1,25,27,-1,-1,-1,-1,-1,-1,-1,-1,-1,-1],"loss_changes":[1.102498E2,1.1494385E1,1.9324644E2,0E0,8.03772E-1,5.0423157E1,3.8538902E1,0E0,0E0,4.700701E1,3.0305817E1,0E0,2.632093E1,4.858622E1,4.2195854E1,1.6089478E0,0E0,1.3184494E1,4.8570225E1,0E0,0E0,0E0,0E0,0E0,0E0,0E0,0E0,0E0,0E0],"parents":[2147483647,0,0,1,1,2,2,4,4,5,5,6,6,9,9,10,10,12,12,13,13,14,14,15,15,17,17,18,18],"right_children":[2,4,6,-1,8,10,12,-1,-1,14,16,-1,18,20,22,24,-1,26,28,-1,-1,-1,-1,-1,-1,-1,-1,-1,-1],"split_conditions":[2.3099408E-2,-6.75E0,1.75E1,3.146436E-3,2E-1,1.2E1,-6.3E0,3.350447E-2,1.909741E-2,2.5E-1,2.01E0,-2.4648875E-2,1.2E0,7.6E0,6.719422E-2,8.75E0,-8.995647E-3,1.435E1,8.8E-3,1.20437E-2,-4.2676363E-2,-5.668924E-2,-8.925994E-3,-4.1648984E-2,-6.80848E-2,3.3866495E-2,1.1327453E-2,-2.170739E-2,3.17148E-2],"split_indices":[268,111,211,0,71,256,101,0,0,211,153,0,80,2,265,28,0,138,86,0,0,0,0,0,0,0,0,0,0],"split_type":[0,0,0,0,0,0,0,0,0,0,0,0,0,0,0,0,0,0,0,0,0,0,0,0,0,0,0,0,0],"sum_hessian":[5.767314E2,1.3628667E2,4.404447E2,1.518774E1,1.2109893E2,2.2416637E2,2.1627835E2,1.0443593E2,1.6663E1,1.6096286E2,6.3203503E1,1.5555047E1,2.007233E2,9.293629E1,6.8026566E1,4.5045227E1,1.8158276E1,1.4347397E2,5.7249336E1,7.703629E1,1.5899998E1,2.9128906E1,3.889766E1,2.426304E1,2.0782188E1,1.08785126E2,3.468884E1,2.9393942E1,2.7855394E1],"tree_param":{"num_deleted":"0","num_feature":"269","num_nodes":"29","size_leaf_vector":"1"}},{"base_weights":[1.8544015E-1,9.5742875E-1,-5.225861E-2,4.0160045E-3,3.2049425E-2,-6.294536E-1,6.7592466E-1,2.2770743E-1,-8.246002E-1,8.591863E-1,-5.5511553E-2,-2.3677392E-2,2.5097372E-2,-1.206792E0,-1.955422E-2,4.817822E-3,9.824281E-1,-2.8874455E-2,2.5093827E-2,-1.2505534E-2,-4.8845466E-2,-3.343534E-2,1.410013E-2,7.327964E-3,3.25179E-2],"categories":[],"categories_nodes":[],"categories_segments":[],"categories_sizes":[],"default_left":[0,0,0,0,0,0,0,0,0,0,0,0,0,0,0,0,0,0,0,0,0,0,0,0,0],"id":18,"left_children":[1,3,5,-1,-1,7,9,11,13,15,17,-1,-1,19,21,-1,23,-1,-1,-1,-1,-1,-1,-1,-1],"loss_changes":[1.0716255E2,1.1901352E1,1.8852736E2,0E0,0E0,4.2434654E1,2.6902458E1,3.0878038E1,6.2554565E1,1.3024742E1,3.5025414E1,0E0,0E0,4.41286E1,3.7782467E1,0E0,9.137527E0,0E0,0E0,0E0,0E0,0E0,0E0,0E0,0E0],"parents":[2147483647,0,0,1,1,2,2,5,5,6,6,7,7,8,8,9,9,10,10,13,13,14,14,16,16],"right_children":[2,4,6,-1,-1,8,10,12,14,16,18,-1,-1,20,22,-1,24,-1,-1,-1,-1,-1,-1,-1,-1],"split_conditions":[2.3099408E-2,-5E0,2.4E1,4.0160045E-3,3.2049425E-2,3.5E-1,2.3E1,1.4350237E-1,1.157E2,-1.8382354E-2,7.778E-1,-2.3677392E-2,2.5097372E-2,1.3E1,-5E-2,4.817822E-3,4E-1,-2.8874455E-2,2.5093827E-2,-1.2505534E-2,-4.8845466E-2,-3.343534E-2,1.410013E-2,7.327964E-3,3.25179E-2],"split_indices":[268,83,211,0,0,139,173,266,135,217,35,0,0,174,57,0,128,0,0,0,0,0,0,0,0],"split_type":[0,0,0,0,0,0,0,0,0,0,0,0,0,0,0,0,0,0,0,0,0,0,0,0,0],"sum_hessian":[5.7996454E2,1.3540567E2,4.4455887E2,1.6912699E1,1.1849297E2,2.4837077E2,1.9618811E2,4.5712486E1,2.0265828E2,1.5693005E2,3.9258045E1,1.6712917E1,2.8999569E1,1.3648972E2,6.6168564E1,2.4588924E1,1.3234114E2,1.9553751E1,1.9704294E1,4.911285E1,8.737687E1,1.9844221E1,4.6324345E1,1.7178791E1,1.15162346E2],"tree_param":{"num_deleted":"0","num_feature":"269","num_nodes":"25","size_leaf_vector":"1"}},{"base_weights":[1.7616393E-1,3.2864008E-2,-1.3283069E-2,-4.2052004E-1,7.375312E-1,1.6006063E-1,-7.4111855E-1,-7.6604853E-3,8.7753016E-1,-6.7923623E-1,6.3721806E-1,-2.509801E-1,-1.2715071E0,4.4553713E-3,9.883553E-1,1.9397434E-2,-4.7649667E-2,3.0288773E-2,-1.9986063E-2,-2.6549306E-2,4.270511E-3,-1.6869551E-3,-4.5090068E-2,3.216106E-2,1.2835085E-2],"categories":[],"categories_nodes":[],"categories_segments":[],"categories_sizes":[],"default_left":[0,0,0,0,0,0,0,0,0,0,0,0,0,0,0,0,0,0,0,0,0,0,0,0,0],"id":19,"left_children":[1,-1,3,5,7,9,11,-1,13,15,17,19,21,-1,23,-1,-1,-1,-1,-1,-1,-1,-1,-1,-1],"loss_changes":[1.00292786E2,0E0,1.4652335E2,5.8319958E1,2.4040192E1,4.5703033E1,5.118917E1,0E0,1.134613E1,5.215351E1,3.671734E1,2.723528E1,2.6317017E1,0E0,4.6369324E0,0E0,0E0,0E0,0E0,0E0,0E0,0E0,0E0,0E0,0E0],"parents":[2147483647,0,0,2,2,3,3,4,4,5,5,6,6,8,8,9,9,10,10,11,11,12,12,14,14],"right_children":[2,-1,4,6,8,10,12,-1,14,16,18,20,22,-1,24,-1,-1,-1,-1,-1,-1,-1,-1,-1,-1],"split_conditions":[9.006756E-3,3.2864008E-2,2.975E1,1.7866491E-1,1.124E2,4.24E1,2E0,-7.6604853E-3,4.1E0,5.37E-1,2.96E1,7.280624E-2,1.12E1,4.4553713E-3,2E0,1.9397434E-2,-4.7649667E-2,3.0288773E-2,-1.9986063E-2,-2.6549306E-2,4.270511E-3,-1.6869551E-3,-4.5090068E-2,3.216106E-2,1.2835085E-2],"split_indices":[268,0,211,268,160,38,195,0,130,157,140,265,149,0,210,0,0,0,0,0,0,0,0,0,0],"split_type":[0,0,0,0,0,0,0,0,0,0,0,0,0,0,0,0,0,0,0,0,0,0,0,0,0],"sum_hessian":[5.7183716E2,9.634343E1,4.754937E2,3.0911246E2,1.6638126E2,1.09991516E2,1.9912093E2,2.0092607E1,1.4628865E2,3.9332253E1,7.065926E1,1.0531246E2,9.380847E1,2.027895E1,1.26009705E2,1.6099762E1,2.323249E1,5.5486782E1,1.51724825E1,3.965563E1,6.565683E1,1.5615236E1,7.819324E1,1.0758754E2,1.8422167E1],"tree_param":{"num_deleted":"0","num_feature":"269","num_nodes":"25","size_leaf_vector":"1"}},{"base_weights":[1.6182657E-1,9.504453E-1,-6.51339E-2,5.705692E-3,3.1768102E-2,8.751464E-1,-4.786534E-1,3.1690978E-2,2.5345865E-1,-6.6009396E-1,4.970371E-1,-1.5474014E-2,2.8715575E-2,-2.4240951E-1,-1.1879251E0,-5.457837E-3,2.9894505E-2,-5.0277844E-2,1.08656975E-4,-2.6226845E-3,-4.799736E-2],"categories":[],"categories_nodes":[],"categories_segments":[],"categories_sizes":[],"default_left":[0,0,0,0,0,0,0,0,0,0,0,0,0,0,0,0,0,0,0,0,0],"id":20,"left_children":[1,3,5,-1,-1,7,9,-1,11,13,15,-1,-1,17,19,-1,-1,-1,-1,-1,-1],"loss_changes":[1.0268116E2,9.791954E0,1.7388774E2,0E0,0E0,1.4452507E1,5.573353E1,0E0,1.9427605E1,5.70263E1,1.7434237E1,0E0,0E0,5.3336987E1,5.1557465E1,0E0,0E0,0E0,0E0,0E0,0E0],"parents":[2147483647,0,0,1,1,2,2,5,5,6,6,8,8,9,9,10,10,13,13,14,14],"right_children":[2,4,6,-1,-1,8,10,-1,12,14,16,-1,-1,18,20,-1,-1,-1,-1,-1,-1],"split_conditions":[2.3099408E-2,-5E0,-1.6E1,5.705692E-3,3.1768102E-2,2.70625E1,9.4E0,3.1690978E-2,1.4E1,-2E-1,1.25E0,-1.5474014E-2,2.8715575E-2,6.992E-1,-2.9E-2,-5.457837E-3,2.9894505E-2,-5.0277844E-2,1.08656975E-4,-2.6226845E-3,-4.799736E-2],"split_indices":[268,83,190,0,0,242,145,0,256,145,243,0,0,144,87,0,0,0,0,0,0],"split_type":[0,0,0,0,0,0,0,0,0,0,0,0,0,0,0,0,0,0,0,0,0],"sum_hessian":[5.6950946E2,1.2614394E2,4.433655E2,1.678613E1,1.0935781E2,1.3452287E2,3.0884265E2,1.0270409E2,3.1818789E1,2.612202E2,4.7622425E1,1.5253095E1,1.6565693E1,1.4777193E2,1.134483E2,2.0468136E1,2.7154287E1,2.0122496E1,1.2764943E2,3.176091E1,8.168739E1],"tree_param":{"num_deleted":"0","num_feature":"269","num_nodes":"21","size_leaf_vector":"1"}},{"base_weights":[1.6579066E-1,9.3894666E-1,-5.3789895E-2,1.0588784E0,5.1010703E-3,8.586074E-1,-4.4593978E-1,3.3267204E-2,1.9350551E-2,1.0452101E0,1.9698864E-1,2.0882718E-1,-7.430573E-1,1.9687423E-2,3.332275E-2,2.6099376E-2,-1.4540393E-2,-1.5398067E-1,8.9231086E-1,-9.200936E-1,1.2617469E-2,-2.0519894E-2,1.930293E-2,3.4771703E-2,1.3949413E-2,2.8066933E-3,-3.338684E-2],"categories":[],"categories_nodes":[],"categories_segments":[],"categories_sizes":[],"default_left":[0,0,0,0,0,0,0,0,0,0,0,0,0,0,0,0,0,0,0,0,0,0,0,0,0,0,0],"id":21,"left_children":[1,3,5,7,-1,9,11,-1,-1,13,15,17,19,-1,-1,-1,-1,21,23,25,-1,-1,-1,-1,-1,-1,-1],"loss_changes":[9.637299E1,1.084388E1,1.5879337E2,2.7611542E-1,0E0,1.5675774E1,6.0913208E1,0E0,0E0,6.4258575E-1,1.5707281E1,2.4853172E1,4.5105324E1,0E0,0E0,0E0,0E0,2.8610455E1,2.383566E0,3.705951E1,0E0,0E0,0E0,0E0,0E0,0E0,0E0],"parents":[2147483647,0,0,1,1,2,2,3,3,5,5,6,6,9,9,10,10,11,11,12,12,17,17,18,18,19,19],"right_children":[2,4,6,8,-1,10,12,-1,-1,14,16,18,20,-1,-1,-1,-1,22,24,26,-1,-1,-1,-1,-1,-1,-1],"split_conditions":[2.3099408E-2,2.5E0,-1.575E1,4.926E-1,5.1010703E-3,2.70625E1,4.5E0,3.3267204E-2,1.9350551E-2,2.34E1,-3.4E1,5.5E0,3.95E-1,1.9687423E-2,3.332275E-2,2.6099376E-2,-1.4540393E-2,9.5E0,6.75E0,4E0,1.2617469E-2,-2.0519894E-2,1.930293E-2,3.4771703E-2,1.3949413E-2,2.8066933E-3,-3.338684E-2],"split_indices":[268,79,190,34,0,242,191,0,0,31,190,237,33,0,0,0,0,211,234,256,0,0,0,0,0,0,0],"split_type":[0,0,0,0,0,0,0,0,0,0,0,0,0,0,0,0,0,0,0,0,0,0,0,0,0,0,0],"sum_hessian":[5.635087E2,1.2349383E2,4.4001492E2,1.058408E2,1.7653027E1,1.313244E2,3.0869052E2,9.078298E1,1.5057821E1,1.0117582E2,3.0148582E1,9.622381E1,2.124667E2,1.842747E1,8.274835E1,1.5114294E1,1.5034287E1,6.358305E1,3.264076E1,1.8499756E2,2.7469145E1,3.8592464E1,2.4990587E1,1.7555613E1,1.5085145E1,2.9480038E1,1.5551753E2],"tree_param":{"num_deleted":"0","num_feature":"269","num_nodes":"27","size_leaf_vector":"1"}},{"base_weights":[1.8509391E-1,9.327129E-1,-1.9345263E-2,-2.3587805E-3,3.270976E-2,8.5884815E-1,-3.920796E-1,9.744095E-1,-0E0,-1.7194325E-1,-1.3064327E0,1.450639E-2,3.182968E-2,9.239206E-2,-8.9247626E-1,-1.7997183E0,-9.397454E-3,-3.3394013E-2,8.7193195E-3,1.1357512E-2,-4.0844757E-2,-6.857788E-2,-3.409269E-2],"categories":[],"categories_nodes":[],"categories_segments":[],"categories_sizes":[],"default_left":[0,0,0,0,0,0,0,0,0,0,0,0,0,0,0,0,0,0,0,0,0,0,0],"id":22,"left_children":[1,3,5,-1,-1,7,9,11,-1,13,15,-1,-1,17,19,21,-1,-1,-1,-1,-1,-1,-1],"loss_changes":[8.551405E1,1.9612762E1,1.4436357E2,0E0,0E0,1.3097603E1,6.1522213E1,3.4322891E0,0E0,4.849383E1,2.743885E1,0E0,0E0,4.4908085E1,4.2017773E1,6.419655E0,0E0,0E0,0E0,0E0,0E0,0E0,0E0],"parents":[2147483647,0,0,1,1,2,2,5,5,6,6,7,7,9,9,10,10,13,13,14,14,15,15],"right_children":[2,4,6,-1,-1,8,10,12,-1,14,16,-1,-1,18,20,22,-1,-1,-1,-1,-1,-1,-1],"split_conditions":[-1.275E1,-3E0,-1.6E1,-2.3587805E-3,3.270976E-2,2.9E1,3E0,2.34E1,-0E0,1.182E2,-2.5E-1,1.450639E-2,3.182968E-2,2.34E1,-2.2E0,3.544E-1,-9.397454E-3,-3.3394013E-2,8.7193195E-3,1.1357512E-2,-4.0844757E-2,-6.857788E-2,-3.409269E-2],"split_indices":[234,98,190,0,0,173,223,31,0,15,212,0,0,31,154,11,0,0,0,0,0,0,0],"split_type":[0,0,0,0,0,0,0,0,0,0,0,0,0,0,0,0,0,0,0,0,0,0,0],"sum_hessian":[5.55462E2,1.1806173E2,4.3740027E2,1.5797043E1,1.0226469E2,1.293135E2,3.0808673E2,1.1380844E2,1.5505068E1,2.5048508E2,5.7601673E1,1.9558245E1,9.42502E1,1.842267E2,6.625837E1,3.719955E1,2.0402122E1,2.45007E1,1.59726E2,1.7790648E1,4.846772E1,1.8380943E1,1.8818607E1],"tree_param":{"num_deleted":"0","num_feature":"269","num_nodes":"23","size_leaf_vector":"1"}},{"base_weights":[1.536201E-1,3.2086365E-2,-1.6773771E-2,-4.8370507E-1,5.687746E-1,1.2516204E-1,-8.932705E-1,-1.8133378E-1,7.7510643E-1,-3.928488E-2,4.4677767E-1,-4.3273708E-1,-1.3732052E0,-3.5534706E-2,2.3306582E-2,-2.439039E-3,8.985264E-1,-2.7997611E-2,2.4206638E-2,-5.56974E-4,-3.4816124E-2,-4.7991704E-2,-1.5972627E-2,2.97209E-2,7.966519E-3],"categories":[],"categories_nodes":[],"categories_segments":[],"categories_sizes":[],"default_left":[0,0,0,0,0,0,0,0,0,0,0,0,0,0,0,0,0,0,0,0,0,0,0,0,0],"id":23,"left_children":[1,-1,3,5,7,9,11,13,15,-1,17,19,21,-1,-1,-1,23,-1,-1,-1,-1,-1,-1,-1,-1],"loss_changes":[8.80989E1,0E0,1.3059727E2,6.679782E1,3.3223656E1,5.0951134E1,3.3544243E1,4.7118183E1,1.8013176E1,0E0,4.6320305E1,2.5129398E1,1.2305008E1,0E0,0E0,0E0,7.6260147E0,0E0,0E0,0E0,0E0,0E0,0E0,0E0,0E0],"parents":[2147483647,0,0,2,2,3,3,4,4,5,5,6,6,7,7,8,8,10,10,11,11,12,12,16,16],"right_children":[2,-1,4,6,8,10,12,14,16,-1,18,20,22,-1,-1,-1,24,-1,-1,-1,-1,-1,-1,-1,-1],"split_conditions":[9.006756E-3,3.2086365E-2,1.75E1,1.7866491E-1,-1.7486313E-2,-1E1,7.25E0,4.5E1,4.87E-1,-3.928488E-2,-2.365E-2,2E-1,1.162E2,-3.5534706E-2,2.3306582E-2,-2.439039E-3,2.895E1,-2.7997611E-2,2.4206638E-2,-5.56974E-4,-3.4816124E-2,-4.7991704E-2,-1.5972627E-2,2.97209E-2,7.966519E-3],"split_indices":[268,0,211,268,217,59,193,211,162,0,75,108,124,0,0,0,242,0,0,0,0,0,0,0,0],"split_type":[0,0,0,0,0,0,0,0,0,0,0,0,0,0,0,0,0,0,0,0,0,0,0,0,0],"sum_hessian":[5.602366E2,8.649628E1,4.7374033E2,2.640446E2,2.0969574E2,1.06450195E2,1.5759439E2,4.4976055E1,1.6471968E2,1.819778E1,8.825241E1,8.268262E1,7.491177E1,2.1895039E1,2.3081017E1,2.0528025E1,1.4419165E2,1.7432096E1,7.082031E1,5.4265068E1,2.8417547E1,5.7309673E1,1.76021E1,1.24463715E2,1.9727938E1],"tree_param":{"num_deleted":"0","num_feature":"269","num_nodes":"25","size_leaf_vector":"1"}},{"base_weights":[1.458261E-1,8.5723364E-1,-5.8936846E-2,1.0283358E0,8.567654E-3,7.631768E-1,-3.5255563E-1,1.9544095E-2,3.285562E-2,9.9081224E-1,1.2874223E-3,1.2421595E-1,-7.5605047E-1,3.249074E-2,1.8272527E-2,-1.7297927E-1,7.4496454E-1,-1.5100172E0,-5.536783E-1,2.9130865E-2,-1.881596E-2,3.1539876E-2,5.098497E-3,-6.1110385E-2,-2.1133557E-2,4.281346E-4,-2.8687749E-2],"categories":[],"categories_nodes":[],"categories_segments":[],"categories_sizes":[],"default_left":[0,0,0,0,0,0,0,0,0,0,0,0,0,0,0,0,0,0,0,0,0,0,0,0,0,0,0],"id":24,"left_children":[1,3,5,7,-1,9,11,-1,-1,13,-1,15,17,-1,-1,19,21,23,25,-1,-1,-1,-1,-1,-1,-1,-1],"loss_changes":[8.138623E1,1.1225403E1,1.0507168E2,4.3946075E-1,0E0,1.837146E1,6.214932E1,0E0,0E0,1.220192E0,0E0,2.7836752E1,2.4340233E1,0E0,0E0,5.3992687E1,7.8735695E0,1.1362602E1,3.2566254E1,0E0,0E0,0E0,0E0,0E0,0E0,0E0,0E0],"parents":[2147483647,0,0,1,1,2,2,3,3,5,5,6,6,9,9,11,11,12,12,15,15,16,16,17,17,18,18],"right_children":[2,4,6,8,-1,10,12,-1,-1,14,-1,16,18,-1,-1,20,22,24,26,-1,-1,-1,-1,-1,-1,-1,-1],"split_conditions":[-1.6E1,2.70625E1,-3.275E1,2.34E1,8.567654E-3,7.25E0,5E0,1.9544095E-2,3.285562E-2,-4.45E1,1.2874223E-3,5.75E0,4.5565E-1,3.249074E-2,1.8272527E-2,-7.75E0,1.1E0,4.75E0,-1E0,2.9130865E-2,-1.881596E-2,3.1539876E-2,5.098497E-3,-6.1110385E-2,-2.1133557E-2,4.281346E-4,-2.8687749E-2],"split_indices":[190,242,211,31,0,206,219,0,0,211,0,190,23,0,0,190,72,190,111,0,0,0,0,0,0,0,0],"split_type":[0,0,0,0,0,0,0,0,0,0,0,0,0,0,0,0,0,0,0,0,0,0,0,0,0,0,0],"sum_hessian":[5.5436536E2,1.2280306E2,4.315623E2,9.2880035E1,2.992303E1,1.1246037E2,3.1910193E2,1.7907372E1,7.4972664E1,8.4565956E1,2.7894413E1,1.4656305E2,1.7253888E2,6.451992E1,2.0046036E1,9.976029E1,4.6802753E1,3.34628E1,1.3907608E2,2.7517637E1,7.224265E1,2.9113049E1,1.7689705E1,1.8155699E1,1.5307101E1,5.8180485E1,8.08956E1],"tree_param":{"num_deleted":"0","num_feature":"269","num_nodes":"27","size_leaf_vector":"1"}},{"base_weights":[1.4570428E-1,9.154296E-1,-5.845913E-2,2.3274622E-3,3.1191861E-2,8.367974E-1,-4.0666568E-1,9.8384684E-1,-0E0,2.214182E-1,-6.7654866E-1,1.8990729E-2,3.2045376E-2,-1.5892622E-1,2.8717423E-2,2.7056673E-1,-8.524085E-1,-2.219818E-2,1.0754799E-2,-1.2433882E-2,2.8007684E-2,1.2353313E-2,-3.0090211E-2],"categories":[],"categories_nodes":[],"categories_segments":[],"categories_sizes":[],"default_left":[0,0,0,0,0,0,0,0,0,0,0,0,0,0,0,0,0,0,0,0,0,0,0],"id":25,"left_children":[1,3,5,-1,-1,7,9,11,-1,13,15,-1,-1,17,-1,19,21,-1,-1,-1,-1,-1,-1],"loss_changes":[8.7368515E1,1.1635376E1,1.374491E2,0E0,0E0,1.498156E1,5.4299534E1,1.2360001E0,0E0,2.7600182E1,3.7792847E1,0E0,0E0,2.0239576E1,0E0,1.7365187E1,3.6966797E1,0E0,0E0,0E0,0E0,0E0,0E0],"parents":[2147483647,0,0,1,1,2,2,5,5,6,6,7,7,9,9,10,10,13,13,15,15,16,16],"right_children":[2,4,6,-1,-1,8,10,12,-1,14,16,-1,-1,18,-1,20,22,-1,-1,-1,-1,-1,-1],"split_conditions":[2.3099408E-2,-4.8E0,-1.6E1,2.3274622E-3,3.1191861E-2,1.35E1,4.5E0,0E0,-0E0,5.5E0,4E0,1.8990729E-2,3.2045376E-2,-9E-1,2.8717423E-2,2.5E0,-2.3E-2,-2.219818E-2,1.0754799E-2,-1.2433882E-2,2.8007684E-2,1.2353313E-2,-3.0090211E-2],"split_indices":[268,83,190,0,0,191,191,159,0,237,256,0,0,67,0,190,99,0,0,0,0,0,0],"split_type":[0,0,0,0,0,0,0,0,0,0,0,0,0,0,0,0,0,0,0,0,0,0,0],"sum_hessian":[5.5164E2,1.1449171E2,4.3714835E2,1.5522575E1,9.896913E1,1.2138739E2,3.1576096E2,1.0273744E2,1.8649946E1,9.467547E1,2.2108548E2,2.3896797E1,7.8840645E1,6.3179043E1,3.1496426E1,3.4186546E1,1.8689893E2,2.9628609E1,3.3550434E1,1.6960455E1,1.7226093E1,1.9313433E1,1.675855E2],"tree_param":{"num_deleted":"0","num_feature":"269","num_nodes":"23","size_leaf_vector":"1"}},{"base_weights":[1.5192814E-1,3.1664014E-2,-1.1360692E-2,8.2016784E-1,-3.0380684E-1,9.661897E-1,3.5975764E-3,7.645508E-2,-6.7144126E-1,1.4207067E-2,3.1210445E-2,-1.8644488E-1,6.6197145E-1,-1.1568612E0,-1.7510107E-1,2.4789343E-2,-1.3896632E-2,3.0983694E-2,4.101246E-3,-4.1904096E-2,-4.8744013E-3,2.1903016E-2,-1.5414168E-2],"categories":[],"categories_nodes":[],"categories_segments":[],"categories_sizes":[],"default_left":[0,0,0,0,0,0,0,0,0,0,0,0,0,0,0,0,0,0,0,0,0,0,0],"id":26,"left_children":[1,-1,3,5,7,9,-1,11,13,-1,-1,15,17,19,21,-1,-1,-1,-1,-1,-1,-1,-1],"loss_changes":[8.071411E1,0E0,1.12958984E2,1.1791092E1,4.8418022E1,2.1877823E0,0E0,2.665866E1,4.1522217E1,0E0,0E0,3.400755E1,9.821228E0,2.011139E1,2.8133282E1,0E0,0E0,0E0,0E0,0E0,0E0,0E0,0E0],"parents":[2147483647,0,0,2,2,3,3,4,4,5,5,7,7,8,8,11,11,12,12,13,13,14,14],"right_children":[2,-1,4,6,8,10,-1,12,14,-1,-1,16,18,20,22,-1,-1,-1,-1,-1,-1,-1,-1],"split_conditions":[9.006756E-3,3.1664014E-2,-1.6E1,2E0,4.7777778E-1,4.414E-1,3.5975764E-3,6.5E0,6.125E0,1.4207067E-2,3.1210445E-2,-9E0,-2E-1,4.515E-2,-2.53E-2,2.4789343E-2,-1.3896632E-2,3.0983694E-2,4.101246E-3,-4.1904096E-2,-4.8744013E-3,2.1903016E-2,-1.5414168E-2],"split_indices":[268,0,190,188,225,143,0,190,260,0,0,190,62,76,63,0,0,0,0,0,0,0,0],"split_type":[0,0,0,0,0,0,0,0,0,0,0,0,0,0,0,0,0,0,0,0,0,0,0],"sum_hessian":[5.427884E2,8.16879E1,4.611005E2,1.1876746E2,3.4233304E2,9.729144E1,2.1476023E1,1.6865407E2,1.7367896E2,1.5191874E1,8.209957E1,1.1698014E2,5.1673927E1,8.615425E1,8.752471E1,2.4022852E1,9.295729E1,2.8822556E1,2.2851372E1,6.851148E1,1.7642767E1,2.2961723E1,6.456299E1],"tree_param":{"num_deleted":"0","num_feature":"269","num_nodes":"23","size_leaf_vector":"1"}},{"base_weights":[1.3666685E-1,9.226218E-1,-6.6436864E-2,3.1477112E-2,8.763367E-3,8.013117E-1,-3.9402547E-1,3.0638222E-2,3.2646956E-3,-5.5980206E-1,5.093413E-1,-1.6533685E-1,-1.0405947E0,-3.074033E-3,2.8796466E-2,-4.3457523E-2,1.9951924E-3,7.977241E-4,-4.3861035E-2],"categories":[],"categories_nodes":[],"categories_segments":[],"categories_sizes":[],"default_left":[0,0,0,0,0,0,0,0,0,0,0,0,0,0,0,0,0,0,0],"id":27,"left_children":[1,3,5,-1,-1,7,9,-1,-1,11,13,15,17,-1,-1,-1,-1,-1,-1],"loss_changes":[8.8434715E1,8.062561E0,1.2555915E2,0E0,0E0,1.7864578E1,4.8648365E1,0E0,0E0,5.0958214E1,1.4382297E1,4.5936054E1,5.5401016E1,0E0,0E0,0E0,0E0,0E0,0E0],"parents":[2147483647,0,0,1,1,2,2,5,5,6,6,9,9,10,10,11,11,12,12],"right_children":[2,4,6,-1,-1,8,10,-1,-1,12,14,16,18,-1,-1,-1,-1,-1,-1],"split_conditions":[2.3099408E-2,1.91E1,-1.575E1,3.1477112E-2,8.763367E-3,2.70625E1,9.4E0,3.0638222E-2,3.2646956E-3,-2E-1,1E0,6.992E-1,-2.9E-2,-3.074033E-3,2.8796466E-2,-4.3457523E-2,1.9951924E-3,7.977241E-4,-4.3861035E-2],"split_indices":[268,45,190,0,0,242,145,0,0,145,243,144,87,0,0,0,0,0,0],"split_type":[0,0,0,0,0,0,0,0,0,0,0,0,0,0,0,0,0,0,0],"sum_hessian":[5.496197E2,1.1171305E2,4.3790665E2,9.152875E1,2.0184305E1,1.18967094E2,3.1893958E2,8.9238525E1,2.9728565E1,2.7040952E2,4.8530056E1,1.503593E2,1.2005022E2,2.0954416E1,2.7575642E1,2.1600233E1,1.2875906E2,3.431599E1,8.573423E1],"tree_param":{"num_deleted":"0","num_feature":"269","num_nodes":"19","size_leaf_vector":"1"}},{"base_weights":[1.6067438E-1,9.0726304E-1,-3.2177325E-2,1.1333139E-2,3.24814E-2,8.100148E-1,-3.4662127E-1,1.0008936E0,5.7581295E-3,2.2983047E-1,-5.933543E-1,1.6286975E-2,3.2345716E-2,-1.1831615E-1,8.951101E-1,1.4288436E-2,-7.521014E-1,-1.8500643E-2,1.8428015E-2,3.395183E-2,1.5801955E-2,-2.7217342E-2,1.156802E-2],"categories":[],"categories_nodes":[],"categories_segments":[],"categories_sizes":[],"default_left":[0,0,0,0,0,0,0,0,0,0,0,0,0,0,0,0,0,0,0,0,0,0,0],"id":28,"left_children":[1,3,5,-1,-1,7,9,11,-1,13,15,-1,-1,17,19,-1,21,-1,-1,-1,-1,-1,-1],"loss_changes":[7.773186E1,9.033188E0,1.1400194E2,0E0,0E0,1.3054047E1,4.5034973E1,1.4760284E0,0E0,2.2489416E1,3.828685E1,0E0,0E0,2.410693E1,1.2063904E0,0E0,3.4968254E1,0E0,0E0,0E0,0E0,0E0,0E0],"parents":[2147483647,0,0,1,1,2,2,5,5,6,6,7,7,9,9,10,10,13,13,14,14,16,16],"right_children":[2,4,6,-1,-1,8,10,12,-1,14,16,-1,-1,18,20,-1,22,-1,-1,-1,-1,-1,-1],"split_conditions":[2.3099408E-2,4.26E1,-1.575E1,1.1333139E-2,3.24814E-2,2.70625E1,4.5E0,2.34E1,5.7581295E-3,5.5E0,3E-1,1.6286975E-2,3.2345716E-2,9.5E0,8.5E0,1.4288436E-2,3.95E-1,-1.8500643E-2,1.8428015E-2,3.395183E-2,1.5801955E-2,-2.7217342E-2,1.156802E-2],"split_indices":[268,38,190,0,0,242,191,31,0,237,128,0,0,211,211,0,33,0,0,0,0,0,0],"split_type":[0,0,0,0,0,0,0,0,0,0,0,0,0,0,0,0,0,0,0,0,0,0,0],"sum_hessian":[5.3564734E2,1.08758026E2,4.268893E2,2.9063488E1,7.9694534E1,1.1493816E2,3.1195117E2,8.6500404E1,2.8437757E1,9.317768E1,2.1877347E2,1.5368487E1,7.113192E1,6.1951366E1,3.1226318E1,2.7511463E1,1.9126201E2,3.7301376E1,2.464999E1,1.5994151E1,1.5232167E1,1.6889885E2,2.2363155E1],"tree_param":{"num_deleted":"0","num_feature":"269","num_nodes":"23","size_leaf_vector":"1"}},{"base_weights":[1.5222205E-1,8.922267E-1,-3.5451047E-2,1.0260049E-2,3.2350358E-2,-5.0275934E-1,5.2248704E-1,3.9999437E-1,-6.8972164E-1,6.6356075E-1,-1.5270959E-2,-9.238541E-3,2.5354035E-2,-9.9166876E-1,-0E0,3.4289834E-1,3.1169785E-2,-4.4646463E-3,-3.8411975E-2,-3.0521488E-2,1.4993357E-2,2.864737E-2,-0E0],"categories":[],"categories_nodes":[],"categories_segments":[],"categories_sizes":[],"default_left":[0,0,0,0,0,0,0,0,0,0,0,0,0,0,0,0,0,0,0,0,0,0,0],"id":29,"left_children":[1,3,5,-1,-1,7,9,11,13,15,-1,-1,-1,17,19,21,-1,-1,-1,-1,-1,-1,-1],"loss_changes":[7.44592E1,9.936996E0,1.119657E2,0E0,0E0,4.01207E1,2.9173424E1,1.3641596E1,4.0789825E1,1.971402E1,0E0,0E0,0E0,3.2216187E1,3.1963137E1,2.0565407E1,0E0,0E0,0E0,0E0,0E0,0E0,0E0],"parents":[2147483647,0,0,1,1,2,2,5,5,6,6,7,7,8,8,9,9,13,13,14,14,15,15],"right_children":[2,4,6,-1,-1,8,10,12,14,16,-1,-1,-1,18,20,22,-1,-1,-1,-1,-1,-1,-1],"split_conditions":[2.3099408E-2,4.26E1,1.75E1,1.0260049E-2,3.2350358E-2,3.5E-1,1.206E2,2.0781198E-1,1.157E2,6E-1,-1.5270959E-2,-9.238541E-3,2.5354035E-2,1.305E1,4.684E-1,-2.6E-2,3.1169785E-2,-4.4646463E-3,-3.8411975E-2,-3.0521488E-2,1.4993357E-2,2.864737E-2,-0E0],"split_indices":[268,38,211,0,0,139,15,266,135,139,0,0,0,29,121,94,0,0,0,0,0,0,0],"split_type":[0,0,0,0,0,0,0,0,0,0,0,0,0,0,0,0,0,0,0,0,0,0,0],"sum_hessian":[5.3183826E2,1.0639753E2,4.254407E2,2.8734953E1,7.7662575E1,2.3192467E2,1.9351604E2,3.9124966E1,1.9279971E2,1.7111772E2,2.2398314E1,1.5081678E1,2.4043287E1,1.3371103E2,5.9088684E1,9.4785614E1,7.63321E1,3.5155823E1,9.85552E1,1.8635618E1,4.0453064E1,3.3033306E1,6.175231E1],"tree_param":{"num_deleted":"0","num_feature":"269","num_nodes":"23","size_leaf_vector":"1"}},{"base_weights":[1.4291015E-1,8.8798064E-1,-4.13966E-2,8.544748E-3,3.1862617E-2,-4.982386E-1,5.076914E-1,-2.4451366E-1,-1.0605589E0,-2.3698498E-2,6.255312E-1,4.6582407E-1,-5.120874E-1,-1.4310465E0,6.556279E-3,8.8577104E-1,8.923412E-3,2.9007513E-2,-6.8694786E-3,-4.787838E-2,-3.7272496E-3,-5.455609E-2,-2.5436819E-2,3.0697957E-2,-2.1724568E-3,2.0770578E-2,-3.0544013E-2],"categories":[],"categories_nodes":[],"categories_segments":[],"categories_sizes":[],"default_left":[0,0,0,0,0,0,0,0,0,0,0,0,0,0,0,0,0,0,0,0,0,0,0,0,0,0,0],"id":30,"left_children":[1,3,5,-1,-1,7,9,11,13,-1,15,17,19,21,-1,23,25,-1,-1,-1,-1,-1,-1,-1,-1,-1,-1],"loss_changes":[7.382544E1,1.0180458E1,1.0853554E2,0E0,0E0,3.2816742E1,3.0953087E1,3.201534E1,3.536132E1,0E0,2.8803284E1,1.672229E1,5.0261658E1,8.925827E0,0E0,1.7179245E1,4.0732914E1,0E0,0E0,0E0,0E0,0E0,0E0,0E0,0E0,0E0,0E0],"parents":[2147483647,0,0,1,1,2,2,5,5,6,6,7,7,8,8,10,10,11,11,12,12,13,13,15,15,16,16],"right_children":[2,4,6,-1,-1,8,10,12,14,-1,16,18,20,22,-1,24,26,-1,-1,-1,-1,-1,-1,-1,-1,-1,-1],"split_conditions":[2.3099408E-2,4.22E1,1.75E1,8.544748E-3,3.1862617E-2,1.2E1,-6.9E0,-2.4E0,3.76E-1,-2.3698498E-2,1.2E0,2.69E1,-1.8E0,2.6E-3,6.556279E-3,1.58E1,4.684E-1,2.9007513E-2,-6.8694786E-3,-4.787838E-2,-3.7272496E-3,-5.455609E-2,-2.5436819E-2,3.0697957E-2,-2.1724568E-3,2.0770578E-2,-3.0544013E-2],"split_indices":[268,38,211,0,0,256,101,68,33,0,80,20,90,85,0,127,34,0,0,0,0,0,0,0,0,0,0],"split_type":[0,0,0,0,0,0,0,0,0,0,0,0,0,0,0,0,0,0,0,0,0,0,0,0,0,0,0],"sum_hessian":[5.332252E2,1.0455353E2,4.2867172E2,2.4986835E1,7.956669E1,2.3439026E2,1.9428146E2,1.6385866E2,7.05316E1,1.5012469E1,1.7926898E2,4.412237E1,1.1973628E2,5.4688286E1,1.5843319E1,1.2510762E2,5.4161366E1,2.5430475E1,1.8691895E1,2.9709093E1,9.002719E1,3.0001617E1,2.4686668E1,1.09563194E2,1.5544432E1,3.30878E1,2.1073566E1],"tree_param":{"num_deleted":"0","num_feature":"269","num_nodes":"27","size_leaf_vector":"1"}},{"base_weights":[1.21353306E-1,3.1048179E-2,-2.9256053E-2,-2.7141994E-1,8.617976E-1,-4.238717E-1,5.9767336E-1,-0E0,3.0740965E-2,3.8112912E-1,-6.59566E-1,-4.337569E-3,3.2910742E-2,2.183858E-2,-2.3451284E-2,-2.8295936E-2,5.819609E-3],"categories":[],"categories_nodes":[],"categories_segments":[],"categories_sizes":[],"default_left":[0,0,0,0,0,0,0,0,0,0,0,0,0,0,0,0,0],"id":31,"left_children":[1,-1,3,5,7,9,11,-1,-1,13,15,-1,-1,-1,-1,-1,-1],"loss_changes":[7.35731E1,0E0,9.9212906E1,4.8451744E1,1.3603851E1,5.93392E1,2.083967E1,0E0,0E0,2.9800694E1,5.8826355E1,0E0,0E0,0E0,0E0,0E0,0E0],"parents":[2147483647,0,0,2,2,3,3,4,4,5,5,6,6,9,9,10,10],"right_children":[2,-1,4,6,8,10,12,-1,-1,14,16,-1,-1,-1,-1,-1,-1],"split_conditions":[9.006756E-3,3.1048179E-2,9.7837424E-1,3E0,8E-1,3.5E-1,1E0,-0E0,3.0740965E-2,1.3E1,3.77E-1,-4.337569E-3,3.2910742E-2,2.183858E-2,-2.3451284E-2,-2.8295936E-2,5.819609E-3],"split_indices":[268,0,268,165,159,139,212,0,0,200,11,0,0,0,0,0,0],"split_type":[0,0,0,0,0,0,0,0,0,0,0,0,0,0,0,0,0],"sum_hessian":[5.300765E2,7.363857E1,4.564379E2,3.6025732E2,9.618057E1,3.0765915E2,5.2598183E1,1.5779206E1,8.040137E1,6.911019E1,2.3854895E2,2.14838E1,3.1114384E1,5.400796E1,1.5102233E1,1.7915721E2,5.9391735E1],"tree_param":{"num_deleted":"0","num_feature":"269","num_nodes":"17","size_leaf_vector":"1"}},{"base_weights":[1.4661662E-1,8.298407E-1,-4.8590988E-2,9.699155E-1,1.9128218E-4,-3.1958517E-1,8.250887E-1,1.6921876E-2,3.1881053E-2,-5.8704436E-1,1.4326881E-1,-2.2562519E-3,3.0413607E-2,2.0845173E-2,-7.331503E-1,-3.6541138E-2,3.7590244E-1,1.1535024E-2,-2.758847E-2,2.420952E-2,-1.0777956E-2],"categories":[],"categories_nodes":[],"categories_segments":[],"categories_sizes":[],"default_left":[0,0,0,0,0,0,0,0,0,0,0,0,0,0,0,0,0,0,0,0,0],"id":32,"left_children":[1,3,5,7,-1,9,11,-1,-1,13,15,-1,-1,-1,17,-1,19,-1,-1,-1,-1],"loss_changes":[6.996243E1,1.3132523E1,9.690617E1,2.0501938E0,0E0,3.9035606E1,1.6882133E1,0E0,0E0,3.8321037E1,3.7330765E1,0E0,0E0,0E0,3.8363083E1,0E0,3.2597126E1,0E0,0E0,0E0,0E0],"parents":[2147483647,0,0,1,1,2,2,3,3,5,5,6,6,9,9,10,10,14,14,16,16],"right_children":[2,4,6,8,-1,10,12,-1,-1,14,16,-1,-1,-1,18,-1,20,-1,-1,-1,-1],"split_conditions":[3.207732E-2,8E0,9.7837424E-1,4.22E1,1.9128218E-4,2.0245886E-1,8E-1,1.6921876E-2,3.1881053E-2,7.302E-1,7.4315E-1,-2.2562519E-3,3.0413607E-2,2.0845173E-2,-6E0,-3.6541138E-2,-1.1E-3,1.1535024E-2,-2.758847E-2,2.420952E-2,-1.0777956E-2],"split_indices":[268,206,268,38,0,265,159,0,0,122,133,0,0,0,171,0,63,0,0,0,0],"split_type":[0,0,0,0,0,0,0,0,0,0,0,0,0,0,0,0,0,0,0,0,0],"sum_hessian":[5.2020984E2,1.1449912E2,4.0571072E2,9.723845E1,1.7260672E1,3.1089154E2,9.48192E1,2.1330246E1,7.59082E1,1.9710585E2,1.1378568E2,1.6362963E1,7.845624E1,1.9188429E1,1.7791743E2,1.5182228E1,9.8603455E1,2.4905266E1,1.5301216E2,6.2290665E1,3.631279E1],"tree_param":{"num_deleted":"0","num_feature":"269","num_nodes":"21","size_leaf_vector":"1"}},{"base_weights":[1.3447148E-1,3.0955857E-2,-1.1780829E-2,9.578557E-1,-2.1731253E-1,1.7688258E-2,3.0804412E-2,3.3293888E-1,-4.4778264E-1,4.4211652E-2,3.0838873E-2,3.545919E-1,-6.152956E-1,-1.0076619E-2,2.4727842E-2,-9.75028E-3,3.1768344E-2,1.5939206E-2,-2.1892717E-2],"categories":[],"categories_nodes":[],"categories_segments":[],"categories_sizes":[],"default_left":[0,0,0,0,0,0,0,0,0,0,0,0,0,0,0,0,0,0,0],"id":33,"left_children":[1,-1,3,5,7,-1,-1,9,11,13,-1,15,17,-1,-1,-1,-1,-1,-1],"loss_changes":[6.8523674E1,0E0,8.9568886E1,2.988739E-1,4.7497536E1,0E0,0E0,2.1772282E1,3.591257E1,2.456836E1,0E0,2.314112E1,2.956601E1,0E0,0E0,0E0,0E0,0E0,0E0],"parents":[2147483647,0,0,2,2,3,3,4,4,7,7,8,8,9,9,11,11,12,12],"right_children":[2,-1,4,6,8,-1,-1,10,12,14,-1,16,18,-1,-1,-1,-1,-1,-1],"split_conditions":[9.006756E-3,3.0955857E-2,-2.475E1,2.34E1,4.5E0,1.7688258E-2,3.0804412E-2,1.875E1,4E0,5.75E0,3.0838873E-2,4.75E0,-2.6E-2,-1.0076619E-2,2.4727842E-2,-9.75028E-3,3.1768344E-2,1.5939206E-2,-2.1892717E-2],"split_indices":[268,0,190,31,191,0,0,211,256,190,0,190,104,0,0,0,0,0,0],"split_type":[0,0,0,0,0,0,0,0,0,0,0,0,0,0,0,0,0,0,0],"sum_hessian":[5.175864E2,7.1122986E1,4.4646344E2,7.654882E1,3.699146E2,1.5772432E1,6.0776386E1,1.08552574E2,2.6136206E2,7.850064E1,3.0051931E1,4.4445744E1,2.169163E2,5.3288628E1,2.5212015E1,2.2951756E1,2.149399E1,1.8789616E1,1.9812668E2],"tree_param":{"num_deleted":"0","num_feature":"269","num_nodes":"19","size_leaf_vector":"1"}},{"base_weights":[1.5535632E-1,8.10325E-1,-3.451928E-2,-4.668213E-3,3.1196361E-2,-4.9267083E-1,5.0638396E-1,-7.801946E-2,-1.0530697E0,-2.1503247E-2,6.284432E-1,-5.0979626E-1,2.6252422E-1,3.279242E-3,-1.3172809E0,8.639217E-1,8.196013E-2,-3.716171E-2,-7.772572E-4,1.5857121E-2,-1.532643E-2,-1.118227E-2,-4.6448957E-2,7.204816E-3,3.0475777E-2,-2.4399929E-2,2.0284351E-2],"categories":[],"categories_nodes":[],"categories_segments":[],"categories_sizes":[],"default_left":[0,0,0,0,0,0,0,0,0,0,0,0,0,0,0,0,0,0,0,0,0,0,0,0,0,0,0],"id":34,"left_children":[1,3,5,-1,-1,7,9,11,13,-1,15,17,19,-1,21,23,25,-1,-1,-1,-1,-1,-1,-1,-1,-1,-1],"loss_changes":[6.396439E1,2.620147E1,9.925087E1,0E0,0E0,4.9937206E1,2.8260826E1,1.9049139E1,2.8856964E1,0E0,2.1203926E1,1.9720356E1,1.5372515E1,0E0,1.4677994E1,1.0211449E1,2.9363897E1,0E0,0E0,0E0,0E0,0E0,0E0,0E0,0E0,0E0,0E0],"parents":[2147483647,0,0,1,1,2,2,5,5,6,6,7,7,8,8,10,10,11,11,12,12,14,14,15,15,16,16],"right_children":[2,4,6,-1,-1,8,10,12,14,-1,16,18,20,-1,22,24,26,-1,-1,-1,-1,-1,-1,-1,-1,-1,-1],"split_conditions":[-9.5E0,-3E0,1.75E1,-4.668213E-3,3.1196361E-2,5E-1,-6.3E0,7.703E-1,-4.5E0,-2.1503247E-2,1.2E0,-1.1E0,1.8E0,3.279242E-3,-2.04E-2,4.518E-1,1E1,-3.716171E-2,-7.772572E-4,1.5857121E-2,-1.532643E-2,-1.118227E-2,-4.6448957E-2,7.204816E-3,3.0475777E-2,-2.4399929E-2,2.0284351E-2],"split_indices":[234,98,211,0,0,225,101,13,159,0,80,98,70,0,63,121,256,0,0,0,0,0,0,0,0,0,0],"split_type":[0,0,0,0,0,0,0,0,0,0,0,0,0,0,0,0,0,0,0,0,0,0,0,0,0,0,0],"sum_hessian":[5.100166E2,1.13510635E2,3.9650598E2,2.166875E1,9.184188E1,2.1507112E2,1.8143484E2,1.2522684E2,8.9844284E1,1.5355404E1,1.6607945E2,5.5167126E1,7.005971E1,1.6646465E1,7.319782E1,1.1487103E2,5.1208412E1,2.0518396E1,3.464873E1,5.28877E1,1.7172007E1,1.5667067E1,5.7530754E1,2.389771E1,9.097332E1,1.9932497E1,3.1275917E1],"tree_param":{"num_deleted":"0","num_feature":"269","num_nodes":"27","size_leaf_vector":"1"}},{"base_weights":[1.1149146E-1,2.8777886E-2,-3.9157417E-2,7.8604966E-1,-3.218923E-1,-6.590471E-3,3.0769179E-2,2.5244286E-2,-8.209704E-1,9.033615E-1,-2.7550167E-1,7.599129E-3,-9.88157E-1,3.1076191E-2,1.6052976E-2,1.80236E-2,-1.4133256E-2,-3.5812214E-2,5.923934E-3],"categories":[],"categories_nodes":[],"categories_segments":[],"categories_sizes":[],"default_left":[0,0,0,0,0,0,0,0,0,0,0,0,0,0,0,0,0,0,0],"id":35,"left_children":[1,-1,3,5,7,-1,-1,9,11,13,15,-1,17,-1,-1,-1,-1,-1,-1],"loss_changes":[6.640915E1,0E0,1.0321304E2,2.787278E1,5.745309E1,0E0,0E0,5.250475E1,2.510955E1,8.9811325E-1,2.5798912E1,0E0,2.9569443E1,0E0,0E0,0E0,0E0,0E0,0E0],"parents":[2147483647,0,0,2,2,3,3,4,4,7,7,8,8,9,9,10,10,12,12],"right_children":[2,-1,4,6,8,-1,-1,10,12,14,16,-1,18,-1,-1,-1,-1,-1,-1],"split_conditions":[-2.475E1,2.8777886E-2,-9.5E0,-3E0,7.25E0,-6.590471E-3,3.0769179E-2,-8.25E0,-2.665E-2,5.5E0,3.5E-1,7.599129E-3,1.9E0,3.1076191E-2,1.6052976E-2,1.80236E-2,-1.4133256E-2,-3.5812214E-2,5.923934E-3],"split_indices":[190,0,234,98,191,0,0,190,75,192,139,0,205,0,0,0,0,0,0],"split_type":[0,0,0,0,0,0,0,0,0,0,0,0,0,0,0,0,0,0,0],"sum_hessian":[5.152264E2,7.642177E1,4.3880463E2,1.1079889E2,3.2800574E2,2.1107862E1,8.9691025E1,1.9421568E2,1.3379007E2,4.877949E1,1.4543619E2,1.7637009E1,1.1615305E2,3.2606384E1,1.6173107E1,2.550432E1,1.1993186E2,9.919265E1,1.6960403E1],"tree_param":{"num_deleted":"0","num_feature":"269","num_nodes":"19","size_leaf_vector":"1"}},{"base_weights":[1.18562445E-1,7.644585E-1,-6.069497E-2,-5.670137E-3,3.0133912E-2,-4.3857703E-1,5.233137E-1,-7.777628E-2,-8.9741313E-1,7.2821355E-1,-1.7469431E-1,-5.7081175E-1,3.2476264E-1,-1.1525091E0,2.98016E-3,-3.051684E-4,8.849774E-1,-2.858676E-2,2.0388465E-2,-2.822005E-2,1.8694525E-3,1.7662153E-2,-1.2320128E-2,-4.2199172E-2,-3.947332E-3,1.00307865E-2,3.251921E-2],"categories":[],"categories_nodes":[],"categories_segments":[],"categories_sizes":[],"default_left":[0,0,0,0,0,0,0,0,0,0,0,0,0,0,0,0,0,0,0,0,0,0,0,0,0,0,0],"id":36,"left_children":[1,3,5,-1,-1,7,9,11,13,15,17,19,21,23,-1,-1,25,-1,-1,-1,-1,-1,-1,-1,-1,-1,-1],"loss_changes":[5.944795E1,2.6135605E1,8.900411E1,0E0,0E0,4.0139275E1,2.3056278E1,2.8179916E1,2.7833977E1,1.4526207E1,2.6106632E1,1.5337833E1,1.5655318E1,2.1442734E1,0E0,0E0,1.0012268E1,0E0,0E0,0E0,0E0,0E0,0E0,0E0,0E0,0E0,0E0],"parents":[2147483647,0,0,1,1,2,2,5,5,6,6,7,7,8,8,9,9,10,10,11,11,12,12,13,13,16,16],"right_children":[2,4,6,-1,-1,8,10,12,14,16,18,20,22,24,-1,-1,26,-1,-1,-1,-1,-1,-1,-1,-1,-1,-1],"split_conditions":[-9.5E0,-1.5E0,2.4E1,-5.670137E-3,3.0133912E-2,4.9056605E-1,2.3E1,7.703E-1,1.171E2,-1.8382354E-2,7.778E-1,8.036E-1,1.8E0,3.804E-1,2.98016E-3,-3.051684E-4,5.75E-1,-2.858676E-2,2.0388465E-2,-2.822005E-2,1.8694525E-3,1.7662153E-2,-1.2320128E-2,-4.2199172E-2,-3.947332E-3,1.00307865E-2,3.251921E-2],"split_indices":[234,70,211,0,0,225,173,13,156,217,35,144,70,33,0,0,164,0,0,0,0,0,0,0,0,0,0],"split_type":[0,0,0,0,0,0,0,0,0,0,0,0,0,0,0,0,0,0,0,0,0,0,0,0,0,0,0],"sum_hessian":[5.0882376E2,1.094827E2,3.9934106E2,2.1850958E1,8.7631744E1,2.4307283E2,1.5626822E2,1.377486E2,1.0532424E2,1.2107111E2,3.51971E1,6.1873837E1,7.5874756E1,8.385254E1,2.1471704E1,2.119507E1,9.9876045E1,1.8482037E1,1.6715063E1,3.8743317E1,2.313052E1,5.6427563E1,1.9447193E1,6.6299774E1,1.7552767E1,2.8336805E1,7.153924E1],"tree_param":{"num_deleted":"0","num_feature":"269","num_nodes":"27","size_leaf_vector":"1"}},{"base_weights":[1.2642671E-1,8.50991E-1,-3.717898E-2,-3.977307E-4,3.1021187E-2,9.468887E-1,-2.4436451E-1,1.6675517E-2,3.096217E-2,1.0415662E-1,-6.141867E-1,2.9151434E-2,-1.4695255E-1,9.2661E-3,-7.4813014E-1,-2.721929E-2,5.4701637E-3,-3.5471458E-2,-1.0841378E-2],"categories":[],"categories_nodes":[],"categories_segments":[],"categories_sizes":[],"default_left":[0,0,0,0,0,0,0,0,0,0,0,0,0,0,0,0,0,0,0],"id":37,"left_children":[1,3,5,-1,-1,7,9,-1,-1,11,13,-1,15,-1,17,-1,-1,-1,-1],"loss_changes":[6.0134388E1,1.5107498E1,8.4517296E1,0E0,0E0,7.759323E-1,4.4523846E1,0E0,0E0,3.931303E1,2.1271976E1,0E0,3.5481667E1,0E0,2.3357475E1,0E0,0E0,0E0,0E0],"parents":[2147483647,0,0,1,1,2,2,5,5,6,6,9,9,10,10,12,12,14,14],"right_children":[2,4,6,-1,-1,8,10,-1,-1,12,14,-1,16,-1,18,-1,-1,-1,-1],"split_conditions":[-1.275E1,-3E0,-2.475E1,-3.977307E-4,3.1021187E-2,2.36E1,2E0,1.6675517E-2,3.096217E-2,-8.25E0,1.06E2,2.9151434E-2,2.46E1,9.2661E-3,-9E-1,-2.721929E-2,5.4701637E-3,-3.5471458E-2,-1.0841378E-2],"split_indices":[234,98,190,0,0,31,195,0,0,190,146,0,140,0,67,0,0,0,0],"split_type":[0,0,0,0,0,0,0,0,0,0,0,0,0,0,0,0,0,0,0],"sum_hessian":[5.0268637E2,9.1387436E1,4.1129892E2,1.6010666E1,7.537677E1,7.0040344E1,3.4125858E2,1.5850515E1,5.4189827E1,1.76011E2,1.6524757E2,3.848935E1,1.3752165E2,2.0325417E1,1.4492216E2,4.077338E1,9.6748276E1,6.596507E1,7.8957085E1],"tree_param":{"num_deleted":"0","num_feature":"269","num_nodes":"19","size_leaf_vector":"1"}},{"base_weights":[1.1789762E-1,7.7771497E-1,-6.0592648E-2,-8.75202E-4,9.845341E-1,7.424745E-1,-3.304717E-1,3.146645E-2,1.8247917E-2,9.1703355E-1,9.685223E-5,2.0850435E-1,-5.669625E-1,1.3795565E-2,3.1602122E-2,-1.4744596E-4,3.2070447E-2,-3.6395195E-1,-1.1992286E0,2.4339093E-2,-8.174377E-3,-2.2920861E-3,-3.7296925E-2,-6.503869E-3,-5.2600484E-2],"categories":[],"categories_nodes":[],"categories_segments":[],"categories_sizes":[],"default_left":[0,0,0,0,0,0,0,0,0,0,0,0,0,0,0,0,0,0,0,0,0,0,0,0,0],"id":38,"left_children":[1,3,5,-1,7,9,11,-1,-1,13,-1,15,17,-1,-1,19,-1,21,23,-1,-1,-1,-1,-1,-1],"loss_changes":[5.958472E1,1.8311333E1,8.654897E1,0E0,3.1038666E-1,1.2668175E1,3.8492085E1,0E0,0E0,3.6179123E0,0E0,1.6901785E1,2.5476982E1,0E0,0E0,1.7085192E1,0E0,4.021898E1,2.5623848E1,0E0,0E0,0E0,0E0,0E0,0E0],"parents":[2147483647,0,0,1,1,2,2,4,4,5,5,6,6,9,9,11,11,12,12,15,15,17,17,18,18],"right_children":[2,4,6,-1,8,10,12,-1,-1,14,-1,16,18,-1,-1,20,-1,22,24,-1,-1,-1,-1,-1,-1],"split_conditions":[-9.5E0,-1.5E0,-1.6E1,-8.75202E-4,4.832E-1,2.5E1,9.765833E0,3.146645E-2,1.8247917E-2,5.75E-1,9.685223E-5,9.6045077E-1,1.185E2,1.3795565E-2,3.1602122E-2,-2.5E0,3.2070447E-2,4.61E1,7.859E-1,2.4339093E-2,-8.174377E-3,-2.2920861E-3,-3.7296925E-2,-6.503869E-3,-5.2600484E-2],"split_indices":[234,70,190,0,132,173,198,0,0,164,0,268,15,0,0,234,0,136,122,0,0,0,0,0,0],"split_type":[0,0,0,0,0,0,0,0,0,0,0,0,0,0,0,0,0,0,0,0,0,0,0,0,0],"sum_hessian":[5.013102E2,1.0566592E2,3.956443E2,2.1612766E1,8.4053154E1,9.835621E1,2.972881E2,6.804416E1,1.600899E1,7.885036E1,1.9505848E1,9.0347984E1,2.069401E2,2.0630564E1,5.8219795E1,7.4045E1,1.630299E1,1.5938869E2,4.755141E1,1.7334534E1,5.671046E1,1.2200468E2,3.738401E1,1.8346941E1,2.920447E1],"tree_param":{"num_deleted":"0","num_feature":"269","num_nodes":"25","size_leaf_vector":"1"}},{"base_weights":[1.2869325E-1,9.120495E-1,-0E0,3.0246817E-2,1.622939E-2,8.5439175E-1,-1.5609764E-1,2.9898545E-2,1.05317375E-2,3.9940044E-2,-8.065185E-1,-2.1036859E-1,4.166973E-1,9.016066E-3,-1.1487032E0,1.3666833E-2,-2.0937202E-2,-1.2996518E-2,2.0973312E-2,-5.551374E-2,-1.3932592E-2],"categories":[],"categories_nodes":[],"categories_segments":[],"categories_sizes":[],"default_left":[0,0,0,0,0,0,0,0,0,0,0,0,0,0,0,0,0,0,0,0,0],"id":39,"left_children":[1,3,5,-1,-1,7,9,-1,-1,11,13,15,17,-1,19,-1,-1,-1,-1,-1,-1],"loss_changes":[4.9001545E1,8.9341354E-1,5.6596886E1,0E0,0E0,3.591488E0,4.5903908E1,0E0,0E0,2.6304255E1,3.2497192E1,5.4903484E1,2.744498E1,0E0,2.8438179E1,0E0,0E0,0E0,0E0,0E0,0E0],"parents":[2147483647,0,0,1,1,2,2,5,5,6,6,9,9,10,10,11,11,12,12,14,14],"right_children":[2,4,6,-1,-1,8,10,-1,-1,12,14,16,18,-1,20,-1,-1,-1,-1,-1,-1],"split_conditions":[-2.475E1,1.22E1,-4.45E1,3.0246817E-2,1.622939E-2,1.275E1,2.631579E-1,2.9898545E-2,1.05317375E-2,1.65E0,-1E-1,-4.7E0,-2.9094425E-1,9.016066E-3,3.514E-1,1.3666833E-2,-2.0937202E-2,-1.2996518E-2,2.0973312E-2,-5.551374E-2,-1.3932592E-2],"split_indices":[190,96,211,0,0,237,187,0,0,134,82,123,265,0,131,0,0,0,0,0,0],"split_type":[0,0,0,0,0,0,0,0,0,0,0,0,0,0,0,0,0,0,0,0,0],"sum_hessian":[4.8591592E2,6.6622314E1,4.192936E2,4.953951E1,1.7082806E1,6.3591663E1,3.5570197E2,4.758854E1,1.6003126E1,2.7441028E2,8.1291664E1,1.64925E2,1.0948528E2,1.9044525E1,6.224714E1,6.9504486E1,9.542052E1,2.6775349E1,8.270994E1,2.883206E1,3.3415077E1],"tree_param":{"num_deleted":"0","num_feature":"269","num_nodes":"21","size_leaf_vector":"1"}},{"base_weights":[1.14113316E-1,3.0064201E-2,-1.2234288E-2,-2.086681E-1,8.0270267E-1,-3.370404E-1,5.5322677E-1,1.5211839E-3,9.63021E-1,-9.831532E-3,-7.919203E-1,-1.1534635E-2,2.9715167E-2,3.1959213E-2,1.8018978E-2,1.775841E-2,-1.1964027E-2,-3.669093E-2,-4.4720927E-3],"categories":[],"categories_nodes":[],"categories_segments":[],"categories_sizes":[],"default_left":[0,0,0,0,0,0,0,0,0,0,0,0,0,0,0,0,0,0,0],"id":40,"left_children":[1,-1,3,5,7,9,11,-1,13,15,17,-1,-1,-1,-1,-1,-1,-1,-1],"loss_changes":[5.5904205E1,0E0,6.9850555E1,3.4803352E1,9.806538E0,4.4904236E1,2.1969011E1,0E0,7.913208E-1,4.2285435E1,3.429106E1,0E0,0E0,0E0,0E0,0E0,0E0,0E0,0E0],"parents":[2147483647,0,0,2,2,3,3,4,4,5,5,6,6,8,8,9,9,10,10],"right_children":[2,-1,4,6,8,10,12,-1,14,16,18,-1,-1,-1,-1,-1,-1,-1,-1],"split_conditions":[9.006756E-3,3.0064201E-2,9.7837424E-1,3E0,1.141E2,-2E-1,4.7E0,1.5211839E-3,4.88E-2,-2E-1,7.722E-1,-1.1534635E-2,2.9715167E-2,3.1959213E-2,1.8018978E-2,1.775841E-2,-1.1964027E-2,-3.669093E-2,-4.4720927E-3],"split_indices":[268,0,268,165,160,145,119,0,87,69,13,0,0,0,0,0,0,0,0],"split_type":[0,0,0,0,0,0,0,0,0,0,0,0,0,0,0,0,0,0,0],"sum_hessian":[4.9338937E2,6.002417E1,4.333652E2,3.5069025E2,8.2674965E1,3.014138E2,4.9276443E1,1.531967E1,6.735529E1,1.7688083E2,1.24532974E2,1.552962E1,3.3746826E1,4.8857727E1,1.8497566E1,6.873118E1,1.0814965E2,7.318302E1,5.134995E1],"tree_param":{"num_deleted":"0","num_feature":"269","num_nodes":"19","size_leaf_vector":"1"}},{"base_weights":[1.1191935E-1,7.797298E-1,-6.1611556E-2,-2.2487352E-3,3.0239338E-2,7.095125E-1,-3.1385952E-1,9.5301974E-1,4.5671282E-4,-4.03728E-1,2.9451182E-2,1.7389558E-2,3.119591E-2,1.1352191E-1,-6.3508034E-1,-6.4921486E-3,2.5313849E-2,1.34116495E-2,-2.2437343E-2],"categories":[],"categories_nodes":[],"categories_segments":[],"categories_sizes":[],"default_left":[0,0,0,0,0,0,0,0,0,0,0,0,0,0,0,0,0,0,0],"id":41,"left_children":[1,3,5,-1,-1,7,9,11,-1,13,-1,-1,-1,15,17,-1,-1,-1,-1],"loss_changes":[5.763675E1,2.04329E1,7.699241E1,0E0,0E0,1.6159275E1,3.539344E1,6.370163E-1,0E0,3.3918533E1,0E0,0E0,0E0,2.1783743E1,2.4545341E1,0E0,0E0,0E0,0E0],"parents":[2147483647,0,0,1,1,2,2,5,5,6,6,7,7,9,9,13,13,14,14],"right_children":[2,4,6,-1,-1,8,10,12,-1,14,-1,-1,-1,16,18,-1,-1,-1,-1],"split_conditions":[-9.5E0,-3E0,-1.575E1,-2.2487352E-3,3.0239338E-2,2.70625E1,1.05E1,2.38E1,4.5671282E-4,4.5E0,2.9451182E-2,1.7389558E-2,3.119591E-2,5.5E0,-2.6E-2,-6.4921486E-3,2.5313849E-2,1.34116495E-2,-2.2437343E-2],"split_indices":[234,98,190,0,0,242,28,31,0,191,0,0,0,237,104,0,0,0,0],"split_type":[0,0,0,0,0,0,0,0,0,0,0,0,0,0,0,0,0,0,0],"sum_hessian":[4.9267023E2,1.00531265E2,3.9213895E2,2.1194843E1,7.9336426E1,9.547039E1,2.9666858E2,6.980895E1,2.566144E1,2.7892865E2,1.7739914E1,1.67216E1,5.3087353E1,8.611576E1,1.928129E2,6.0003544E1,2.6112213E1,1.7395334E1,1.7541756E2],"tree_param":{"num_deleted":"0","num_feature":"269","num_nodes":"19","size_leaf_vector":"1"}},{"base_weights":[1.0208271E-1,8.1034017E-1,-4.5137502E-2,-4.337598E-3,3.0896332E-2,9.1487867E-1,-2.2802387E-1,3.0769343E-2,1.5518583E-2,1.09304965E-1,-5.776875E-1,2.8949067E-2,-1.2076346E-1,1.1343053E-2,-7.287581E-1,2.5037376E-2,-1.0975923E-2,-4.495619E-3,-3.1403325E-2],"categories":[],"categories_nodes":[],"categories_segments":[],"categories_sizes":[],"default_left":[0,0,0,0,0,0,0,0,0,0,0,0,0,0,0,0,0,0,0],"id":42,"left_children":[1,3,5,-1,-1,7,9,-1,-1,11,13,-1,15,-1,17,-1,-1,-1,-1],"loss_changes":[5.1393665E1,1.8336628E1,7.170645E1,0E0,0E0,1.3517227E0,4.0831696E1,0E0,0E0,3.5190636E1,2.5148445E1,0E0,3.335333E1,0E0,2.6468857E1,0E0,0E0,0E0,0E0],"parents":[2147483647,0,0,1,1,2,2,5,5,6,6,9,9,10,10,12,12,14,14],"right_children":[2,4,6,-1,-1,8,10,-1,-1,12,14,-1,16,-1,18,-1,-1,-1,-1],"split_conditions":[-1.275E1,-1.5E0,-2.475E1,-4.337598E-3,3.0896332E-2,1.1E0,2E0,3.0769343E-2,1.5518583E-2,-8.25E0,4E0,2.8949067E-2,-4.5E0,1.1343053E-2,-2.18E-2,2.5037376E-2,-1.0975923E-2,-4.495619E-3,-3.1403325E-2],"split_indices":[234,70,190,0,0,70,195,0,0,190,256,0,234,0,85,0,0,0,0],"split_type":[0,0,0,0,0,0,0,0,0,0,0,0,0,0,0,0,0,0,0],"sum_hessian":[4.879879E2,8.277883E1,4.052091E2,1.5345688E1,6.743314E1,6.329782E1,3.419113E2,4.644483E1,1.6852985E1,1.7428816E2,1.6762311E2,3.585451E1,1.3843365E2,2.21969E1,1.4542622E2,2.7032698E1,1.11400955E2,5.2941086E1,9.248513E1],"tree_param":{"num_deleted":"0","num_feature":"269","num_nodes":"19","size_leaf_vector":"1"}},{"base_weights":[1.0253715E-1,2.990879E-2,-1.6273912E-2,8.856377E-1,-1.8561582E-1,3.0695792E-2,1.369908E-2,-1.2019386E0,-8.2415335E-2,-6.1593954E-3,-5.950199E-2,2.1977112E-2,-3.3019844E-2,3.9525493E-3,-2.7315032E-2],"categories":[],"categories_nodes":[],"categories_segments":[],"categories_sizes":[],"default_left":[0,0,0,0,0,0,0,0,0,0,0,0,0,0,0],"id":43,"left_children":[1,-1,3,5,7,-1,-1,9,11,-1,-1,13,-1,-1,-1],"loss_changes":[5.2178524E1,0E0,6.615902E1,2.659092E0,3.7801968E1,0E0,0E0,2.4480442E1,3.5944828E1,0E0,0E0,3.1250273E1,0E0,0E0,0E0],"parents":[2147483647,0,0,2,2,3,3,4,4,7,7,8,8,11,11],"right_children":[2,-1,4,6,8,-1,-1,10,12,-1,-1,14,-1,-1,-1],"split_conditions":[9.006756E-3,2.990879E-2,-2.325E1,1.1E0,-4.26E-2,3.0695792E-2,1.369908E-2,-9.9E0,1.045E1,-6.1593954E-3,-5.950199E-2,3.4E-2,-3.3019844E-2,3.9525493E-3,-2.7315032E-2],"split_indices":[268,0,190,70,64,0,0,67,137,0,0,64,0,0,0],"split_type":[0,0,0,0,0,0,0,0,0,0,0,0,0,0,0],"sum_hessian":[4.8593814E2,5.5543488E1,4.3039465E2,6.641869E1,3.6397595E2,4.766571E1,1.8752983E1,3.1321384E1,3.3265457E2,1.5044258E1,1.6277126E1,3.032292E2,2.9425396E1,2.7311615E2,3.011303E1],"tree_param":{"num_deleted":"0","num_feature":"269","num_nodes":"15","size_leaf_vector":"1"}},{"base_weights":[9.552036E-2,8.799643E-1,-1.9523527E-2,1.5091352E-2,2.9770931E-2,7.83195E-1,-1.5661839E-1,5.034819E-3,2.90856E-2,9.988367E-2,-5.684445E-1,3.087496E-2,-1.4862901E-3,-9.7889215E-2,-9.1393566E-1,-6.50741E-3,1.6915511E-2,-3.489052E-2,9.046929E-3,-3.701367E-2,-2.7917095E-3],"categories":[],"categories_nodes":[],"categories_segments":[],"categories_sizes":[],"default_left":[0,0,0,0,0,0,0,0,0,0,0,0,0,0,0,0,0,0,0,0,0],"id":44,"left_children":[1,3,5,-1,-1,7,9,-1,-1,11,13,-1,15,17,19,-1,-1,-1,-1,-1,-1],"loss_changes":[4.387546E1,1.1857605E0,4.658519E1,0E0,0E0,6.4065247E0,3.861042E1,0E0,0E0,2.1506512E1,2.2294949E1,0E0,2.50555E1,2.7306866E1,2.0424866E1,0E0,0E0,0E0,0E0,0E0,0E0],"parents":[2147483647,0,0,1,1,2,2,5,5,6,6,9,9,10,10,12,12,13,13,14,14],"right_children":[2,4,6,-1,-1,8,10,-1,-1,12,14,-1,16,18,20,-1,-1,-1,-1,-1,-1],"split_conditions":[-2.475E1,4.94E-1,-4.35E1,1.5091352E-2,2.9770931E-2,4.533E-1,1.9491667E1,5.034819E-3,2.90856E-2,2.5E-1,-1E-1,3.087496E-2,1.725E1,3E0,8.8E-3,-6.50741E-3,1.6915511E-2,-3.489052E-2,9.046929E-3,-3.701367E-2,-2.7917095E-3],"split_indices":[190,162,211,0,0,121,198,0,0,139,69,0,211,3,86,0,0,0,0,0,0],"split_type":[0,0,0,0,0,0,0,0,0,0,0,0,0,0,0,0,0,0,0,0,0],"sum_hessian":[4.80938E2,6.014438E1,4.207936E2,1.69442E1,4.320018E1,5.968891E1,3.611047E2,1.5130286E1,4.4558624E1,2.2299858E2,1.3810612E2,2.0423744E1,2.0257484E2,5.9924534E1,7.818159E1,1.4795741E2,5.4617428E1,1.550609E1,4.441844E1,5.5273083E1,2.2908504E1],"tree_param":{"num_deleted":"0","num_feature":"269","num_nodes":"21","size_leaf_vector":"1"}},{"base_weights":[9.0692095E-2,2.9278612E-2,-2.646768E-2,8.76169E-1,-1.8139754E-1,2.9412484E-2,1.4159551E-2,2.4378033E-1,-4.0130427E-1,2.8841441E-2,1.4873712E-2,4.537149E-1,-5.6762755E-1,-9.680469E-3,2.2416526E-2,2.8784132E-2,-7.013206E-3,-1.3859179E-3,-2.4526184E-2],"categories":[],"categories_nodes":[],"categories_segments":[],"categories_sizes":[],"default_left":[0,0,0,0,0,0,0,0,0,0,0,0,0,0,0,0,0,0,0],"id":45,"left_children":[1,-1,3,5,7,-1,-1,9,11,-1,13,15,17,-1,-1,-1,-1,-1,-1],"loss_changes":[5.0114822E1,0E0,5.961323E1,1.2677345E0,3.4379936E1,0E0,0E0,2.0251158E1,3.494439E1,0E0,2.4663107E1,1.464548E1,2.6204323E1,0E0,0E0,0E0,0E0,0E0,0E0],"parents":[2147483647,0,0,2,2,3,3,4,4,7,7,8,8,10,10,11,11,12,12],"right_children":[2,-1,4,6,8,-1,-1,10,12,-1,14,16,18,-1,-1,-1,-1,-1,-1],"split_conditions":[9.006756E-3,2.9278612E-2,-2.475E1,2.3E1,4.75E0,2.9412484E-2,1.4159551E-2,-8.25E0,4E0,2.8841441E-2,5.75E0,-2.5E0,-2.02E-2,-9.680469E-3,2.2416526E-2,2.8784132E-2,-7.013206E-3,-1.3859179E-3,-2.4526184E-2],"split_indices":[268,0,190,173,191,0,0,190,256,0,190,211,63,0,0,0,0,0,0],"split_type":[0,0,0,0,0,0,0,0,0,0,0,0,0,0,0,0,0,0,0],"sum_hessian":[4.7794336E2,5.4446312E1,4.2349704E2,6.0393227E1,3.6310382E2,4.5153633E1,1.5239593E1,1.2324155E2,2.3986226E2,2.7940456E1,9.530109E1,3.8204525E1,2.0165775E2,6.571876E1,2.9582329E1,2.1807098E1,1.6397425E1,6.649304E1,1.351647E2],"tree_param":{"num_deleted":"0","num_feature":"269","num_nodes":"19","size_leaf_vector":"1"}},{"base_weights":[1.0847467E-1,2.9267566E-2,-5.737159E-3,-1.8104234E-1,7.8506786E-1,-6.54278E-2,-1.1506617E0,-0E0,2.990918E-2,2.8077593E-1,-3.76761E-1,-1.1120311E-2,-5.6266394E-2,-1.9318609E-2,1.5007633E-2,-3.1536896E-2,-1.2678638E-3],"categories":[],"categories_nodes":[],"categories_segments":[],"categories_sizes":[],"default_left":[0,0,0,0,0,0,0,0,0,0,0,0,0,0,0,0,0],"id":46,"left_children":[1,-1,3,5,7,9,11,-1,-1,13,15,-1,-1,-1,-1,-1,-1],"loss_changes":[4.7388226E1,0E0,5.8577976E1,3.840615E1,1.2851948E1,3.3934505E1,1.8624413E1,0E0,0E0,3.07818E1,3.7012157E1,0E0,0E0,0E0,0E0,0E0,0E0],"parents":[2147483647,0,0,2,2,3,3,4,4,5,5,6,6,9,9,10,10],"right_children":[2,-1,4,6,8,10,12,-1,-1,14,16,-1,-1,-1,-1,-1,-1],"split_conditions":[9.006756E-3,2.9267566E-2,9.7837424E-1,4.982E-1,4.94E-1,-2.5E-3,0E0,-0E0,2.990918E-2,7.4625E-1,3.555E-1,-1.1120311E-2,-5.6266394E-2,-1.9318609E-2,1.5007633E-2,-3.1536896E-2,-1.2678638E-3],"split_indices":[268,0,268,12,162,74,107,0,0,133,131,0,0,0,0,0,0],"split_type":[0,0,0,0,0,0,0,0,0,0,0,0,0,0,0,0,0],"sum_hessian":[4.7345212E2,5.365318E1,4.1979895E2,3.451973E2,7.460164E1,3.1060593E2,3.4591377E1,1.6172363E1,5.842928E1,1.4670363E2,1.639023E2,1.8317793E1,1.6273584E1,2.7136097E1,1.1956752E2,5.2619793E1,1.112825E2],"tree_param":{"num_deleted":"0","num_feature":"269","num_nodes":"17","size_leaf_vector":"1"}},{"base_weights":[9.438507E-2,7.049451E-1,-5.6118067E-2,-6.678758E-3,2.9698625E-2,8.6730355E-1,-2.2392325E-1,2.9200545E-2,1.4701056E-2,-3.1263846E-1,3.0061224E-2,-2.5719742E-3,-7.322238E-1,2.6607163E-2,-8.096952E-3,-2.29483E-3,-2.962097E-2],"categories":[],"categories_nodes":[],"categories_segments":[],"categories_sizes":[],"default_left":[0,0,0,0,0,0,0,0,0,0,0,0,0,0,0,0,0],"id":47,"left_children":[1,3,5,-1,-1,7,9,-1,-1,11,-1,13,15,-1,-1,-1,-1],"loss_changes":[4.4290356E1,2.5856403E1,5.996779E1,0E0,0E0,9.85672E-1,3.612479E1,0E0,0E0,3.9831657E1,0E0,4.2967712E1,2.1349342E1,0E0,0E0,0E0,0E0],"parents":[2147483647,0,0,1,1,2,2,5,5,6,6,9,9,11,11,12,12],"right_children":[2,4,6,-1,-1,8,10,-1,-1,12,-1,14,16,-1,-1,-1,-1],"split_conditions":[-9.5E0,-3E0,-2.475E1,-6.678758E-3,2.9698625E-2,1.1E0,1.05E1,2.9200545E-2,1.4701056E-2,7.25E0,3.0061224E-2,-8.25E0,6.07E-1,2.6607163E-2,-8.096952E-3,-2.29483E-3,-2.962097E-2],"split_indices":[234,98,190,0,0,70,28,0,0,191,0,190,43,0,0,0,0],"split_type":[0,0,0,0,0,0,0,0,0,0,0,0,0,0,0,0,0],"sum_hessian":[4.770077E2,9.326726E1,3.8374045E2,2.1777367E1,7.148989E1,5.745335E1,3.2628708E2,4.1759743E1,1.5693605E1,3.058867E2,2.0400396E1,1.7746805E2,1.2841866E2,3.968066E1,1.3778738E2,3.702855E1,9.13901E1],"tree_param":{"num_deleted":"0","num_feature":"269","num_nodes":"17","size_leaf_vector":"1"}},{"base_weights":[7.224476E-2,2.889599E-2,-3.6551196E-2,8.728622E-1,-1.8367657E-1,1.5277688E-2,2.9275784E-2,3.0712593E-1,-3.8351873E-1,7.110939E-2,2.9419625E-2,-4.7096717E-1,2.7013982E-2,-7.507999E-3,2.3799863E-2,1.7763345E-2,-1.7392606E-2],"categories":[],"categories_nodes":[],"categories_segments":[],"categories_sizes":[],"default_left":[0,0,0,0,0,0,0,0,0,0,0,0,0,0,0,0,0],"id":48,"left_children":[1,-1,3,5,7,-1,-1,9,11,13,-1,15,-1,-1,-1,-1,-1],"loss_changes":[4.6294262E1,0E0,5.6850075E1,7.743416E-1,3.624823E1,0E0,0E0,1.6530289E1,3.014648E1,1.9501978E1,0E0,2.9236664E1,0E0,0E0,0E0,0E0,0E0],"parents":[2147483647,0,0,2,2,3,3,4,4,7,7,8,8,9,9,11,11],"right_children":[2,-1,4,6,8,-1,-1,10,12,14,-1,16,-1,-1,-1,-1,-1],"split_conditions":[9.006756E-3,2.889599E-2,-2.475E1,4.94E-1,4.5E0,1.5277688E-2,2.9275784E-2,1.875E1,1.05E1,5.75E0,2.9419625E-2,4.406E-1,2.7013982E-2,-7.507999E-3,2.3799863E-2,1.7763345E-2,-1.7392606E-2],"split_indices":[268,0,190,162,191,0,0,211,28,190,0,34,0,0,0,0,0],"split_type":[0,0,0,0,0,0,0,0,0,0,0,0,0,0,0,0,0],"sum_hessian":[4.719995E2,4.9955273E1,4.2204422E2,5.711285E1,3.6493137E2,1.5874251E1,4.1238598E1,1.0485002E2,2.6008136E2,7.960985E1,2.5240168E1,2.4490186E2,1.5179508E1,5.571094E1,2.389891E1,2.1653797E1,2.2324806E2],"tree_param":{"num_deleted":"0","num_feature":"269","num_nodes":"17","size_leaf_vector":"1"}},{"base_weights":[1.02962434E-1,8.054297E-1,-3.5416637E-2,1.9304826E-3,3.0301576E-2,8.6653507E-1,-1.9257346E-1,2.9510122E-2,1.452927E-2,-2.769639E-1,2.9673431E-2,3.0141918E-3,-6.576388E-1,2.475796E-2,-6.472356E-3,-2.4859715E-2,9.608732E-3],"categories":[],"categories_nodes":[],"categories_segments":[],"categories_sizes":[],"default_left":[0,0,0,0,0,0,0,0,0,0,0,0,0,0,0,0,0],"id":49,"left_children":[1,3,5,-1,-1,7,9,-1,-1,11,-1,13,15,-1,-1,-1,-1],"loss_changes":[4.5770943E1,1.1291389E1,5.576117E1,0E0,0E0,1.2177124E0,3.385515E1,0E0,0E0,3.3830124E1,0E0,3.3519142E1,2.3124668E1,0E0,0E0,0E0,0E0],"parents":[2147483647,0,0,1,1,2,2,5,5,6,6,9,9,11,11,12,12],"right_children":[2,4,6,-1,-1,8,10,-1,-1,12,-1,14,16,-1,-1,-1,-1],"split_conditions":[-1.275E1,3.358E-1,-2.475E1,1.9304826E-3,3.0301576E-2,1.1E0,1.05E1,2.9510122E-2,1.452927E-2,7.25E0,2.9673431E-2,-8.25E0,1.9E0,2.475796E-2,-6.472356E-3,-2.4859715E-2,9.608732E-3],"split_indices":[234,120,190,0,0,70,28,0,0,191,0,190,205,0,0,0,0],"split_type":[0,0,0,0,0,0,0,0,0,0,0,0,0,0,0,0,0],"sum_hessian":[4.6589835E2,7.54436E1,3.9045474E2,1.7209871E1,5.823373E1,5.6315163E1,3.341396E2,4.0095646E1,1.6219517E1,3.1353363E2,2.0605942E1,1.8135043E2,1.321832E2,3.7232185E1,1.4411826E2,1.1302897E2,1.9154232E1],"tree_param":{"num_deleted":"0","num_feature":"269","num_nodes":"17","size_leaf_vector":"1"}},{"base_weights":[9.460414E-2,2.927051E-2,-1.3091506E-2,8.8943446E-1,-1.5586889E-1,1.6571758E-2,2.9491762E-2,-1.0897949E0,-5.4783676E-2,-5.96336E-2,-7.7619427E-4,-9.049108E-1,7.311165E-2,-4.196296E-2,-1.670978E-3,5.18382E-3,-3.7885386E-2],"categories":[],"categories_nodes":[],"categories_segments":[],"categories_sizes":[],"default_left":[0,0,0,0,0,0,0,0,0,0,0,0,0,0,0,0,0],"id":50,"left_children":[1,-1,3,5,7,-1,-1,9,11,-1,-1,13,15,-1,-1,-1,-1],"loss_changes":[4.4466713E1,0E0,5.370147E1,2.4795151E-1,3.365793E1,0E0,0E0,3.2639256E1,3.6101124E1,0E0,0E0,1.761628E1,3.834357E1,0E0,0E0,0E0,0E0],"parents":[2147483647,0,0,2,2,3,3,4,4,7,7,8,8,11,11,12,12],"right_children":[2,-1,4,6,8,-1,-1,10,12,-1,-1,14,16,-1,-1,-1,-1],"split_conditions":[9.006756E-3,2.927051E-2,-2.475E1,0E0,-4.26E-2,1.6571758E-2,2.9491762E-2,1.188E2,4.518E-1,-5.96336E-2,-7.7619427E-4,-3.25E0,4.992E-1,-4.196296E-2,-1.670978E-3,5.18382E-3,-3.7885386E-2],"split_indices":[268,0,190,159,64,0,0,15,23,0,0,111,12,0,0,0,0],"split_type":[0,0,0,0,0,0,0,0,0,0,0,0,0,0,0,0,0],"sum_hessian":[4.6330835E2,4.9010452E1,4.142979E2,5.4873123E1,3.5942477E2,1.56257515E1,3.924737E1,3.2903133E1,3.2652164E2,1.6748255E1,1.6154879E1,4.14168E1,2.8510486E2,2.5145836E1,1.6270966E1,2.6713824E2,1.7966616E1],"tree_param":{"num_deleted":"0","num_feature":"269","num_nodes":"17","size_leaf_vector":"1"}},{"base_weights":[8.6974576E-2,2.875907E-2,-1.5783176E-2,-1.5416741E-1,7.9567456E-1,-3.4931693E-2,-6.4970925E-2,4.7140373E-3,3.1034986E-2,-3.393586E-1,3.1437066E-1,1.2897844E-3,-2.463597E-2,-1.124172E-2,2.1868633E-2],"categories":[],"categories_nodes":[],"categories_segments":[],"categories_sizes":[],"default_left":[0,0,0,0,0,0,0,0,0,0,0,0,0,0,0],"id":51,"left_children":[1,-1,3,5,7,-1,9,-1,-1,11,13,-1,-1,-1,-1],"loss_changes":[4.1514896E1,0E0,4.6446312E1,3.1463425E1,8.497978E0,0E0,3.4417458E1,0E0,0E0,3.568838E1,4.02135E1,0E0,0E0,0E0,0E0],"parents":[2147483647,0,0,2,2,3,3,4,4,6,6,9,9,10,10],"right_children":[2,-1,4,6,8,-1,10,-1,-1,12,14,-1,-1,-1,-1],"split_conditions":[9.006756E-3,2.875907E-2,9.855121E-1,1.07E2,5.6041133E-1,-3.4931693E-2,-1E-1,4.7140373E-3,3.1034986E-2,1.02E-2,4.26E1,1.2897844E-3,-2.463597E-2,-1.124172E-2,2.1868633E-2],"split_indices":[268,0,268,15,267,0,67,0,0,65,16,0,0,0,0],"split_type":[0,0,0,0,0,0,0,0,0,0,0,0,0,0,0],"sum_hessian":[4.5799567E2,4.684931E1,4.1114636E2,3.5294553E2,5.8200832E1,2.6405872E1,3.2653967E2,1.7087223E1,4.1113613E1,1.9006345E2,1.3647621E2,1.0664062E2,8.342283E1,5.1066093E1,8.541012E1],"tree_param":{"num_deleted":"0","num_feature":"269","num_nodes":"15","size_leaf_vector":"1"}},{"base_weights":[9.231172E-2,7.8604925E-1,-3.613446E-2,-0E0,2.9835854E-2,8.389949E-1,-1.7741416E-1,2.9110266E-2,1.2886556E-2,-2.5602624E-1,2.9240375E-2,1.6766223E-1,-4.8256767E-1,-3.0777184E-3,3.001759E-2,1.2221475E-2,-1.8207401E-2],"categories":[],"categories_nodes":[],"categories_segments":[],"categories_sizes":[],"default_left":[0,0,0,0,0,0,0,0,0,0,0,0,0,0,0,0,0],"id":52,"left_children":[1,3,5,-1,-1,7,9,-1,-1,11,-1,13,15,-1,-1,-1,-1],"loss_changes":[4.160551E1,1.185495E1,4.867003E1,0E0,0E0,1.6859398E0,3.1093758E1,0E0,0E0,3.0998266E1,0E0,2.5823473E1,2.3757248E1,0E0,0E0,0E0,0E0],"parents":[2147483647,0,0,1,1,2,2,5,5,6,6,9,9,11,11,12,12],"right_children":[2,4,6,-1,-1,8,10,-1,-1,12,-1,14,16,-1,-1,-1,-1],"split_conditions":[-1.275E1,-2.9E0,-2.475E1,-0E0,2.9835854E-2,5.6E0,1.05E1,2.9110266E-2,1.2886556E-2,1.0166667E1,2.9240375E-2,3.25E0,-2.3E-2,-3.0777184E-3,3.001759E-2,1.2221475E-2,-1.8207401E-2],"split_indices":[234,98,190,0,0,130,28,0,0,198,0,243,99,0,0,0,0],"split_type":[0,0,0,0,0,0,0,0,0,0,0,0,0,0,0,0,0],"sum_hessian":[4.6174915E2,7.090228E1,3.9084686E2,1.5375141E1,5.552714E1,5.265921E1,3.3818765E2,3.7240215E1,1.5418995E1,3.1828564E2,1.9901997E1,1.1061111E2,2.0767455E2,8.4566055E1,2.6045048E1,2.460561E1,1.8306894E2],"tree_param":{"num_deleted":"0","num_feature":"269","num_nodes":"17","size_leaf_vector":"1"}},{"base_weights":[5.8042675E-2,2.884607E-2,-4.5300405E-2,8.197168E-1,-1.7168672E-1,2.8740749E-2,1.32433325E-2,-1.1202604E0,-6.919667E-2,-5.647671E-3,-5.5148493E-2,-2.0418698E-1,7.7703756E-1,1.4697927E-2,-1.3544621E-2,4.382211E-3,3.324333E-2],"categories":[],"categories_nodes":[],"categories_segments":[],"categories_sizes":[],"default_left":[0,0,0,0,0,0,0,0,0,0,0,0,0,0,0,0,0],"id":53,"left_children":[1,-1,3,5,7,-1,-1,9,11,-1,-1,13,15,-1,-1,-1,-1],"loss_changes":[4.3662525E1,0E0,4.5759796E1,1.5229607E0,3.51155E1,0E0,0E0,2.2334106E1,3.8201954E1,0E0,0E0,5.007438E1,8.897203E0,0E0,0E0,0E0,0E0],"parents":[2147483647,0,0,2,2,3,3,4,4,7,7,8,8,11,11,12,12],"right_children":[2,-1,4,6,8,-1,-1,10,12,-1,-1,14,16,-1,-1,-1,-1],"split_conditions":[9.006756E-3,2.884607E-2,-2.475E1,8.2E0,-4.26E-2,2.8740749E-2,1.32433325E-2,7.787E-1,3E0,-5.647671E-3,-5.5148493E-2,-4.7E0,2.54E1,1.4697927E-2,-1.3544621E-2,4.382211E-3,3.324333E-2],"split_indices":[268,0,190,49,64,0,0,13,165,0,0,123,9,0,0,0,0],"split_type":[0,0,0,0,0,0,0,0,0,0,0,0,0,0,0,0,0],"sum_hessian":[4.6175342E2,4.5988255E1,4.1576517E2,5.1301376E1,3.6446378E2,3.4740734E1,1.656064E1,3.3317078E1,3.311467E2,1.5778512E1,1.7538565E1,2.8720416E2,4.3942543E1,7.46113E1,2.1259286E2,1.6426083E1,2.7516459E1],"tree_param":{"num_deleted":"0","num_feature":"269","num_nodes":"17","size_leaf_vector":"1"}},{"base_weights":[9.7876996E-2,2.8437609E-2,2.5050275E-3,-1.251003E-1,7.6109076E-1,-2.3794846E-1,5.908994E-1,-0E0,3.0621622E-2,5.188949E-1,-3.7361398E-1,-1.0444524E-3,3.1913698E-2,2.8464068E-2,-5.663322E-3,-2.0476267E-2,-1.2986788E-3],"categories":[],"categories_nodes":[],"categories_segments":[],"categories_sizes":[],"default_left":[0,0,0,0,0,0,0,0,0,0,0,0,0,0,0,0,0],"id":54,"left_children":[1,-1,3,5,7,9,11,-1,-1,13,15,-1,-1,-1,-1,-1,-1],"loss_changes":[3.6852554E1,0E0,4.0481026E1,2.8938652E1,1.1900333E1,3.210286E1,1.4786852E1,0E0,0E0,1.504248E1,2.664188E1,0E0,0E0,0E0,0E0,0E0,0E0],"parents":[2147483647,0,0,2,2,3,3,4,4,5,5,6,6,9,9,10,10],"right_children":[2,-1,4,6,8,10,12,-1,-1,14,16,-1,-1,-1,-1,-1,-1],"split_conditions":[9.006756E-3,2.8437609E-2,9.841659E-1,3E0,1.148E2,3E-1,1E0,-0E0,3.0621622E-2,-7E-1,7.703E-1,-1.0444524E-3,3.1913698E-2,2.8464068E-2,-5.663322E-3,-2.0476267E-2,-1.2986788E-3],"split_indices":[268,0,268,165,160,128,212,0,0,78,13,0,0,0,0,0,0],"split_type":[0,0,0,0,0,0,0,0,0,0,0,0,0,0,0,0,0],"sum_hessian":[4.5615085E2,4.3894897E1,4.1225595E2,3.539851E2,5.8270824E1,3.073053E2,4.6679817E1,1.5339373E1,4.293145E1,4.551695E1,2.6178836E2,2.0617598E1,2.606222E1,2.8155235E1,1.7361713E1,1.3370407E2,1.2808427E2],"tree_param":{"num_deleted":"0","num_feature":"269","num_nodes":"17","size_leaf_vector":"1"}},{"base_weights":[8.571105E-2,2.8217651E-2,-8.286958E-3,-1.398898E-1,7.7930653E-1,-2.0206171E-1,2.814416E-2,4.263464E-3,3.0486664E-2,1.809624E-1,-4.0860367E-1,3.0773023E-2,-2.6653684E-3,-3.4413733E-2,-5.2442322E-3],"categories":[],"categories_nodes":[],"categories_segments":[],"categories_sizes":[],"default_left":[0,0,0,0,0,0,0,0,0,0,0,0,0,0,0],"id":55,"left_children":[1,-1,3,5,7,9,-1,-1,-1,11,13,-1,-1,-1,-1],"loss_changes":[3.642092E1,0E0,4.2180153E1,2.364932E1,8.150383E0,2.658284E1,0E0,0E0,0E0,2.7277164E1,3.678265E1,0E0,0E0,0E0,0E0],"parents":[2147483647,0,0,2,2,3,3,4,4,5,5,9,9,10,10],"right_children":[2,-1,4,6,8,10,-1,-1,-1,12,14,-1,-1,-1,-1],"split_conditions":[9.006756E-3,2.8217651E-2,9.841659E-1,1.05E1,4.96E-1,-2.02E-2,2.814416E-2,4.263464E-3,3.0486664E-2,1.3E1,-3E0,3.0773023E-2,-2.6653684E-3,-3.4413733E-2,-5.2442322E-3],"split_indices":[268,0,268,28,162,63,0,0,0,138,61,0,0,0,0],"split_type":[0,0,0,0,0,0,0,0,0,0,0,0,0,0,0],"sum_hessian":[4.4756564E2,4.2868748E1,4.046969E2,3.4849142E2,5.6205463E1,3.3128882E2,1.7202627E1,1.644423E1,3.9761234E1,1.15637924E2,2.1565088E2,2.6904512E1,8.873341E1,4.966658E1,1.659843E2],"tree_param":{"num_deleted":"0","num_feature":"269","num_nodes":"15","size_leaf_vector":"1"}},{"base_weights":[6.7349315E-2,7.4416083E-1,-5.4609083E-2,-3.5044393E-3,2.9809756E-2,-2.1180786E-1,6.828796E-1,3.1339563E-2,-2.8242016E-1,-2.9727523E-3,9.160541E-1,-6.5711874E-1,-5.0831616E-2,3.1191375E-2,1.5727954E-2,-3.3566847E-2,-5.552765E-3,-1.0875892E-2,1.8833267E-2],"categories":[],"categories_nodes":[],"categories_segments":[],"categories_sizes":[],"default_left":[0,0,0,0,0,0,0,0,0,0,0,0,0,0,0,0,0,0,0],"id":56,"left_children":[1,3,5,-1,-1,7,9,-1,11,-1,13,15,17,-1,-1,-1,-1,-1,-1],"loss_changes":[3.751237E1,1.5396118E1,4.4619728E1,0E0,0E0,2.8580452E1,1.2741198E1,0E0,2.6008696E1,0E0,9.8490524E-1,2.4272999E1,4.0540375E1,0E0,0E0,0E0,0E0,0E0,0E0],"parents":[2147483647,0,0,1,1,2,2,5,5,6,6,8,8,10,10,11,11,12,12],"right_children":[2,4,6,-1,-1,8,10,-1,12,-1,14,16,18,-1,-1,-1,-1,-1,-1],"split_conditions":[-1.275E1,-2.9E0,9.7837424E-1,-3.5044393E-3,2.9809756E-2,-1.16E1,4.59E-1,3.1339563E-2,-5E-2,-2.9727523E-3,7.8805E-1,-3.9E-3,1E0,3.1191375E-2,1.5727954E-2,-3.3566847E-2,-5.552765E-3,-1.0875892E-2,1.8833267E-2],"split_indices":[234,98,268,0,0,134,12,0,57,0,24,64,107,0,0,0,0,0,0],"split_type":[0,0,0,0,0,0,0,0,0,0,0,0,0,0,0,0,0,0,0],"sum_hessian":[4.489686E2,6.736744E1,3.8160114E2,1.510472E1,5.2262722E1,3.1606332E2,6.553783E1,1.5123425E1,3.0093988E2,1.5022387E1,5.0515438E1,1.1305397E2,1.8788593E2,3.5300488E1,1.52149515E1,5.5440773E1,5.7613197E1,1.296902E2,5.819572E1],"tree_param":{"num_deleted":"0","num_feature":"269","num_nodes":"19","size_leaf_vector":"1"}},{"base_weights":[8.576152E-2,2.8273249E-2,-4.3083415E-3,8.3495927E-1,-1.2525004E-1,2.8686527E-2,1.4073246E-2,-2.3747112E-1,5.799277E-1,-8.841435E-1,-8.627103E-2,-0E0,3.1968664E-2,-1.0125806E-2,-5.12028E-2,-1.0606773E-2,9.993831E-3],"categories":[],"categories_nodes":[],"categories_segments":[],"categories_sizes":[],"default_left":[0,0,0,0,0,0,0,0,0,0,0,0,0,0,0,0,0],"id":57,"left_children":[1,-1,3,5,7,-1,-1,9,11,13,15,-1,-1,-1,-1,-1,-1],"loss_changes":[3.4590656E1,0E0,4.099526E1,9.299278E-1,2.827363E1,0E0,0E0,2.9684528E1,1.39861965E1,2.4224678E1,2.8528185E1,0E0,0E0,0E0,0E0,0E0,0E0],"parents":[2147483647,0,0,2,2,3,3,4,4,7,7,8,8,9,9,10,10],"right_children":[2,-1,4,6,8,-1,-1,10,12,14,16,-1,-1,-1,-1,-1,-1],"split_conditions":[9.006756E-3,2.8273249E-2,-2.475E1,8.2E0,3E0,2.8686527E-2,1.4073246E-2,4.5565E-1,1E0,1.42E1,-4.1E-3,-0E0,3.1968664E-2,-1.0125806E-2,-5.12028E-2,-1.0606773E-2,9.993831E-3],"split_indices":[268,0,190,49,165,0,0,23,212,138,64,0,0,0,0,0,0],"split_type":[0,0,0,0,0,0,0,0,0,0,0,0,0,0,0,0,0],"sum_hessian":[4.4253894E2,4.061756E1,4.019214E2,4.8823746E1,3.5309763E2,3.3629997E1,1.5193749E1,3.0613208E2,4.696555E1,5.5800034E1,2.5033205E2,2.2146757E1,2.4818794E1,3.5437588E1,2.0362448E1,1.5352068E2,9.681136E1],"tree_param":{"num_deleted":"0","num_feature":"269","num_nodes":"17","size_leaf_vector":"1"}},{"base_weights":[7.066479E-2,6.2339854E-1,-6.452962E-2,-8.0619315E-3,2.8624183E-2,-3.522732E-1,3.4112245E-1,2.0054141E-2,-4.525967E-1,6.350241E-1,-2.1647942E-1,1.6787896E-1,-6.3467455E-1,-1.4699685E-3,8.2064563E-1,-2.682567E-2,1.4129931E-2,2.3491032E-2,-2.3359941E-2,-2.5607383E-2,2.6900694E-3,2.8136646E-2,9.037451E-3],"categories":[],"categories_nodes":[],"categories_segments":[],"categories_sizes":[],"default_left":[0,0,0,0,0,0,0,0,0,0,0,0,0,0,0,0,0,0,0,0,0,0,0],"id":58,"left_children":[1,3,5,-1,-1,7,9,-1,11,13,15,17,19,-1,21,-1,-1,-1,-1,-1,-1,-1,-1],"loss_changes":[3.3149525E1,2.6433659E1,4.1696903E1,0E0,0E0,2.1961464E1,2.464793E1,0E0,2.2035484E1,1.2723225E1,2.529347E1,2.7277258E1,2.4035332E1,0E0,3.7730598E0,0E0,0E0,0E0,0E0,0E0,0E0,0E0,0E0],"parents":[2147483647,0,0,1,1,2,2,5,5,6,6,8,8,9,9,10,10,11,11,12,12,14,14],"right_children":[2,4,6,-1,-1,8,10,-1,12,14,16,18,20,-1,22,-1,-1,-1,-1,-1,-1,-1,-1],"split_conditions":[-8.5E0,-3E0,1.75E1,-8.0619315E-3,2.8624183E-2,-2.6E-2,1.025E1,2.0054141E-2,4E0,-2.6890956E-2,1.3E1,2.5E0,4.515E-2,-1.4699685E-3,1.163E2,-2.682567E-2,1.4129931E-2,2.3491032E-2,-2.3359941E-2,-2.5607383E-2,2.6900694E-3,2.8136646E-2,9.037451E-3],"split_indices":[234,98,211,0,0,104,191,0,256,217,256,211,76,0,156,0,0,0,0,0,0,0,0],"split_type":[0,0,0,0,0,0,0,0,0,0,0,0,0,0,0,0,0,0,0,0,0,0,0],"sum_hessian":[4.3829092E2,8.5151436E1,3.5313947E2,2.2886381E1,6.226506E1,2.0718117E2,1.4595831E2,1.7259296E1,1.8992188E2,9.575038E1,5.020793E1,4.274975E1,1.4717212E2,2.0406706E1,7.534367E1,2.5200495E1,2.5007437E1,2.631206E1,1.6437689E1,1.130611E2,3.4111027E1,5.96826E1,1.56610775E1],"tree_param":{"num_deleted":"0","num_feature":"269","num_nodes":"23","size_leaf_vector":"1"}},{"base_weights":[8.30422E-2,2.7801212E-2,-8.2197663E-4,-9.4465844E-2,2.87018E-2,-3.067035E-2,-1.5492673E-2,-2.7879786E-1,3.629946E-1,7.7886763E-3,-1.6629502E-2,-6.324192E-3,2.1658938E-2],"categories":[],"categories_nodes":[],"categories_segments":[],"categories_sizes":[],"default_left":[0,0,0,0,0,0,0,0,0,0,0,0,0],"id":59,"left_children":[1,-1,3,5,-1,-1,7,9,11,-1,-1,-1,-1],"loss_changes":[3.1781666E1,0E0,3.638671E1,2.6955729E1,0E0,0E0,3.4623566E1,3.0852074E1,2.974948E1,0E0,0E0,0E0,0E0],"parents":[2147483647,0,0,2,2,3,3,6,6,7,7,8,8],"right_children":[2,-1,4,6,-1,-1,8,10,12,-1,-1,-1,-1],"split_conditions":[9.006756E-3,2.7801212E-2,9.925608E-1,1.07E2,2.87018E-2,-3.067035E-2,-1E-1,1.092E2,4.26E1,7.7886763E-3,-1.6629502E-2,-6.324192E-3,2.1658938E-2],"split_indices":[268,0,268,15,0,0,67,146,16,0,0,0,0],"split_type":[0,0,0,0,0,0,0,0,0,0,0,0,0],"sum_hessian":[4.4324277E2,3.8582623E1,4.0466013E2,3.705391E2,3.412103E1,2.6891632E1,3.4364746E2,2.0343893E2,1.4020854E2,6.853467E1,1.3490427E2,5.395428E1,8.625426E1],"tree_param":{"num_deleted":"0","num_feature":"269","num_nodes":"13","size_leaf_vector":"1"}},{"base_weights":[6.747835E-2,2.8095262E-2,-1.8429173E-2,-1.3490605E-1,7.7199113E-1,-4.9400795E-1,9.202101E-2,4.306787E-3,3.038179E-2,2.9679754E-1,-8.2016885E-1,-2.1999459E-1,6.9922435E-1,-7.505407E-3,2.4265308E-2,-3.842688E-2,-5.1807263E-4,-1.594011E-2,1.8885132E-2,3.0329896E-2,-1.0234905E-2],"categories":[],"categories_nodes":[],"categories_segments":[],"categories_sizes":[],"default_left":[0,0,0,0,0,0,0,0,0,0,0,0,0,0,0,0,0,0,0,0,0],"id":60,"left_children":[1,-1,3,5,7,9,11,-1,-1,13,15,17,19,-1,-1,-1,-1,-1,-1,-1,-1],