{"learner":{"attributes":{"scikit_learn":"{\"_estimator_type\": \"classifier\"}"},"feature_names":[],"feature_types":[],"gradient_booster":{"model":{"cats":{"enc":[],"feature_segments":[],"sorted_idx":[]},"gbtree_model_param":{"num_parallel_tree":"1","num_trees":"300"},"iteration_indptr":[0,1,2,3,4,5,6,7,8,9,10,11,12,13,14,15,16,17,18,19,20,21,22,23,24,25,26,27,28,29,30,31,32,33,34,35,36,37,38,39,40,41,42,43,44,45,46,47,48,49,50,51,52,53,54,55,56,57,58,59,60,61,62,63,64,65,66,67,68,69,70,71,72,73,74,75,76,77,78,79,80,81,82,83,84,85,86,87,88,89,90,91,92,93,94,95,96,97,98,99,100,101,102,103,104,105,106,107,108,109,110,111,112,113,114,115,116,117,118,119,120,121,122,123,124,125,126,127,128,129,130,131,132,133,134,135,136,137,138,139,140,141,142,143,144,145,146,147,148,149,150,151,152,153,154,155,156,157,158,159,160,161,162,163,164,165,166,167,168,169,170,171,172,173,174,175,176,177,178,179,180,181,182,183,184,185,186,187,188,189,190,191,192,193,194,195,196,197,198,199,200,201,202,203,204,205,206,207,208,209,210,211,212,213,214,215,216,217,218,219,220,221,222,223,224,225,226,227,228,229,230,231,232,233,234,235,236,237,238,239,240,241,242,243,244,245,246,247,248,249,250,251,252,253,254,255,256,257,258,259,260,261,262,263,264,265,266,267,268,269,270,271,272,273,274,275,276,277,278,279,280,281,282,283,284,285,286,287,288,289,290,291,292,293,294,295,296,297,298,299,300],"tree_info":[0,0,0,0,0,0,0,0,0,0,0,0,0,0,0,0,0,0,0,0,0,0,0,0,0,0,0,0,0,0,0,0,0,0,0,0,0,0,0,0,0,0,0,0,0,0,0,0,0,0,0,0,0,0,0,0,0,0,0,0,0,0,0,0,0,0,0,0,0,0,0,0,0,0,0,0,0,0,0,0,0,0,0,0,0,0,0,0,0,0,0,0,0,0,0,0,0,0,0,0,0,0,0,0,0,0,0,0,0,0,0,0,0,0,0,0,0,0,0,0,0,0,0,0,0,0,0,0,0,0,0,0,0,0,0,0,0,0,0,0,0,0,0,0,0,0,0,0,0,0,0,0,0,0,0,0,0,0,0,0,0,0,0,0,0,0,0,0,0,0,0,0,0,0,0,0,0,0,0,0,0,0,0,0,0,0,0,0,0,0,0,0,0,0,0,0,0,0,0,0,0,0,0,0,0,0,0,0,0,0,0,0,0,0,0,0,0,0,0,0,0,0,0,0,0,0,0,0,0,0,0,0,0,0,0,0,0,0,0,0,0,0,0,0,0,0,0,0,0,0,0,0,0,0,0,0,0,0,0,0,0,0,0,0,0,0,0,0,0,0,0,0,0,0,0,0,0,0,0,0,0,0,0,0,0,0,0,0,0,0,0,0,0,0,0,0,0,0,0,0],"trees":[{"base_weights":[2.2020623E-2,-2.1897333E0,7.1851367E-1,-4.7110085E0,-1.5946051E0,-1.4726499E0,8.428416E-1,-1.9609636E-1,-8.049181E-3,-2.2622468E0,-2.8447485E-1,8.7082225E-1,-1.8666182E-1,-4.6621494E-2,8.922454E-1,-1.0708776E0,-3.4440951E0,-1.2270913E0,8.257501E-1,3.0856736E-2,1.6464988E-2,-4.8971304E-1,9.447159E-1,-1.1685505E-2,-9.752073E-2,-1.2067623E-1,-3.4738805E-2,-7.961668E-2,-7.2815437E-3,1.5063667E-2,2.8926987E-2,-4.4364072E-2,1.2897048E-2,2.975929E-2,-1.7330956E-2],"categories":[],"categories_nodes":[],"categories_segments":[],"categories_sizes":[],"default_left":[0,0,0,0,0,0,0,0,0,0,0,0,0,0,0,0,0,0,0,0,0,0,0,0,0,0,0,0,0,0,0,0,0,0,0],"id":0,"left_children":[1,3,5,7,9,11,13,-1,-1,15,17,19,-1,-1,21,23,25,27,29,-1,-1,31,33,-1,-1,-1,-1,-1,-1,-1,-1,-1,-1,-1,-1],"loss_changes":[1.9643519E3,4.4126782E2,2.6655716E2,4.5830786E2,2.1676709E2,5.988236E2,1.1144165E2,0E0,0E0,2.239812E2,9.3076675E1,2.7644348E-1,0E0,0E0,6.6481445E1,1.2311923E2,9.748895E1,6.517693E1,4.268551E-1,0E0,0E0,3.2611618E1,6.387268E1,0E0,0E0,0E0,0E0,0E0,0E0,0E0,0E0,0E0,0E0,0E0,0E0],"parents":[2147483647,0,0,1,1,2,2,3,3,4,4,5,5,6,6,9,9,10,10,11,11,14,14,15,15,16,16,17,17,18,18,21,21,22,22],"right_children":[2,4,6,8,10,12,14,-1,-1,16,18,20,-1,-1,22,24,26,28,30,-1,-1,32,34,-1,-1,-1,-1,-1,-1,-1,-1,-1,-1,-1,-1],"split_conditions":[2.6666667E0,7.2765E-1,-3.2222223E0,3.27E-2,7.187E-1,4.3E1,-5.1E-1,-1.9609636E-1,-8.049181E-3,4.686E-1,5.57E-1,4.34E1,-1.8666182E-1,-4.6621494E-2,3.6539907E0,3.667277E-2,1.5E0,1.75E-1,3.9666667E0,3.0856736E-2,1.6464988E-2,-1E0,5E0,-1.1685505E-2,-9.752073E-2,-1.2067623E-1,-3.4738805E-2,-7.961668E-2,-7.2815437E-3,1.5063667E-2,2.8926987E-2,-4.4364072E-2,1.2897048E-2,2.975929E-2,-1.7330956E-2],"split_indices":[1,25,71,255,258,182,97,0,0,13,165,155,0,0,1,255,185,109,119,0,0,92,243,0,0,0,0,0,0,0,0,0,0,0,0],"split_type":[0,0,0,0,0,0,0,0,0,0,0,0,0,0,0,0,0,0,0,0,0,0,0,0,0,0,0,0,0,0,0,0,0,0,0],"sum_hessian":[1.2714069E3,3.0335782E2,9.68049E2,5.5193447E1,2.4816438E2,5.068425E1,9.1736475E2,3.840319E1,1.6790258E1,1.6327637E2,8.4888016E1,3.4989655E1,1.5694598E1,1.7173716E1,9.0019104E2,8.333553E1,7.994084E1,4.5941715E1,3.8946297E1,1.9913824E1,1.5075829E1,3.2109623E1,8.680814E2,6.539084E1,1.7944695E1,6.2481304E1,1.7459536E1,1.7246706E1,2.869501E1,1.5092931E1,2.3853367E1,1.5041675E1,1.706795E1,8.428118E2,2.5269577E1],"tree_param":{"num_deleted":"0","num_feature":"259","num_nodes":"35","size_leaf_vector":"1"}},{"base_weights":[-5.505264E-2,-2.3312728E0,5.440852E-1,-1.6883718E0,-4.697927E0,-1.6449024E-1,8.71589E-1,-2.4167905E0,-4.5698524E-1,-1.691502E-1,-7.298689E-2,4.3362284E-1,-2.928224E0,1.0703802E0,7.367945E-2,-1.6764559E0,-1.2891932E-1,-6.597476E-2,1.5027453E-1,-4.9616274E-1,8.8894945E-1,-3.5434455E-1,-1.7605884E-1,8.1730046E-4,1.1123158E0,8.783089E-1,-1.3606128E0,-2.263172E-2,-8.9179434E-2,-2.6461892E-2,1.9626316E-2,-3.26375E-2,1.6061831E-2,3.0561032E-2,-9.458611E-3,-4.316499E-2,2.3504311E-2,1.8830407E-2,3.413661E-2,3.319237E-2,1.3659667E-3,2.612595E-2,-1.08045846E-1],"categories":[],"categories_nodes":[],"categories_segments":[],"categories_sizes":[],"default_left":[0,0,0,0,0,0,0,0,0,0,0,0,0,0,0,0,0,0,0,0,0,0,0,0,0,0,0,0,0,0,0,0,0,0,0,0,0,0,0,0,0,0,0],"id":1,"left_children":[1,3,5,7,9,11,13,15,17,-1,-1,19,21,23,25,27,-1,-1,29,31,33,35,-1,-1,37,39,41,-1,-1,-1,-1,-1,-1,-1,-1,-1,-1,-1,-1,-1,-1,-1,-1],"loss_changes":[1.7226809E3,3.8271753E2,2.3249081E2,1.854831E2,8.7313354E1,5.2795447E2,1.08041504E2,1.668227E2,8.670668E1,0E0,0E0,1.1216554E2,4.2397226E2,2.3542053E1,1.6258398E2,1.1118997E2,0E0,0E0,3.3144478E1,5.4673073E1,2.8540619E1,4.252905E1,0E0,0E0,4.559082E0,1.6716888E1,2.60023E2,0E0,0E0,0E0,0E0,0E0,0E0,0E0,0E0,0E0,0E0,0E0,0E0,0E0,0E0,0E0,0E0],"parents":[2147483647,0,0,1,1,2,2,3,3,4,4,5,5,6,6,7,7,8,8,11,11,12,12,13,13,14,14,15,15,18,18,19,19,20,20,21,21,24,24,25,25,26,26],"right_children":[2,4,6,8,10,12,14,16,18,-1,-1,20,22,24,26,28,-1,-1,30,32,34,36,-1,-1,38,40,42,-1,-1,-1,-1,-1,-1,-1,-1,-1,-1,-1,-1,-1,-1,-1,-1],"split_conditions":[1.7320508E0,9.25E0,6E1,6.840409E-1,4E0,3.1E1,4E0,1.51E1,-6.65E-3,-1.691502E-1,-7.298689E-2,3.6539907E0,4.854E-1,6.5E-2,3.8235295E-1,-6.1544605E-2,-1.2891932E-1,-6.597476E-2,-6E-1,9E-3,2E0,1.4E1,-1.7605884E-1,8.1730046E-4,3.316E-1,7E0,1.9038461E-1,-2.263172E-2,-8.9179434E-2,-2.6461892E-2,1.9626316E-2,-3.26375E-2,1.6061831E-2,3.0561032E-2,-9.458611E-3,-4.316499E-2,2.3504311E-2,1.8830407E-2,3.413661E-2,3.319237E-2,1.3659667E-3,2.612595E-2,-1.08045846E-1],"split_indices":[1,142,1,258,241,182,252,98,77,0,0,1,129,256,188,255,0,0,86,113,208,220,0,0,139,252,204,0,0,0,0,0,0,0,0,0,0,0,0,0,0,0,0],"split_type":[0,0,0,0,0,0,0,0,0,0,0,0,0,0,0,0,0,0,0,0,0,0,0,0,0,0,0,0,0,0,0,0,0,0,0,0,0,0,0,0,0,0,0],"sum_hessian":[1.2589226E3,2.6122098E2,9.977016E2,2.0821341E2,5.3007576E1,3.1539783E2,6.823038E2,1.2946204E2,7.875137E1,3.525789E1,1.7749687E1,2.6058173E2,5.48161E1,5.453711E2,1.3693271E2,9.572065E1,3.374138E1,1.9127481E1,5.962389E1,8.538523E1,1.7519649E2,3.0479204E1,2.4336897E1,2.1481335E1,5.238898E2,8.835213E1,4.8580585E1,5.791642E1,3.7804234E1,1.8870577E1,4.0753315E1,5.4374683E1,3.1010548E1,1.5865889E2,1.6537592E1,1.5469432E1,1.5009771E1,2.9405663E1,4.9448407E2,6.855658E1,1.9795547E1,2.488714E1,2.3693443E1],"tree_param":{"num_deleted":"0","num_feature":"259","num_nodes":"43","size_leaf_vector":"1"}},{"base_weights":[1.8617535E-2,-2.0213878E0,6.331309E-1,-1.4920447E0,-4.07196E0,9.095776E-1,-3.73979E-1,-1.9919837E0,-5.2236056E-1,-6.815836E-2,-1.4874616E-1,-3.5155264E-1,1.0249448E0,-3.0947635E0,4.734962E-1,-2.2654467E0,-6.5356777E-3,3.8545367E-1,-2.0132897E0,-1.338462E0,5.272457E-1,1.4643049E-1,1.0817264E0,-1.6333364E-1,1.412688E-2,7.34752E-1,-5.4310042E-2,-4.7904663E-2,-9.254369E-2,-2.2455001E-2,2.6210357E-2,-9.202038E-2,-2.1666631E-2,-4.95655E-3,-7.0066296E-2,2.5135067E-3,2.8504152E-2,3.119221E-2,-4.334356E-2,1.47254905E-2,3.3143207E-2,-1.5751177E-2,2.9029854E-2],"categories":[],"categories_nodes":[],"categories_segments":[],"categories_sizes":[],"default_left":[0,0,0,0,0,0,0,0,0,0,0,0,0,0,0,0,0,0,0,0,0,0,0,0,0,0,0,0,0,0,0,0,0,0,0,0,0,0,0,0,0,0,0],"id":2,"left_children":[1,3,5,7,9,11,13,15,17,-1,-1,19,21,23,25,27,-1,29,31,33,35,37,39,-1,-1,41,-1,-1,-1,-1,-1,-1,-1,-1,-1,-1,-1,-1,-1,-1,-1,-1,-1],"loss_changes":[1.6154302E3,3.0995007E2,2.7664505E2,1.1368353E2,7.090161E1,1.14129456E2,4.9840622E2,7.476477E1,1.16651764E2,0E0,0E0,5.9316563E1,3.4911865E1,4.3645364E2,1.00928955E2,6.338977E1,0E0,3.1343704E1,3.865149E1,3.5961437E1,6.364949E0,6.820799E1,7.5560913E0,0E0,0E0,4.510766E1,0E0,0E0,0E0,0E0,0E0,0E0,0E0,0E0,0E0,0E0,0E0,0E0,0E0,0E0,0E0,0E0,0E0],"parents":[2147483647,0,0,1,1,2,2,3,3,4,4,5,5,6,6,7,7,8,8,11,11,12,12,13,13,14,14,15,15,17,17,18,18,19,19,20,20,21,21,22,22,25,25],"right_children":[2,4,6,8,10,12,14,16,18,-1,-1,20,22,24,26,28,-1,30,32,34,36,38,40,-1,-1,42,-1,-1,-1,-1,-1,-1,-1,-1,-1,-1,-1,-1,-1,-1,-1,-1,-1],"split_conditions":[2.1517253E0,9.25E0,3.1E1,4.8155E-1,2.1015406E-1,3.6539907E0,-2.09E0,6E0,1.53E2,-6.815836E-2,-1.4874616E-1,-3E0,-4.61E-2,-6E-3,1.189E2,5.03E-1,-6.5356777E-3,4E0,1.7261225E-1,8.266666E0,8.625E0,-2.7755576E-17,4.670994E0,-1.6333364E-1,1.412688E-2,4.1555557E1,-5.4310042E-2,-4.7904663E-2,-9.254369E-2,-2.2455001E-2,2.6210357E-2,-9.202038E-2,-2.1666631E-2,-4.95655E-3,-7.0066296E-2,2.5135067E-3,2.8504152E-2,3.119221E-2,-4.334356E-2,1.47254905E-2,3.3143207E-2,-1.5751177E-2,2.9029854E-2],"split_indices":[1,142,182,140,256,1,110,252,254,0,0,90,66,111,143,54,0,120,256,145,18,115,1,0,0,17,0,0,0,0,0,0,0,0,0,0,0,0,0,0,0,0,0],"split_type":[0,0,0,0,0,0,0,0,0,0,0,0,0,0,0,0,0,0,0,0,0,0,0,0,0,0,0,0,0,0,0,0,0,0,0,0,0,0,0,0,0,0,0],"sum_hessian":[1.2849125E3,2.962805E2,9.8863196E2,2.3835269E2,5.79278E1,7.760905E2,2.1254144E2,1.5567409E2,8.267861E1,2.1574472E1,3.6353325E1,6.44847E1,7.116058E2,4.9303875E1,1.6323758E2,1.3425685E2,2.1417233E1,5.21852E1,3.0493412E1,3.004207E1,3.444263E1,4.3956707E1,6.676491E2,2.9134916E1,2.0168959E1,1.4781625E2,1.5421323E1,7.73772E1,5.687965E1,1.5200275E1,3.698492E1,1.51448345E1,1.5348577E1,1.5011108E1,1.5030962E1,1.832839E1,1.611424E1,2.8716772E1,1.5239935E1,2.7226974E1,6.404221E2,2.2471745E1,1.25344505E2],"tree_param":{"num_deleted":"0","num_feature":"259","num_nodes":"43","size_leaf_vector":"1"}},{"base_weights":[-5.84069E-2,-1.8645152E0,4.210148E-1,-1.2727306E0,-3.730959E0,-7.572988E-1,6.840987E-1,-1.9794234E0,-2.2452294E-3,-1.3761461E-1,-5.857065E-2,1.8682916E-1,-3.3861268E0,-5.0043654E-1,9.44144E-1,-2.3611178E0,-1.7590402E-3,3.5097027E-1,-3.3756845E-2,-1.2411345E0,9.265147E-1,-1.4263129E-1,-1.2431611E-2,4.2734838E-1,-1.7092564E0,-5.618842E-1,1.0290451E0,-1.05181806E-1,-3.7657E-2,2.1867411E-2,-1.3790705E-2,3.2999E-3,-6.734628E-2,1.6004662E-3,3.3083465E-2,2.1203563E-2,-1.84092E-2,-8.6800255E-2,2.5289249E-2,3.0021053E-2,-7.3841356E-2,3.2091085E-2,-6.23262E-4],"categories":[],"categories_nodes":[],"categories_segments":[],"categories_sizes":[],"default_left":[0,0,0,0,0,0,0,0,0,0,0,0,0,0,0,0,0,0,0,0,0,0,0,0,0,0,0,0,0,0,0,0,0,0,0,0,0,0,0,0,0,0,0],"id":3,"left_children":[1,3,5,7,9,11,13,15,17,-1,-1,19,21,23,25,27,-1,29,-1,31,33,-1,-1,35,37,39,41,-1,-1,-1,-1,-1,-1,-1,-1,-1,-1,-1,-1,-1,-1,-1,-1],"loss_changes":[1.0724258E3,2.7597375E2,3.0431415E2,1.7934589E2,7.361163E1,4.4728583E2,2.4783789E2,9.330536E1,3.0291513E1,0E0,0E0,1.4347464E2,1.8794202E2,1.6480966E2,8.540216E1,1.2541254E2,0E0,1.8354408E1,0E0,6.4001686E1,1.3293694E1,0E0,0E0,2.5233856E1,1.9780832E2,1.1283357E2,2.6975098E1,0E0,0E0,0E0,0E0,0E0,0E0,0E0,0E0,0E0,0E0,0E0,0E0,0E0,0E0,0E0,0E0],"parents":[2147483647,0,0,1,1,2,2,3,3,4,4,5,5,6,6,7,7,8,8,11,11,12,12,13,13,14,14,15,15,17,17,19,19,20,20,23,23,24,24,25,25,26,26],"right_children":[2,4,6,8,10,12,14,16,18,-1,-1,20,22,24,26,28,-1,30,-1,32,34,-1,-1,36,38,40,42,-1,-1,-1,-1,-1,-1,-1,-1,-1,-1,-1,-1,-1,-1,-1,-1],"split_conditions":[5.014236E0,9.25E0,2.990625E0,8E0,-6.1544605E-2,4.858E-1,1E0,2.84E-2,1.43E1,-1.3761461E-1,-5.857065E-2,3.939394E-1,2.475E1,8E-1,-7.6E0,-3.8261537E-2,-1.7590402E-3,8.218E-1,-3.3756845E-2,-8.2297474E-2,7E0,-1.4263129E-1,-1.2431611E-2,2.89E1,1.3E1,1.23E2,4E0,-1.05181806E-1,-3.7657E-2,2.1867411E-2,-1.3790705E-2,3.2999E-3,-6.734628E-2,1.6004662E-3,3.3083465E-2,2.1203563E-2,-1.84092E-2,-8.6800255E-2,2.5289249E-2,3.0021053E-2,-7.3841356E-2,3.2091085E-2,-6.23262E-4],"split_indices":[201,142,2,0,255,129,179,66,146,0,0,219,126,93,50,255,0,36,0,239,232,0,0,10,0,159,125,0,0,0,0,0,0,0,0,0,0,0,0,0,0,0,0],"split_type":[0,0,0,0,0,0,0,0,0,0,0,0,0,0,0,0,0,0,0,0,0,0,0,0,0,0,0,0,0,0,0,0,0,0,0,0,0,0,0,0,0,0,0],"sum_hessian":[1.2342147E3,2.578129E2,9.764018E2,1.9842404E2,5.938885E1,1.77319E2,7.9908276E2,1.26633484E2,7.179056E1,3.7844307E1,2.154454E1,1.3174669E2,4.5572304E1,1.4330592E2,6.5577686E2,1.0512803E2,2.1505453E1,5.5455685E1,1.6334873E1,4.4355988E1,8.739071E1,3.0314302E1,1.5258001E1,8.166882E1,6.1637108E1,3.4207783E1,6.2156903E2,4.938589E1,5.5742138E1,3.8212246E1,1.7243439E1,1.9537971E1,2.4818018E1,1.5402009E1,7.19887E1,6.5118935E1,1.6549887E1,4.200124E1,1.963587E1,1.9200905E1,1.5006879E1,5.986329E2,2.2936172E1],"tree_param":{"num_deleted":"0","num_feature":"259","num_nodes":"43","size_leaf_vector":"1"}},{"base_weights":[-2.0959653E-2,-1.6722857E0,5.898129E-1,-1.157498E0,-3.2044094E0,9.026268E-1,-4.4968927E-1,-1.4006963E0,3.1865323E-1,-3.0876491E-2,-3.7126956E0,2.2740584E-2,9.8162377E-1,4.8144305E-1,-2.5704563E0,-1.7656356E0,-3.2321098E-1,-1.0004074E-2,2.6132932E-2,-1.2947154E-1,-4.6083886E-2,4.5448723E-1,-3.506158E-2,1.0491655E0,7.667942E-2,7.9176396E-1,-5.1982943E-2,1.4537428E-2,-3.6478834E0,-6.2220074E-2,1.0629026E-3,7.700344E-3,-3.8960885E-2,2.5703307E-2,-9.381444E-3,3.2405436E-2,-6.7606184E-4,-5.419788E-2,3.0702692E-2,-1.122716E-2,3.0722346E-2,-5.812192E-2,-1.4101997E-1],"categories":[],"categories_nodes":[],"categories_segments":[],"categories_sizes":[],"default_left":[0,0,0,0,0,0,0,0,0,0,0,0,0,0,0,0,0,0,0,0,0,0,0,0,0,0,0,0,0,0,0,0,0,0,0,0,0,0,0,0,0,0,0],"id":4,"left_children":[1,3,5,7,9,11,13,15,17,-1,19,21,23,25,27,29,31,-1,-1,-1,-1,33,-1,35,37,39,-1,-1,41,-1,-1,-1,-1,-1,-1,-1,-1,-1,-1,-1,-1,-1,-1],"loss_changes":[1.3120684E3,2.683388E2,3.0964432E2,9.678839E1,8.7200195E1,5.04386E1,4.3894315E2,8.832034E1,1.4832308E1,0E0,7.6465576E1,3.302558E1,4.0457275E1,1.0893588E2,2.274975E2,9.544409E1,3.5270912E1,0E0,0E0,0E0,0E0,1.5371488E1,0E0,2.10766E1,9.083699E1,3.8180824E1,0E0,0E0,7.054437E1,0E0,0E0,0E0,0E0,0E0,0E0,0E0,0E0,0E0,0E0,0E0,0E0,0E0,0E0],"parents":[2147483647,0,0,1,1,2,2,3,3,4,4,5,5,6,6,7,7,8,8,10,10,11,11,12,12,13,13,14,14,15,15,16,16,21,21,23,23,24,24,25,25,28,28],"right_children":[2,4,6,8,10,12,14,16,18,-1,20,22,24,26,28,30,32,-1,-1,-1,-1,34,-1,36,38,40,-1,-1,42,-1,-1,-1,-1,-1,-1,-1,-1,-1,-1,-1,-1,-1,-1],"split_conditions":[1.590909E-1,2.96E1,3E1,8E0,4.5764706E1,3.0050504E-1,4.7535E-1,2.3E-2,4.818E-1,-3.0876491E-2,2E0,4.7E1,1.12E1,5E0,1.6875E-1,6E0,7.496528E-1,-1.0004074E-2,2.6132932E-2,-1.2947154E-1,-4.6083886E-2,4.733E-1,-3.506158E-2,1.07E1,1.4E0,3E0,-5.1982943E-2,1.4537428E-2,5.25E0,-6.2220074E-2,1.0629026E-3,7.700344E-3,-3.8960885E-2,2.5703307E-2,-9.381444E-3,3.2405436E-2,-6.7606184E-4,-5.419788E-2,3.0702692E-2,-1.122716E-2,3.0722346E-2,-5.812192E-2,-1.4101997E-1],"split_indices":[59,148,182,235,144,59,140,88,151,0,235,39,156,243,193,251,117,0,0,0,0,13,0,167,166,4,0,0,149,0,0,0,0,0,0,0,0,0,0,0,0,0,0],"split_type":[0,0,0,0,0,0,0,0,0,0,0,0,0,0,0,0,0,0,0,0,0,0,0,0,0,0,0,0,0,0,0,0,0,0,0,0,0,0,0,0,0,0,0],"sum_hessian":[1.2966227E3,3.492856E2,9.473371E2,2.642166E2,8.5069E1,7.28626E2,2.1871106E2,2.2710599E2,3.711063E1,1.7370886E1,6.769812E1,6.0552418E1,6.680736E2,1.5295848E2,6.5752594E1,1.684851E2,5.862088E1,1.7134388E1,1.9976244E1,5.136412E1,1.6334E1,4.5539318E1,1.5013098E1,6.2106903E2,4.7004574E1,1.3540219E2,1.7556276E1,1.7357515E1,4.8395077E1,1.4373859E2,2.4746517E1,3.7496708E1,2.1124172E1,2.9977732E1,1.5561587E1,6.0385706E2,1.7211956E1,1.5011056E1,3.1993517E1,2.207798E1,1.1332422E2,2.0710928E1,2.7684149E1],"tree_param":{"num_deleted":"0","num_feature":"259","num_nodes":"43","size_leaf_vector":"1"}},{"base_weights":[3.8646262E-2,-1.4377656E0,7.47594E-1,-1.8833972E0,-8.678715E-2,9.9406976E-1,-2.4315491E-1,-3.576754E0,-1.4234004E0,-6.0947433E-2,4.2086044E-1,1.0291494E0,-1.3773589E-2,6.526478E-1,-2.5452552E0,-6.2846914E-2,-1.2077641E-1,-1.7526916E0,-1.9145209E-1,-2.2719573E-2,7.1713233E-1,1.0604897E0,-6.815974E-3,-1.6658153E-2,8.626179E-1,1.0159819E-2,-1.2482594E-1,-1.5277449E-2,-6.298168E-2,1.5695306E-2,-5.357657E-2,1.4200525E-3,2.8108764E-2,8.167904E-3,3.237275E-2,3.1354032E-2,9.080908E-4],"categories":[],"categories_nodes":[],"categories_segments":[],"categories_sizes":[],"default_left":[0,0,0,0,0,0,0,0,0,0,0,0,0,0,0,0,0,0,0,0,0,0,0,0,0,0,0,0,0,0,0,0,0,0,0,0,0],"id":5,"left_children":[1,3,5,7,9,11,13,15,17,-1,19,21,-1,23,25,-1,-1,27,29,-1,31,33,-1,-1,35,-1,-1,-1,-1,-1,-1,-1,-1,-1,-1,-1,-1],"loss_changes":[1.3041257E3,2.4238885E2,2.0630862E2,2.2482825E2,1.0339445E2,3.551825E1,3.5260138E2,2.3491577E1,9.701178E1,0E0,2.9984154E1,2.6709656E1,0E0,3.2303463E1,2.270003E2,0E0,0E0,7.929132E1,6.3238914E1,0E0,9.541523E0,8.4539795E0,0E0,0E0,1.57131195E1,0E0,0E0,0E0,0E0,0E0,0E0,0E0,0E0,0E0,0E0,0E0,0E0],"parents":[2147483647,0,0,1,1,2,2,3,3,4,4,5,5,6,6,7,7,8,8,10,10,11,11,13,13,14,14,17,17,18,18,20,20,21,21,24,24],"right_children":[2,4,6,8,10,12,14,16,18,-1,20,22,-1,24,26,-1,-1,28,30,-1,32,34,-1,-1,36,-1,-1,-1,-1,-1,-1,-1,-1,-1,-1,-1,-1],"split_conditions":[3.6539907E0,8.1554437E-1,3.1E1,7.2765E-1,-5E-3,5.15E1,5.88E-1,4.9221405E-1,2.84E-2,-6.0947433E-2,7.8881085E-2,7.111111E0,-1.3773589E-2,-3.9E0,5.25E0,-6.2846914E-2,-1.2077641E-1,1.1811191E-1,-7.1148515E-2,-2.2719573E-2,3.3E0,-1.085E1,-6.815974E-3,-1.6658153E-2,2.53E2,1.0159819E-2,-1.2482594E-1,-1.5277449E-2,-6.298168E-2,1.5695306E-2,-5.357657E-2,1.4200525E-3,2.8108764E-2,8.167904E-3,3.237275E-2,3.1354032E-2,9.080908E-4],"split_indices":[1,258,182,25,104,39,172,257,66,0,255,138,0,70,149,0,0,258,255,0,98,119,0,0,254,0,0,0,0,0,0,0,0,0,0,0,0],"split_type":[0,0,0,0,0,0,0,0,0,0,0,0,0,0,0,0,0,0,0,0,0,0,0,0,0,0,0,0,0,0,0,0,0,0,0,0,0],"sum_hessian":[1.2420857E3,4.0213803E2,8.3994763E2,3.0163193E2,1.005061E2,6.728532E2,1.6709445E2,6.1400143E1,2.4023178E2,1.968398E1,8.082213E1,6.5776495E2,1.5088235E1,1.212254E2,4.586904E1,1.7071333E1,4.4328808E1,1.8870369E2,5.1528103E1,1.5411309E1,6.541081E1,6.4229315E2,1.5471796E1,1.7253181E1,1.0397222E2,1.697076E1,2.8898283E1,4.2408195E1,1.4629549E2,3.637868E1,1.5149421E1,1.7100887E1,4.830993E1,1.5901338E1,6.2639185E2,8.4558586E1,1.9413637E1],"tree_param":{"num_deleted":"0","num_feature":"259","num_nodes":"37","size_leaf_vector":"1"}},{"base_weights":[-6.0495768E-2,-1.5078783E0,5.782335E-1,-2.7885401E0,-1.1264229E0,-4.9304155E-1,7.894371E-1,-3.383729E0,-4.315702E-2,-4.9343866E-1,-1.6338893E0,-2.5466626E0,6.4424187E-1,-4.1812247E-1,8.7483495E-1,-6.5651946E-2,-1.1138824E-1,-8.1275284E-1,5.116767E-1,-1.9278156E0,-6.156317E-5,-3.0892235E-3,-1.1406355E-1,-1.4323298E-2,3.269611E-2,3.029201E-2,-8.006838E-2,4.8465263E-2,1.018001E0,-6.0875885E-2,-6.3796397E-3,3.2279305E-3,2.5820633E-2,-6.576663E-2,-5.5371486E-3,1.6491352E-2,-3.864993E-2,3.2210946E-2,-8.349185E-3],"categories":[],"categories_nodes":[],"categories_segments":[],"categories_sizes":[],"default_left":[0,0,0,0,0,0,0,0,0,0,0,0,0,0,0,0,0,0,0,0,0,0,0,0,0,0,0,0,0,0,0,0,0,0,0,0,0,0,0],"id":6,"left_children":[1,3,5,7,9,11,13,15,-1,17,19,21,23,25,27,-1,-1,29,31,33,-1,-1,-1,-1,-1,-1,-1,35,37,-1,-1,-1,-1,-1,-1,-1,-1,-1,-1],"loss_changes":[1.1344468E3,1.7610168E2,1.9345203E2,5.6871765E1,9.188217E1,3.335667E2,7.429263E1,4.4677124E0,0E0,4.3777092E1,7.688583E1,1.5393863E2,4.7390324E1,1.6062813E2,7.8357544E1,0E0,0E0,7.316609E1,4.205511E0,6.1491486E1,0E0,0E0,0E0,0E0,0E0,0E0,0E0,6.869223E1,4.178296E1,0E0,0E0,0E0,0E0,0E0,0E0,0E0,0E0,0E0,0E0],"parents":[2147483647,0,0,1,1,2,2,3,3,4,4,5,5,6,6,7,7,9,9,10,10,11,11,12,12,13,13,14,14,17,17,18,18,19,19,27,27,28,28],"right_children":[2,4,6,8,10,12,14,16,-1,18,20,22,24,26,28,-1,-1,30,32,34,-1,-1,-1,-1,-1,-1,-1,36,38,-1,-1,-1,-1,-1,-1,-1,-1,-1,-1],"split_conditions":[2.6536138E0,7.2795E-1,2.7272727E0,1E0,1.3E-1,-3.4E0,-7.6E0,1E0,-4.315702E-2,1.8638889E0,8E0,-4.6E0,5.074627E-1,4E0,1E0,-6.5651946E-2,-1.1138824E-1,4.27E1,2E0,6E0,-6.156317E-5,-3.0892235E-3,-1.1406355E-1,-1.4323298E-2,3.269611E-2,3.029201E-2,-8.006838E-2,4.874E-1,4E0,-6.0875885E-2,-6.3796397E-3,3.2279305E-3,2.5820633E-2,-6.576663E-2,-5.5371486E-3,1.6491352E-2,-3.864993E-2,3.2210946E-2,-8.349185E-3],"split_indices":[1,25,246,238,26,63,50,62,0,238,180,63,217,250,179,0,0,17,230,250,0,0,0,0,0,0,0,35,125,0,0,0,0,0,0,0,0,0,0],"split_type":[0,0,0,0,0,0,0,0,0,0,0,0,0,0,0,0,0,0,0,0,0,0,0,0,0,0,0,0,0,0,0,0,0,0,0,0,0,0,0],"sum_hessian":[1.2229235E3,3.7374734E2,8.4917615E2,8.2698006E1,2.9104935E2,1.3917221E2,7.1000397E2,5.51484E1,2.7549606E1,1.3152658E2,1.5952275E2,4.8813587E1,9.035863E1,4.614799E1,6.6385596E2,1.5408397E1,3.974E1,1.003331E2,3.119349E1,1.3471187E2,2.4810879E1,1.7382444E1,3.1431145E1,2.5459322E1,6.489931E1,2.8829138E1,1.7318853E1,9.87327E1,5.651232E2,3.1406664E1,6.892644E1,1.6067255E1,1.5126234E1,1.1637375E2,1.8338121E1,7.282729E1,2.5905409E1,5.423936E2,2.2729664E1],"tree_param":{"num_deleted":"0","num_feature":"259","num_nodes":"39","size_leaf_vector":"1"}},{"base_weights":[-5.724879E-2,-1.3960278E0,5.4080516E-1,-1.8799859E0,-2.5623924E-1,8.554924E-1,-3.9106548E-1,-1.3012078E0,-3.051105E0,-5.9497498E-2,1.7627169E-1,-3.9723063E-1,9.3541014E-1,-2.3624368E0,3.5044616E-1,-5.5651116E-1,-2.740469E0,-1.0294062E-1,-3.2595437E-2,-4.529224E-2,5.672826E-1,-4.0925168E-2,1.2799759E-2,3.7537253E-1,1.0529363E0,1.866831E-2,-1.0675428E-1,7.114196E-1,-4.8830293E-2,-5.203544E-2,-1.06064654E-4,-1.1677166E-1,-4.812484E-2,-6.9385907E-3,2.6670666E-2,2.724042E-2,-5.1374152E-2,1.33854225E-2,3.241132E-2,-2.1831768E-2,2.7095981E-2],"categories":[],"categories_nodes":[],"categories_segments":[],"categories_sizes":[],"default_left":[0,0,0,0,0,0,0,0,0,0,0,0,0,0,0,0,0,0,0,0,0,0,0,0,0,0,0,0,0,0,0,0,0,0,0,0,0,0,0,0,0],"id":7,"left_children":[1,3,5,7,9,11,13,15,17,-1,19,21,23,25,27,29,31,-1,-1,-1,33,-1,-1,35,37,-1,-1,39,-1,-1,-1,-1,-1,-1,-1,-1,-1,-1,-1,-1,-1],"loss_changes":[9.959678E2,2.1028674E2,2.5288191E2,1.7318274E2,8.8627815E1,6.532443E1,3.21123E2,1.9293982E2,5.644879E1,0E0,6.422879E1,3.3125557E1,3.8647217E1,2.1946677E2,1.16389534E2,8.0085556E1,6.7042694E1,0E0,0E0,0E0,2.088639E1,0E0,0E0,1.2365164E2,6.8876953E0,0E0,0E0,3.9164566E1,0E0,0E0,0E0,0E0,0E0,0E0,0E0,0E0,0E0,0E0,0E0,0E0,0E0],"parents":[2147483647,0,0,1,1,2,2,3,3,4,4,5,5,6,6,7,7,8,8,10,10,11,11,12,12,13,13,14,14,15,15,16,16,20,20,23,23,24,24,27,27],"right_children":[2,4,6,8,10,12,14,16,18,-1,20,22,24,26,28,30,32,-1,-1,-1,34,-1,-1,36,38,-1,-1,40,-1,-1,-1,-1,-1,-1,-1,-1,-1,-1,-1,-1,-1],"split_conditions":[2.6536138E0,7.187E-1,3E1,1.67E1,-5E-3,3.6539907E0,-2.09E0,-3.389288E-2,-7.924997E-2,-5.9497498E-2,4.8761904E-2,8E0,4.426E-1,5.5E-1,1.189E2,4.311111E1,0E0,-1.0294062E-1,-3.2595437E-2,-4.529224E-2,1.6166667E0,-4.0925168E-2,1.2799759E-2,9.142858E0,4.670994E0,1.866831E-2,-1.0675428E-1,1.2118095E-1,-4.8830293E-2,-5.203544E-2,-1.06064654E-4,-1.1677166E-1,-4.812484E-2,-6.9385907E-3,2.6670666E-2,2.724042E-2,-5.1374152E-2,1.33854225E-2,3.241132E-2,-2.1831768E-2,2.7095981E-2],"split_indices":[1,258,182,162,104,1,110,255,255,0,255,40,151,165,143,17,180,0,0,0,238,0,0,134,1,0,0,256,0,0,0,0,0,0,0,0,0,0,0,0,0],"split_type":[0,0,0,0,0,0,0,0,0,0,0,0,0,0,0,0,0,0,0,0,0,0,0,0,0,0,0,0,0,0,0,0,0,0,0,0,0,0,0,0,0],"sum_hessian":[1.2397239E3,3.8213196E2,8.575919E2,2.6714096E2,1.1499099E2,6.414603E2,2.1613155E2,1.8178127E2,8.5359695E1,2.1733229E1,9.325776E1,3.7766674E1,6.0369366E2,5.7990784E1,1.5814076E2,1.21761635E2,6.0019638E1,7.013841E1,1.5221281E1,1.6334593E1,7.6923164E1,1.693906E1,2.0827614E1,1.0661082E2,4.9708286E2,1.6792854E1,4.119793E1,1.3494753E2,2.3193237E1,3.7359283E1,8.440235E1,2.7265038E1,3.27546E1,2.1985138E1,5.4938026E1,8.5955986E1,2.0654827E1,2.347489E1,4.7360797E2,1.5027247E1,1.1992028E2],"tree_param":{"num_deleted":"0","num_feature":"259","num_nodes":"41","size_leaf_vector":"1"}},{"base_weights":[-4.710525E-3,-1.2404603E0,6.395255E-1,-9.006238E-1,-2.280978E0,9.256355E-1,-3.7172765E-1,-1.4239928E0,-4.604397E-1,-2.6740682E0,-1.6730206E-2,9.969369E-1,-4.9661514E-1,5.059362E-1,-2.4286206E0,-9.041322E-1,-2.5086124E0,-7.279382E-1,6.157227E-1,-9.345387E-2,-1.8976073E0,1.0351144E0,-1.1248029E-2,-4.7948763E-2,1.8953418E-2,8.8694334E-1,-4.180774E-2,-9.780097E-2,-1.1790362E-2,-3.9990917E-2,1.3042124E-2,-3.6309868E-2,-9.6237406E-2,-1.0961726E-2,-4.4154968E-2,3.2861428E-3,2.8976941E-2,-2.4265844E-2,-8.149854E-2,5.875547E-3,3.1721126E-2,3.255246E-2,4.7044316E-3],"categories":[],"categories_nodes":[],"categories_segments":[],"categories_sizes":[],"default_left":[0,0,0,0,0,0,0,0,0,0,0,0,0,0,0,0,0,0,0,0,0,0,0,0,0,0,0,0,0,0,0,0,0,0,0,0,0,0,0,0,0,0,0],"id":8,"left_children":[1,3,5,7,9,11,13,15,17,19,-1,21,23,25,27,29,31,33,35,-1,37,39,-1,-1,-1,41,-1,-1,-1,-1,-1,-1,-1,-1,-1,-1,-1,-1,-1,-1,-1,-1,-1],"loss_changes":[1.0111476E3,1.4886865E2,2.4231836E2,7.4532684E1,6.761774E1,6.71897E1,3.374474E2,7.9158875E1,5.373096E1,1.5906311E1,0E0,3.3503784E1,4.2372772E1,9.741445E1,9.0862976E1,6.1656166E1,3.3914307E1,3.829985E1,6.090687E0,0E0,2.6903625E1,1.0510986E1,0E0,0E0,0E0,1.5315605E1,0E0,0E0,0E0,0E0,0E0,0E0,0E0,0E0,0E0,0E0,0E0,0E0,0E0,0E0,0E0,0E0,0E0],"parents":[2147483647,0,0,1,1,2,2,3,3,4,4,5,5,6,6,7,7,8,8,9,9,11,11,12,12,13,13,14,14,15,15,16,16,17,17,18,18,20,20,21,21,25,25],"right_children":[2,4,6,8,10,12,14,16,18,20,-1,22,24,26,28,30,32,34,36,-1,38,40,-1,-1,-1,42,-1,-1,-1,-1,-1,-1,-1,-1,-1,-1,-1,-1,-1,-1,-1,-1,-1],"split_conditions":[3.6539907E0,2.96E1,3.1E1,-1.8E0,6E-3,6.8E0,4.848E-1,9.8E0,8E0,-8.738834E-2,-1.6730206E-2,5.14E1,1.152E2,1.4666667E1,2.45E1,8E0,8.819444E-1,1.51E1,4.848E-1,-9.345387E-2,1.4E1,1.5E1,-1.1248029E-2,-4.7948763E-2,1.8953418E-2,2E0,-4.180774E-2,-9.780097E-2,-1.1790362E-2,-3.9990917E-2,1.3042124E-2,-3.6309868E-2,-9.6237406E-2,-1.0961726E-2,-4.4154968E-2,3.2861428E-3,2.8976941E-2,-2.4265844E-2,-8.149854E-2,5.875547E-3,3.1721126E-2,3.255246E-2,4.7044316E-3],"split_indices":[1,148,182,90,113,138,129,134,180,255,0,39,154,146,148,229,247,98,151,0,153,183,0,0,0,252,0,0,0,0,0,0,0,0,0,0,0,0,0,0,0,0,0],"split_type":[0,0,0,0,0,0,0,0,0,0,0,0,0,0,0,0,0,0,0,0,0,0,0,0,0,0,0,0,0,0,0,0,0,0,0,0,0,0,0,0,0,0,0],"sum_hessian":[1.2658838E3,4.3332004E2,8.325638E2,3.296686E2,1.0365143E2,6.493201E2,1.8324368E2,1.4825055E2,1.8141805E2,8.335943E1,2.0292004E1,6.190923E2,3.0227808E1,1.2939418E2,5.384951E1,1.0288252E2,4.5368023E1,1.460426E2,3.5375443E1,4.9073452E1,3.4285976E1,6.0302057E2,1.6071714E1,1.5008093E1,1.5219715E1,1.0879597E2,2.0598207E1,3.7274822E1,1.657469E1,7.809733E1,2.478519E1,1.7944258E1,2.7423767E1,1.0046516E2,4.5577454E1,1.5889389E1,1.9486055E1,1.6583002E1,1.7702974E1,1.6432934E1,5.8658765E2,8.4485535E1,2.4310436E1],"tree_param":{"num_deleted":"0","num_feature":"259","num_nodes":"43","size_leaf_vector":"1"}},{"base_weights":[1.220256E-2,-1.2279837E0,6.051568E-1,-2.262805E0,-9.0345407E-1,8.3001614E-1,-5.2062523E-1,-8.8581644E-2,4.163317E-3,-1.3771125E0,-3.4181365E-1,-4.4864282E-2,8.9201254E-1,7.129302E-1,-1.9988753E0,-1.5857061E0,-2.728816E-4,-1.1328445E-3,-4.5942023E-2,9.643053E-1,-4.139338E-1,-1.34517895E-2,3.036425E-2,-2.8693357E0,1.9582571E-2,-2.2411903E-2,-5.9198536E-2,1.6409703E-2,-1.7180635E-2,-2.341446E-3,3.128841E-2,-6.397207E-2,2.9912943E-2,-1.03520334E-1,-4.755083E-2],"categories":[],"categories_nodes":[],"categories_segments":[],"categories_sizes":[],"default_left":[0,0,0,0,0,0,0,0,0,0,0,0,0,0,0,0,0,0,0,0,0,0,0,0,0,0,0,0,0,0,0,0,0,0,0],"id":9,"left_children":[1,3,5,7,9,11,13,-1,-1,15,17,-1,19,21,23,25,-1,27,-1,29,31,-1,-1,33,-1,-1,-1,-1,-1,-1,-1,-1,-1,-1,-1],"loss_changes":[9.0820624E2,1.2909576E2,2.1254593E2,1.5708838E2,8.037404E1,1.03073944E2,2.5882153E2,0E0,0E0,4.6840546E1,5.7766983E1,0E0,6.5252075E1,2.809977E1,1.5304047E2,4.296634E1,0E0,3.6314705E1,0E0,5.341046E1,9.4067215E1,0E0,0E0,2.4086487E1,0E0,0E0,0E0,0E0,0E0,0E0,0E0,0E0,0E0,0E0,0E0],"parents":[2147483647,0,0,1,1,2,2,3,3,4,4,5,5,6,6,9,9,10,10,12,12,13,13,14,14,15,15,17,17,19,19,20,20,23,23],"right_children":[2,4,6,8,10,12,14,-1,-1,16,18,-1,20,22,24,26,-1,28,-1,30,32,-1,-1,34,-1,-1,-1,-1,-1,-1,-1,-1,-1,-1,-1],"split_conditions":[2.6536138E0,7.2765E-1,3.6E1,6.877899E-2,4.5E-3,-1.96E1,4.708E-1,-8.8581644E-2,4.163317E-3,2.25E0,1E0,-4.4864282E-2,6.8E0,-2E-1,9E0,4.686E-1,-2.728816E-4,1.25E1,-4.5942023E-2,3.8783588E0,6E0,-1.34517895E-2,3.036425E-2,5.5E0,1.9582571E-2,-2.2411903E-2,-5.9198536E-2,1.6409703E-2,-1.7180635E-2,-2.341446E-3,3.128841E-2,-6.397207E-2,2.9912943E-2,-1.03520334E-1,-4.755083E-2],"split_indices":[1,25,182,255,77,91,129,0,0,185,179,0,138,97,7,13,0,135,0,1,6,0,0,33,0,0,0,0,0,0,0,0,0,0,0],"split_type":[0,0,0,0,0,0,0,0,0,0,0,0,0,0,0,0,0,0,0,0,0,0,0,0,0,0,0,0,0,0,0,0,0,0,0],"sum_hessian":[1.2312598E3,3.9741125E2,8.338486E2,9.180498E1,3.0560626E2,6.956867E2,1.3816187E2,7.105774E1,2.074724E1,1.6392358E2,1.416827E2,1.6738558E1,6.789481E2,7.576813E1,6.2393738E1,1.4176923E2,2.2154364E1,1.118924E2,2.9790293E1,6.440487E2,3.4899406E1,1.51125E1,6.065563E1,4.6935097E1,1.5458641E1,4.6905067E1,9.486415E1,5.689296E1,5.499944E1,4.4915745E1,5.99133E2,1.5370322E1,1.9529081E1,2.9826801E1,1.7108295E1],"tree_param":{"num_deleted":"0","num_feature":"259","num_nodes":"35","size_leaf_vector":"1"}},{"base_weights":[-6.650032E-2,-1.1526712E0,5.400066E-1,-1.4891949E0,-5.0190096E-3,-5.7267493E-1,7.5490916E-1,-1.0124661E0,-2.3650968E0,-4.647527E-2,4.2911544E-1,-1.8210994E0,3.0884301E-2,8.6010677E-1,-4.9838956E-2,2.9402393E-1,-1.3987701E0,-2.6375377E0,-1.321398E-2,-1.3895858E-2,6.6315305E-1,2.9580006E-2,-2.7401922E0,-6.223725E-1,9.832085E-1,2.1272182E-2,-8.927672E-3,-6.1022986E-2,-2.1427283E-2,-8.442464E-2,-4.1645613E-2,7.845776E-3,2.8501375E-2,-1.01032816E-1,-4.3012656E-2,-8.2955584E-2,3.0909529E-2,3.092628E-2,9.2091726E-4],"categories":[],"categories_nodes":[],"categories_segments":[],"categories_sizes":[],"default_left":[0,0,0,0,0,0,0,0,0,0,0,0,0,0,0,0,0,0,0,0,0,0,0,0,0,0,0,0,0,0,0,0,0,0,0,0,0,0,0],"id":10,"left_children":[1,3,5,7,9,11,13,15,17,-1,19,21,-1,23,-1,25,27,29,-1,-1,31,-1,33,35,37,-1,-1,-1,-1,-1,-1,-1,-1,-1,-1,-1,-1,-1,-1],"loss_changes":[8.1537366E2,1.7083295E2,1.9078476E2,1.3732037E2,7.056305E1,2.628961E2,1.7204825E2,1.15050354E2,5.9194153E1,0E0,1.7722649E1,1.9576718E2,0E0,1.1816693E2,0E0,1.3553267E1,7.224512E1,1.3825684E1,0E0,0E0,6.7169495E0,0E0,3.4849487E1,1.8372514E2,2.6501099E1,0E0,0E0,0E0,0E0,0E0,0E0,0E0,0E0,0E0,0E0,0E0,0E0,0E0,0E0],"parents":[2147483647,0,0,1,1,2,2,3,3,4,4,5,5,6,6,7,7,8,8,10,10,11,11,13,13,15,15,16,16,17,17,20,20,22,22,23,23,24,24],"right_children":[2,4,6,8,10,12,14,16,18,-1,20,22,-1,24,-1,26,28,30,-1,-1,32,-1,34,36,38,-1,-1,-1,-1,-1,-1,-1,-1,-1,-1,-1,-1,-1,-1],"split_conditions":[3.6539907E0,8.1554437E-1,2.25E0,1.51E1,-5E-3,-4E-3,5E0,1.1811191E-1,7.093572E-1,-4.647527E-2,-2.4E0,8.323613E-2,3.0884301E-2,-7.6E0,-4.9838956E-2,4.712E-1,-1.4E0,-8E-1,-1.321398E-2,-1.3895858E-2,1.5E1,2.9580006E-2,-4.7058824E-2,6E0,4E0,2.1272182E-2,-8.927672E-3,-6.1022986E-2,-2.1427283E-2,-8.442464E-2,-4.1645613E-2,7.845776E-3,2.8501375E-2,-1.01032816E-1,-4.3012656E-2,-8.2955584E-2,3.0909529E-2,3.092628E-2,9.2091726E-4],"split_indices":[1,258,2,98,104,111,243,258,258,0,131,258,0,50,0,35,90,74,0,0,241,0,174,7,125,0,0,0,0,0,0,0,0,0,0,0,0,0,0],"split_type":[0,0,0,0,0,0,0,0,0,0,0,0,0,0,0,0,0,0,0,0,0,0,0,0,0,0,0,0,0,0,0,0,0,0,0,0,0,0,0],"sum_hessian":[1.2335524E3,4.415286E2,7.9202374E2,3.4075354E2,1.00775055E2,1.2744381E2,6.645799E2,2.2367038E2,1.1708317E2,2.1139378E1,7.963567E1,7.1580765E1,5.586305E1,6.382057E2,2.6374187E1,5.097449E1,1.7269588E2,1.0177914E2,1.5304029E1,1.58738E1,6.376188E1,1.7539497E1,5.4041267E1,4.81232E1,5.900825E2,3.002225E1,2.0952242E1,8.7294235E1,8.540165E1,8.67679E1,1.5011237E1,2.8597076E1,3.51648E1,3.4218548E1,1.9822718E1,2.0447285E1,2.7675915E1,5.615031E2,2.8579414E1],"tree_param":{"num_deleted":"0","num_feature":"259","num_nodes":"39","size_leaf_vector":"1"}},{"base_weights":[1.4997219E-2,-1.0677803E0,6.5513116E-1,-1.2873024E0,3.8318238E-1,9.010517E-1,-1.2855363E-1,-2.181858E0,-8.9124995E-1,-2.1347534E-2,7.83352E-1,1.032084E0,3.8924056E-1,-8.1970684E-2,3.0231002E-1,-2.510089E0,-1.2051631E-2,-1.1608437E0,-4.438636E-2,1.025968E-2,2.9862447E-2,6.8256825E-1,1.0845441E0,9.981813E-1,-1.1051884E0,9.3844706E-1,-1.5092115E0,-8.487205E-2,-5.3818244E-2,-3.996606E-2,1.9164536E-2,1.4723599E-2,-5.295324E-2,2.9668935E-2,-6.8889987E-3,1.9809294E-2,3.2955136E-2,1.7811405E-2,3.2282867E-2,-1.0329976E-1,2.9690774E-2,3.2105144E-2,5.244402E-3,1.9756194E-2,-8.2386814E-2],"categories":[],"categories_nodes":[],"categories_segments":[],"categories_sizes":[],"default_left":[0,0,0,0,0,0,0,0,0,0,0,0,0,0,0,0,0,0,0,0,0,0,0,0,0,0,0,0,0,0,0,0,0,0,0,0,0,0,0,0,0,0,0,0,0],"id":11,"left_children":[1,3,5,7,9,11,13,15,17,-1,19,21,23,-1,25,27,-1,29,31,-1,-1,33,35,37,39,41,43,-1,-1,-1,-1,-1,-1,-1,-1,-1,-1,-1,-1,-1,-1,-1,-1,-1,-1],"loss_changes":[8.583477E2,1.4778015E2,1.5050418E2,1.3697595E2,2.821613E1,3.8546783E1,2.1263255E2,6.792444E1,6.3690857E1,0E0,3.262621E0,6.616974E0,1.1553894E2,0E0,1.8992563E2,1.1718872E1,0E0,6.753491E1,6.676334E1,0E0,0E0,1.956211E1,4.202881E-1,1.0481262E0,1.881531E2,1.1486473E1,1.1922271E2,0E0,0E0,0E0,0E0,0E0,0E0,0E0,0E0,0E0,0E0,0E0,0E0,0E0,0E0,0E0,0E0,0E0,0E0],"parents":[2147483647,0,0,1,1,2,2,3,3,4,4,5,5,6,6,7,7,8,8,10,10,11,11,12,12,14,14,15,15,17,17,18,18,21,21,22,22,23,23,24,24,25,25,26,26],"right_children":[2,4,6,8,10,12,14,16,18,-1,20,22,24,-1,26,28,-1,30,32,-1,-1,34,36,38,40,42,44,-1,-1,-1,-1,-1,-1,-1,-1,-1,-1,-1,-1,-1,-1,-1,-1,-1,-1],"split_conditions":[3.6539907E0,9.14898E-1,3.1E1,1.126E2,6E-1,1.3E0,7.3095E-1,8.666667E0,2.52E-2,-2.1347534E-2,3E-1,3E0,3.5E1,-8.1970684E-2,4.7835E-1,0E0,-1.2051631E-2,1.7E1,7.6E1,1.025968E-2,2.9862447E-2,2.8E1,4.242E-1,1.3043478E-1,-4E-3,2E0,1.7142858E-1,-8.487205E-2,-5.3818244E-2,-3.996606E-2,1.9164536E-2,1.4723599E-2,-5.295324E-2,2.9668935E-2,-6.8889987E-3,1.9809294E-2,3.2955136E-2,1.7811405E-2,3.2282867E-2,-1.0329976E-1,2.9690774E-2,3.2105144E-2,5.244402E-3,1.9756194E-2,-8.2386814E-2],"split_indices":[1,258,182,164,108,82,141,40,88,0,61,123,227,0,140,86,0,240,159,0,0,148,35,193,111,9,193,0,0,0,0,0,0,0,0,0,0,0,0,0,0,0,0,0,0],"split_type":[0,0,0,0,0,0,0,0,0,0,0,0,0,0,0,0,0,0,0,0,0,0,0,0,0,0,0,0,0,0,0,0,0,0,0,0,0,0,0,0,0,0,0,0,0],"sum_hessian":[1.2345381E3,4.580122E2,7.765259E2,3.981993E2,5.981287E1,5.911166E2,1.8540932E2,1.1919666E2,2.7900266E2,1.5393607E1,4.4419262E1,4.6854254E2,1.2257402E2,2.4906576E1,1.6050273E2,9.98054E1,1.9391268E1,2.1080002E2,6.820264E1,1.6570797E1,2.7848467E1,6.555077E1,4.029918E2,8.770244E1,3.487158E1,1.1962466E2,4.087808E1,6.46776E1,3.5127796E1,1.9309982E2,1.7700197E1,5.2980145E1,1.5222492E1,4.9189316E1,1.6361458E1,1.6601076E1,3.863907E2,1.7572226E1,7.013022E1,1.59383335E1,1.8933245E1,1.0100577E2,1.8618887E1,1.5103464E1,2.5774614E1],"tree_param":{"num_deleted":"0","num_feature":"259","num_nodes":"45","size_leaf_vector":"1"}},{"base_weights":[2.1488491E-2,-1.1159176E0,6.211309E-1,-1.4782938E0,-1.885947E-1,8.2458246E-1,-1.0277532E-1,-9.555103E-1,-2.3549542E0,-5.7219293E-2,8.837239E-2,9.238339E-1,-2.7459672E-1,-1.9331764E0,4.8771885E-1,-3.244048E-1,-2.1281435E0,-2.686325E0,-5.441333E-3,-4.5546886E-2,3.9070866E-1,-1.9740139E-1,9.975667E-1,2.8671086E-2,-7.728806E-2,-2.13668E-2,-9.986795E-2,-2.3671318E-2,8.5337293E-1,-2.5569102E-2,2.0796724E-2,-8.605201E-2,-3.0459644E-2,-8.7085225E-2,-4.5810886E-2,2.1758888E-2,-1.6735172E-2,-2.847377E-2,1.1833036E-2,-0E0,3.0859372E-2,3.1488627E-2,-1.8294567E-3],"categories":[],"categories_nodes":[],"categories_segments":[],"categories_sizes":[],"default_left":[0,0,0,0,0,0,0,0,0,0,0,0,0,0,0,0,0,0,0,0,0,0,0,0,0,0,0,0,0,0,0,0,0,0,0,0,0,0,0,0,0,0,0],"id":12,"left_children":[1,3,5,7,9,11,13,15,17,-1,19,21,23,25,27,29,31,33,-1,-1,35,37,39,-1,-1,-1,-1,-1,41,-1,-1,-1,-1,-1,-1,-1,-1,-1,-1,-1,-1,-1,-1],"loss_changes":[8.390483E2,1.4162268E2,1.1906433E2,1.341825E2,5.887544E1,6.938434E1,1.9496654E2,1.4182187E2,7.9029175E1,0E0,5.266619E1,4.8429077E1,1.5671194E2,6.9031525E1,6.49684E1,7.051317E1,4.8636383E1,1.41918335E1,0E0,0E0,2.9909107E1,1.741678E1,1.707721E1,0E0,0E0,0E0,0E0,0E0,1.9633568E1,0E0,0E0,0E0,0E0,0E0,0E0,0E0,0E0,0E0,0E0,0E0,0E0,0E0,0E0],"parents":[2147483647,0,0,1,1,2,2,3,3,4,4,5,5,6,6,7,7,8,8,10,10,11,11,12,12,13,13,14,14,15,15,16,16,17,17,20,20,21,21,22,22,28,28],"right_children":[2,4,6,8,10,12,14,16,18,-1,20,22,24,26,28,30,32,34,-1,-1,36,38,40,-1,-1,-1,-1,-1,42,-1,-1,-1,-1,-1,-1,-1,-1,-1,-1,-1,-1,-1,-1],"split_conditions":[2.6536138E0,7.187E-1,3.1E1,1.51E1,-9E-3,1.12E1,-7.45E0,-3.389288E-2,-5.4134715E-2,-5.7219293E-2,3.27E-2,3.6539907E0,5.6E0,2.76E1,3.357E-1,7.9945E-1,8E0,1.7676767E-2,-5.441333E-3,-4.5546886E-2,9.2E0,8E0,9.96E1,2.8671086E-2,-7.728806E-2,-2.13668E-2,-9.986795E-2,-2.3671318E-2,5E0,-2.5569102E-2,2.0796724E-2,-8.605201E-2,-3.0459644E-2,-8.7085225E-2,-4.5810886E-2,2.1758888E-2,-1.6735172E-2,-2.847377E-2,1.1833036E-2,-0E0,3.0859372E-2,3.1488627E-2,-1.8294567E-3],"split_indices":[1,258,182,98,113,156,61,255,255,0,255,1,149,32,12,141,241,59,0,0,156,40,154,0,0,0,0,0,252,0,0,0,0,0,0,0,0,0,0,0,0,0,0],"split_type":[0,0,0,0,0,0,0,0,0,0,0,0,0,0,0,0,0,0,0,0,0,0,0,0,0,0,0,0,0,0,0,0,0,0,0,0,0,0,0,0,0,0,0],"sum_hessian":[1.2263947E3,4.2259366E2,8.0380096E2,3.027674E2,1.1982626E2,6.275627E2,1.7623824E2,1.9249684E2,1.10270546E2,1.5146323E1,1.0467994E2,5.7613226E2,5.1430454E1,4.2001934E1,1.342363E2,1.2697087E2,6.552598E1,9.515408E1,1.5116463E1,1.5148084E1,8.953186E1,3.5090874E1,5.410414E2,3.4192795E1,1.7237661E1,2.4129726E1,1.7872208E1,2.918703E1,1.0504927E2,8.401007E1,4.2960796E1,3.7293396E1,2.8232578E1,7.742675E1,1.7727331E1,6.676751E1,2.2764353E1,1.5148901E1,1.9941975E1,1.6179407E1,5.24862E2,8.651317E1,1.8536102E1],"tree_param":{"num_deleted":"0","num_feature":"259","num_nodes":"43","size_leaf_vector":"1"}},{"base_weights":[-1.2192893E-2,-1.0313606E0,6.256869E-1,-1.2364196E0,3.411687E-1,8.909061E-1,-1.5720794E-1,-9.6931773E-1,-2.2129354E0,-2.2643967E-2,7.4360734E-1,-1.4863001E-2,9.437536E-1,-1.4777145E0,6.697652E-1,-1.0801859E0,1.1991141E-2,-7.217378E-2,-3.391921E-2,2.8650107E-2,8.341499E-3,1.0276699E0,-0E0,2.8678152E-1,-2.7460132E0,-2.2187915E-2,3.13327E-2,-3.8796853E-2,-3.7844265E-3,1.2670023E-2,3.1616975E-2,3.0639095E-2,-5.5610985E-2,2.6132552E-2,-9.950056E-3,-9.7236015E-2,-4.8220452E-2],"categories":[],"categories_nodes":[],"categories_segments":[],"categories_sizes":[],"default_left":[0,0,0,0,0,0,0,0,0,0,0,0,0,0,0,0,0,0,0,0,0,0,0,0,0,0,0,0,0,0,0,0,0,0,0,0,0],"id":13,"left_children":[1,3,5,7,9,11,13,15,17,-1,19,-1,21,23,25,27,-1,-1,-1,-1,-1,29,31,33,35,-1,-1,-1,-1,-1,-1,-1,-1,-1,-1,-1,-1],"loss_changes":[7.969672E2,1.3395938E2,1.5700162E2,1.0202911E2,2.8787079E1,4.236017E1,2.1204126E2,5.066156E1,1.1560974E1,0E0,3.7334785E0,0E0,4.3273407E1,1.6960529E2,6.467473E1,6.0835083E1,0E0,0E0,0E0,0E0,0E0,6.598877E0,9.143318E1,1.2655098E1,1.2811584E1,0E0,0E0,0E0,0E0,0E0,0E0,0E0,0E0,0E0,0E0,0E0,0E0],"parents":[2147483647,0,0,1,1,2,2,3,3,4,4,5,5,6,6,7,7,8,8,10,10,12,12,13,13,14,14,15,15,21,21,22,22,23,23,24,24],"right_children":[2,4,6,8,10,12,14,16,18,-1,20,-1,22,24,26,28,-1,-1,-1,-1,-1,30,32,34,36,-1,-1,-1,-1,-1,-1,-1,-1,-1,-1,-1,-1],"split_conditions":[3.6539907E0,9.14898E-1,3.1E1,9.25E0,5.870265E-1,4.77E-1,2.1345556E-1,2.5E1,7.357143E0,-2.2643967E-2,3.579E-1,-1.4863001E-2,2.36E1,5.83E-1,3.364E-1,2.19E-2,1.1991141E-2,-7.217378E-2,-3.391921E-2,2.8650107E-2,8.341499E-3,4.819316E0,7.975E-1,-3E-1,4.1E1,-2.2187915E-2,3.13327E-2,-3.8796853E-2,-3.7844265E-3,1.2670023E-2,3.1616975E-2,3.0639095E-2,-5.5610985E-2,2.6132552E-2,-9.950056E-3,-9.7236015E-2,-4.8220452E-2],"split_indices":[1,258,182,142,257,170,256,183,245,0,12,0,98,172,12,77,0,0,0,0,0,1,130,83,182,0,0,0,0,0,0,0,0,0,0,0,0],"split_type":[0,0,0,0,0,0,0,0,0,0,0,0,0,0,0,0,0,0,0,0,0,0,0,0,0,0,0,0,0,0,0,0,0,0,0,0,0],"sum_hessian":[1.2217302E3,4.7001068E2,7.5171954E2,4.092802E2,6.0730476E1,5.6158136E2,1.901382E2,3.2474634E2,8.4533875E1,1.5640331E1,4.5090145E1,1.9797977E1,5.417834E2,7.2753975E1,1.17384224E2,3.0101056E2,2.3735785E1,6.943767E1,1.5096201E1,2.9120396E1,1.5969749E1,4.975764E2,4.4206974E1,3.0973673E1,4.17803E1,2.4074326E1,9.33099E1,2.4522484E2,5.578571E1,2.2560131E1,4.7501627E2,2.9011837E1,1.5195137E1,1.5755846E1,1.5217828E1,2.6360207E1,1.54200945E1],"tree_param":{"num_deleted":"0","num_feature":"259","num_nodes":"37","size_leaf_vector":"1"}},{"base_weights":[-1.2003561E-2,-9.343285E-1,5.9127784E-1,-1.1153971E0,3.4879E-1,-3.5894713E-1,7.657611E-1,-7.6318556E-1,-1.9329308E0,8.095408E-1,-2.425848E-2,2.9154165E-2,-1.7870686E0,8.609769E-1,-4.284914E-2,-1.0266643E0,5.5875696E-2,-2.3166146E0,-9.744269E-1,1.25429435E-2,2.923653E-2,1.7288636E-2,-9.497282E-2,9.263837E-1,-3.947604E-2,-3.6711596E-2,5.682115E-3,1.6001178E-2,-4.7151685E-2,-4.501216E-2,-7.34118E-2,-4.7281165E-2,-3.6764483E-3,-1.9512769E-2,3.0088967E-2],"categories":[],"categories_nodes":[],"categories_segments":[],"categories_sizes":[],"default_left":[0,0,0,0,0,0,0,0,0,0,0,0,0,0,0,0,0,0,0,0,0,0,0,0,0,0,0,0,0,0,0,0,0,0,0],"id":14,"left_children":[1,3,5,7,9,11,13,15,17,19,-1,-1,21,23,-1,25,27,29,31,-1,-1,-1,-1,33,-1,-1,-1,-1,-1,-1,-1,-1,-1,-1,-1],"loss_changes":[6.7267944E2,1.1210312E2,1.218033E2,1.1709723E2,3.354702E1,2.2120267E2,1.3142862E2,6.4479324E1,4.040097E1,1.636713E0,0E0,0E0,1.8693282E2,8.687042E1,0E0,5.4696274E1,5.8784897E1,7.8460693E-1,1.9274242E1,0E0,0E0,0E0,0E0,7.1184265E1,0E0,0E0,0E0,0E0,0E0,0E0,0E0,0E0,0E0,0E0,0E0],"parents":[2147483647,0,0,1,1,2,2,3,3,4,4,5,5,6,6,7,7,8,8,9,9,12,12,13,13,15,15,16,16,17,17,18,18,23,23],"right_children":[2,4,6,8,10,12,14,16,18,20,-1,-1,22,24,-1,26,28,30,32,-1,-1,-1,-1,34,-1,-1,-1,-1,-1,-1,-1,-1,-1,-1,-1],"split_conditions":[3.6539907E0,9.14898E-1,2.25E0,4.5764706E1,6.7E-1,3.6E1,5E0,2.52E-2,1.26E1,3E-1,-2.425848E-2,2.9154165E-2,7.768E-1,5.22E1,-4.284914E-2,2.4E1,7.7E1,-5.962847E0,8.666667E0,1.25429435E-2,2.923653E-2,1.7288636E-2,-9.497282E-2,5.22E-1,-3.947604E-2,-3.6711596E-2,5.682115E-3,1.6001178E-2,-4.7151685E-2,-4.501216E-2,-7.34118E-2,-4.7281165E-2,-3.6764483E-3,-1.9512769E-2,3.0088967E-2],"split_indices":[1,258,2,144,110,197,243,88,41,61,0,0,152,39,0,183,159,238,40,0,0,0,0,49,0,0,0,0,0,0,0,0,0,0,0],"split_type":[0,0,0,0,0,0,0,0,0,0,0,0,0,0,0,0,0,0,0,0,0,0,0,0,0,0,0,0,0,0,0,0,0,0,0],"sum_hessian":[1.2047681E3,4.7617267E2,7.285954E2,4.177208E2,5.845189E1,1.1243695E2,6.1615845E2,2.9490375E2,1.2281705E2,4.242376E1,1.6028128E1,5.8424652E1,5.4012302E1,5.9182684E2,2.4331589E1,2.230209E2,7.188284E1,8.546078E1,3.735627E1,1.5215254E1,2.7208506E1,2.0248575E1,3.376373E1,5.758123E2,1.6014507E1,1.9212282E2,3.0898085E1,5.675983E1,1.5123013E1,1.5538583E1,6.9922195E1,2.0691355E1,1.6664917E1,2.5794952E1,5.500174E2],"tree_param":{"num_deleted":"0","num_feature":"259","num_nodes":"35","size_leaf_vector":"1"}},{"base_weights":[-2.2855764E-2,-9.151329E-1,5.827546E-1,-1.1542021E0,-5.2587282E-2,8.512125E-1,-1.3558511E-1,-8.6143047E-1,-1.8336638E0,2.4674937E-1,-3.8634088E-2,1.7280716E-1,1.023602E0,7.8623736E-1,-1.1727412E0,-1.0082991E0,2.6200838E-2,-9.54233E-1,-6.71389E-2,-2.1757577E-1,8.428617E-1,8.7796926E-1,-6.6393234E-2,1.0201634E-2,1.0527687E0,-2.1560825E-3,1.0061233E0,2.9160433E-2,-1.9430873E0,-4.4562194E-2,-1.5853638E-2,-1.4313621E-2,-3.974598E-2,-2.7566742E-2,1.1131188E-2,3.1211352E-2,1.3819453E-2,1.05139E-3,3.16029E-2,1.383725E-2,3.2293167E-2,3.2183137E-2,1.8362084E-2,-1.0708027E-2,-7.880048E-2],"categories":[],"categories_nodes":[],"categories_segments":[],"categories_sizes":[],"default_left":[0,0,0,0,0,0,0,0,0,0,0,0,0,0,0,0,0,0,0,0,0,0,0,0,0,0,0,0,0,0,0,0,0,0,0,0,0,0,0,0,0,0,0,0,0],"id":15,"left_children":[1,3,5,7,9,11,13,15,17,19,-1,21,23,25,27,29,-1,31,-1,33,35,37,-1,-1,39,-1,41,-1,43,-1,-1,-1,-1,-1,-1,-1,-1,-1,-1,-1,-1,-1,-1,-1,-1],"loss_changes":[6.482601E2,9.955582E1,1.3820525E2,7.152258E1,4.0751274E1,6.017102E1,1.8912308E2,7.04135E1,3.466272E1,2.4949234E1,0E0,1.8559967E2,7.127075E0,2.0177994E1,1.5784636E2,5.4913757E1,0E0,5.101448E0,0E0,2.183771E1,1.5568962E0,1.21827545E1,0E0,0E0,4.090637E0,0E0,3.8072968E-1,0E0,7.23147E1,0E0,0E0,0E0,0E0,0E0,0E0,0E0,0E0,0E0,0E0,0E0,0E0,0E0,0E0,0E0,0E0],"parents":[2147483647,0,0,1,1,2,2,3,3,4,4,5,5,6,6,7,7,8,8,9,9,11,11,12,12,13,13,14,14,15,15,17,17,19,19,20,20,21,21,24,24,26,26,28,28],"right_children":[2,4,6,8,10,12,14,16,18,20,-1,22,24,26,28,30,-1,32,-1,34,36,38,-1,-1,40,-1,42,-1,44,-1,-1,-1,-1,-1,-1,-1,-1,-1,-1,-1,-1,-1,-1,-1,-1],"split_conditions":[3.6539907E0,1.4E-2,3E1,2.96E1,7.9E1,4.468E-1,1.75E0,1.7E1,2.1015406E-1,4.5E0,-3.8634088E-2,1.3E0,3.0050504E-1,1E0,-8E-1,-3.1662546E-2,2.6200838E-2,2E0,-6.71389E-2,6E0,1.475E0,1.122E2,-6.6393234E-2,1.0201634E-2,-8E0,-2.1560825E-3,6.36E-2,2.9160433E-2,5.555556E-1,-4.4562194E-2,-1.5853638E-2,-1.4313621E-2,-3.974598E-2,-2.7566742E-2,1.1131188E-2,3.1211352E-2,1.3819453E-2,1.05139E-3,3.16029E-2,1.383725E-2,3.2293167E-2,3.2183137E-2,1.8362084E-2,-1.0708027E-2,-7.880048E-2],"split_indices":[1,104,182,148,159,151,3,240,256,108,0,82,59,228,98,255,0,124,0,197,109,164,0,0,251,0,89,0,136,0,0,0,0,0,0,0,0,0,0,0,0,0,0,0,0],"split_type":[0,0,0,0,0,0,0,0,0,0,0,0,0,0,0,0,0,0,0,0,0,0,0,0,0,0,0,0,0,0,0,0,0,0,0,0,0,0,0,0,0,0,0,0,0],"sum_hessian":[1.1954961E3,4.8313763E2,7.123585E2,3.7748672E2,1.0565093E2,5.185964E2,1.9376212E2,2.6729135E2,1.1019536E2,8.613497E1,1.951596E1,1.0624297E2,4.1235342E2,1.026879E2,9.107422E1,2.4736017E2,1.9931192E1,3.7055298E1,7.314006E1,4.8850777E1,3.7284195E1,8.3078674E1,2.3164299E1,1.8331944E1,3.9402145E2,2.0942316E1,8.174558E1,2.3826046E1,6.724818E1,1.21618744E2,1.2574142E2,1.855442E1,1.8500877E1,2.2011847E1,2.6838928E1,2.179322E1,1.5490976E1,1.5021911E1,6.805676E1,1.7224344E1,3.7679712E2,6.632214E1,1.542344E1,2.1302618E1,4.5945557E1],"tree_param":{"num_deleted":"0","num_feature":"259","num_nodes":"45","size_leaf_vector":"1"}},{"base_weights":[-1.4471159E-2,-9.30245E-1,5.426119E-1,-1.24454E0,-9.0492226E-2,8.150752E-1,-1.7075479E-1,-7.984117E-1,-2.0218441E0,-4.93254E-2,1.6168539E-1,-2.5667122E-1,8.974978E-1,6.266935E-1,-1.5765228E0,-2.1280268E-1,-1.8360605E0,-2.3229556E0,-9.3546096E-4,-7.2819495E-1,7.3251826E-1,2.9970434E-2,-6.1119754E-2,-6.867779E-2,9.9171567E-1,9.643603E-1,-2.4647769E-2,2.2078443E-2,-2.3720417E0,-3.2992646E-2,6.0739033E-3,-6.8480566E-2,-5.9045074E-3,-8.489679E-2,-5.778099E-2,-5.5122495E-2,1.3886786E-3,1.1841059E-3,2.9880175E-2,1.5893698E-2,-3.1062344E-2,-6.4161974E-3,3.1372935E-2,8.054845E-3,3.2458685E-2,-3.703846E-2,-8.287194E-2],"categories":[],"categories_nodes":[],"categories_segments":[],"categories_sizes":[],"default_left":[0,0,0,0,0,0,0,0,0,0,0,0,0,0,0,0,0,0,0,0,0,0,0,0,0,0,0,0,0,0,0,0,0,0,0,0,0,0,0,0,0,0,0,0,0,0,0],"id":16,"left_children":[1,3,5,7,9,11,13,15,17,-1,19,21,23,25,27,29,31,33,-1,35,37,-1,-1,39,41,43,-1,-1,45,-1,-1,-1,-1,-1,-1,-1,-1,-1,-1,-1,-1,-1,-1,-1,-1,-1,-1],"loss_changes":[6.041225E2,1.17615204E2,1.4351933E2,1.0882736E2,4.9727177E1,4.7755005E1,2.3179839E2,1.26456924E2,6.938284E1,0E0,5.6287567E1,9.2419266E1,4.5549896E1,6.615126E1,1.4161494E2,5.1154247E1,5.3602768E1,8.119385E0,0E0,3.7887035E1,1.1923519E1,0E0,0E0,2.7656437E1,3.0162323E1,7.8583527E0,0E0,0E0,1.6948914E1,0E0,0E0,0E0,0E0,0E0,0E0,0E0,0E0,0E0,0E0,0E0,0E0,0E0,0E0,0E0,0E0,0E0,0E0],"parents":[2147483647,0,0,1,1,2,2,3,3,4,4,5,5,6,6,7,7,8,8,10,10,11,11,12,12,13,13,14,14,15,15,16,16,17,17,19,19,20,20,23,23,24,24,25,25,28,28],"right_children":[2,4,6,8,10,12,14,16,18,-1,20,22,24,26,28,30,32,34,-1,36,38,-1,-1,40,42,44,-1,-1,46,-1,-1,-1,-1,-1,-1,-1,-1,-1,-1,-1,-1,-1,-1,-1,-1,-1,-1],"split_conditions":[2.6536138E0,7.187E-1,3E1,1.51E1,-3.1662546E-2,-7.6E0,4.854E-1,-3.389288E-2,-3.8261537E-2,-4.93254E-2,1.14285715E-1,7.938E-1,3.8783588E0,1.3E1,1E0,4.311111E1,1E0,6.11E-1,-9.3546096E-4,2.57E1,-1.1E0,2.9970434E-2,-6.1119754E-2,4.2795718E-1,1.088E2,4.1428572E-1,-2.4647769E-2,2.2078443E-2,4.2465752E-1,-3.2992646E-2,6.0739033E-3,-6.8480566E-2,-5.9045074E-3,-8.489679E-2,-5.778099E-2,-5.5122495E-2,1.3886786E-3,1.1841059E-3,2.9880175E-2,1.5893698E-2,-3.1062344E-2,-6.4161974E-3,3.1372935E-2,8.054845E-3,3.2458685E-2,-3.703846E-2,-8.287194E-2],"split_indices":[1,258,182,98,255,50,129,255,255,0,84,130,1,124,177,17,215,160,0,21,103,0,0,256,164,189,0,0,189,0,0,0,0,0,0,0,0,0,0,0,0,0,0,0,0,0,0],"split_type":[0,0,0,0,0,0,0,0,0,0,0,0,0,0,0,0,0,0,0,0,0,0,0,0,0,0,0,0,0,0,0,0,0,0,0,0,0,0,0,0,0,0,0,0,0,0,0],"sum_hessian":[1.1799708E3,4.4600085E2,7.339699E2,3.2357486E2,1.22425964E2,5.312136E2,2.0275633E2,2.0840343E2,1.1517145E2,1.5720488E1,1.0670548E2,3.737363E1,4.9383997E2,1.2994028E2,7.281606E1,1.3494496E2,7.345846E1,9.961841E1,1.555304E1,4.1278652E1,6.542683E1,2.2333727E1,1.5039903E1,4.364384E1,4.5019614E2,1.060826E2,2.385767E1,1.8579758E1,5.4236305E1,4.2211887E1,9.273308E1,5.69688E1,1.6489662E1,3.803118E1,6.1587227E1,1.6002392E1,2.5276258E1,1.8969576E1,4.6457253E1,2.7322912E1,1.6320929E1,1.8825212E1,4.313709E2,1.6653595E1,8.942901E1,1.618125E1,3.8055058E1],"tree_param":{"num_deleted":"0","num_feature":"259","num_nodes":"47","size_leaf_vector":"1"}},{"base_weights":[1.7357199E-2,-8.1358343E-1,5.863576E-1,-1.0197248E0,-6.003983E-2,9.273408E-1,-1.724642E-1,-7.237615E-1,-1.6594679E0,2.4737516E-1,-3.6682215E-2,9.729222E-1,-7.279014E-3,-1.1765993E0,7.845291E-1,-8.4711736E-1,2.1585213E-2,-9.865804E-3,-1.8672684E0,5.6923246E-1,-2.2578603E-2,5.7436335E-1,1.0442679E0,5.1205397E-1,-2.126994E0,9.6650463E-1,-2.1472613E-3,-3.9993025E-2,-1.0112035E-2,-3.2521266E-2,-6.524905E-2,2.8218063E-2,1.6431441E-3,-2.1439767E-2,2.7954478E-2,1.23448735E-2,3.204887E-2,-6.8052677E-3,2.9535048E-2,-2.2559326E-2,-8.284519E-2,3.2251883E-2,1.006661E-2],"categories":[],"categories_nodes":[],"categories_segments":[],"categories_sizes":[],"default_left":[0,0,0,0,0,0,0,0,0,0,0,0,0,0,0,0,0,0,0,0,0,0,0,0,0,0,0,0,0,0,0,0,0,0,0,0,0,0,0,0,0,0,0],"id":17,"left_children":[1,3,5,7,9,11,13,15,17,19,-1,21,-1,23,25,27,-1,-1,29,31,-1,33,35,37,39,41,-1,-1,-1,-1,-1,-1,-1,-1,-1,-1,-1,-1,-1,-1,-1,-1,-1],"loss_changes":[5.64554E2,7.491968E1,1.8399649E2,6.893158E1,3.9019337E1,2.681009E1,2.1455609E2,4.8264465E1,3.087619E1,2.8420784E1,0E0,1.1737732E1,0E0,1.7745049E2,1.8216995E1,5.9169296E1,0E0,0E0,1.8855896E1,1.2262077E1,0E0,3.6762558E1,4.717346E0,1.488877E1,5.6031128E1,5.342346E0,0E0,0E0,0E0,0E0,0E0,0E0,0E0,0E0,0E0,0E0,0E0,0E0,0E0,0E0,0E0,0E0,0E0],"parents":[2147483647,0,0,1,1,2,2,3,3,4,4,5,5,6,6,7,7,8,8,9,9,11,11,13,13,14,14,15,15,18,18,19,19,21,21,22,22,23,23,24,24,25,25],"right_children":[2,4,6,8,10,12,14,16,18,20,-1,22,-1,24,26,28,-1,-1,30,32,-1,34,36,38,40,42,-1,-1,-1,-1,-1,-1,-1,-1,-1,-1,-1,-1,-1,-1,-1,-1,-1],"split_conditions":[3.6539907E0,1.4E-2,3E1,2.9E1,7.9E1,5.14E1,7.723E-1,1.7E1,-9.25E-1,1.5E0,-3.6682215E-2,2.01E2,-7.279014E-3,1.6E0,1.1729412E2,3.27E-2,2.1585213E-2,-9.865804E-3,2.1015406E-1,5.8357143E1,-2.2578603E-2,2.44E1,2E0,3.0316353E-1,-2.46E-2,1.94E1,-2.1472613E-3,-3.9993025E-2,-1.0112035E-2,-3.2521266E-2,-6.524905E-2,2.8218063E-2,1.6431441E-3,-2.1439767E-2,2.7954478E-2,1.23448735E-2,3.204887E-2,-6.8052677E-3,2.9535048E-2,-2.2559326E-2,-8.284519E-2,3.2251883E-2,1.006661E-2],"split_indices":[1,104,182,126,159,39,130,240,107,94,0,254,0,3,143,255,0,0,256,245,0,32,0,256,89,98,0,0,0,0,0,0,0,0,0,0,0,0,0,0,0,0,0],"split_type":[0,0,0,0,0,0,0,0,0,0,0,0,0,0,0,0,0,0,0,0,0,0,0,0,0,0,0,0,0,0,0,0,0,0,0,0,0,0,0,0,0,0,0],"sum_hessian":[1.1901775E3,4.8317914E2,7.069984E2,3.7852438E2,1.0465474E2,4.8776715E2,2.1923126E2,2.6203238E2,1.1649203E2,8.381163E1,2.0843113E1,4.7004767E2,1.7719482E1,1.0690969E2,1.1232156E2,2.4235252E2,1.9679846E1,1.6627853E1,9.9864174E1,6.428308E1,1.9528547E1,7.47541E1,3.9529355E2,3.8719677E1,6.819002E1,9.270788E1,1.9613688E1,1.2215025E2,1.2020227E2,3.0993551E1,6.887062E1,3.6032684E1,2.8250399E1,1.5613135E1,5.9140965E1,1.6244003E1,3.7904956E2,1.5259276E1,2.3460402E1,2.3060326E1,4.512969E1,7.7491806E1,1.5216071E1],"tree_param":{"num_deleted":"0","num_feature":"259","num_nodes":"43","size_leaf_vector":"1"}},{"base_weights":[3.8226977E-2,-8.1100214E-1,6.202689E-1,-5.709443E-1,-1.4467745E0,9.00539E-1,-1.6710304E-1,-3.7868223E-1,-1.3117287E0,-1.6887096E0,7.316088E-3,9.810046E-1,4.3430507E-2,-1.0893395E0,7.3828757E-1,-6.776069E-1,2.1741514E-1,-1.8510379E0,-5.2782845E-1,-1.6141284E-2,-1.8539941E0,1.6922448E-3,1.0152546E0,-5.5450387E-2,3.054245E-2,2.550178E-2,-1.9213659E0,3.0461093E-2,-5.2653467E-3,-1.3012074E-2,-4.644311E-2,-1.6027084E-2,2.1510944E-2,-6.738244E-2,-3.0187776E-2,1.49523E-2,-4.5083858E-2,-3.665444E-2,-6.336804E-2,1.188438E-2,3.1293686E-2,-2.2285083E-2,-7.789666E-2],"categories":[],"categories_nodes":[],"categories_segments":[],"categories_sizes":[],"default_left":[0,0,0,0,0,0,0,0,0,0,0,0,0,0,0,0,0,0,0,0,0,0,0,0,0,0,0,0,0,0,0,0,0,0,0,0,0,0,0,0,0,0,0],"id":18,"left_children":[1,3,5,7,9,11,13,15,17,19,-1,21,23,25,27,29,31,33,35,-1,37,-1,39,-1,-1,-1,41,-1,-1,-1,-1,-1,-1,-1,-1,-1,-1,-1,-1,-1,-1,-1,-1],"loss_changes":[6.0346826E2,7.349863E1,1.604242E2,5.0336395E1,5.6231354E1,3.6503845E1,1.617168E2,5.2480858E1,2.8559296E1,1.9726593E1,0E0,1.503833E1,9.261958E1,1.5833665E2,2.53516E1,3.9535606E1,3.7899666E1,8.765442E0,3.4947205E1,0E0,1.0511841E1,0E0,6.8641357E0,0E0,0E0,0E0,4.9116257E1,0E0,0E0,0E0,0E0,0E0,0E0,0E0,0E0,0E0,0E0,0E0,0E0,0E0,0E0,0E0,0E0],"parents":[2147483647,0,0,1,1,2,2,3,3,4,4,5,5,6,6,7,7,8,8,9,9,11,11,12,12,13,13,14,14,15,15,16,16,17,17,18,18,20,20,22,22,26,26],"right_children":[2,4,6,8,10,12,14,16,18,20,-1,22,24,26,28,30,32,34,36,-1,38,-1,40,-1,-1,-1,42,-1,-1,-1,-1,-1,-1,-1,-1,-1,-1,-1,-1,-1,-1,-1,-1],"split_conditions":[3.6539907E0,2.9E1,3.1E1,4.66E1,1E-2,2.36E1,7.723E-1,1.5E0,2E0,-9.25E-1,7.316088E-3,1.008E2,9.1E-3,3.1E1,2E0,2.2E0,-6.1E-3,4.24E1,-1E0,-1.6141284E-2,2.1667568E-1,1.6922448E-3,4.670994E0,-5.5450387E-2,3.054245E-2,2.550178E-2,5E-1,3.0461093E-2,-5.2653467E-3,-1.3012074E-2,-4.644311E-2,-1.6027084E-2,2.1510944E-2,-6.738244E-2,-3.0187776E-2,1.49523E-2,-4.5083858E-2,-3.665444E-2,-6.336804E-2,1.188438E-2,3.1293686E-2,-2.2285083E-2,-7.789666E-2],"split_indices":[1,126,182,28,104,98,130,238,251,107,0,154,66,197,9,81,66,133,72,0,256,0,1,0,0,0,47,0,0,0,0,0,0,0,0,0,0,0,0,0,0,0,0],"split_type":[0,0,0,0,0,0,0,0,0,0,0,0,0,0,0,0,0,0,0,0,0,0,0,0,0,0,0,0,0,0,0,0,0,0,0,0,0,0,0,0,0,0,0],"sum_hessian":[1.2169668E3,4.943632E2,7.226036E2,3.6196042E2,1.3240277E2,5.329796E2,1.8962396E2,2.9009656E2,7.186386E1,1.1598481E2,1.6417961E1,4.8665332E2,4.632631E1,9.390092E1,9.5723045E1,1.9336148E2,9.6735085E1,4.0734165E1,3.1129698E1,1.5864684E1,1.00120125E2,1.7885216E1,4.687681E2,1.5037741E1,3.1288567E1,2.8069302E1,6.583161E1,7.353251E1,2.2190536E1,1.5365573E2,3.970574E1,3.8330082E1,5.8405006E1,2.5252611E1,1.5481553E1,1.5492433E1,1.5637265E1,3.270085E1,6.741927E1,2.1966469E1,4.4680164E2,2.5669945E1,4.016167E1],"tree_param":{"num_deleted":"0","num_feature":"259","num_nodes":"43","size_leaf_vector":"1"}},{"base_weights":[6.3114553E-3,-7.5225246E-1,5.396077E-1,-9.196425E-1,4.1575247E-1,7.828353E-1,-3.9948267E-1,-1.7225083E0,-6.801505E-1,7.7090615E-1,-1.627459E-2,8.77994E-1,-7.128573E-1,-6.1443843E-2,1.5740764E-1,-1.9310138E0,-1.5387266E-2,-1.0259436E0,-1.7328177E-1,9.887483E-3,2.918986E-2,9.884787E-1,-2.7820972E-1,2.5583629E-2,-7.318815E-2,5.425806E-1,-5.5296876E-2,-3.4102783E-2,-6.21199E-2,-0E0,-3.729024E-2,5.534266E-3,-3.516477E-2,1.9646257E-2,3.158231E-2,2.934776E-2,-7.956061E-2,-3.0223284E-2,2.7289402E-2],"categories":[],"categories_nodes":[],"categories_segments":[],"categories_sizes":[],"default_left":[0,0,0,0,0,0,0,0,0,0,0,0,0,0,0,0,0,0,0,0,0,0,0,0,0,0,0,0,0,0,0,0,0,0,0,0,0,0,0],"id":19,"left_children":[1,3,5,7,9,11,13,15,17,19,-1,21,23,-1,25,27,-1,29,31,-1,-1,33,35,-1,-1,37,-1,-1,-1,-1,-1,-1,-1,-1,-1,-1,-1,-1,-1],"loss_changes":[4.8848425E2,9.834244E1,1.6276369E2,8.090445E1,2.2554775E1,8.162372E1,1.3617252E2,2.2189758E1,5.8869247E1,3.2013683E0,0E0,6.868063E1,9.837266E1,0E0,8.760979E1,3.5683594E0,0E0,4.4739426E1,5.0982155E1,0E0,0E0,8.527771E0,1.479565E2,0E0,0E0,5.6000336E1,0E0,0E0,0E0,0E0,0E0,0E0,0E0,0E0,0E0,0E0,0E0,0E0,0E0],"parents":[2147483647,0,0,1,1,2,2,3,3,4,4,5,5,6,6,7,7,8,8,9,9,11,11,12,12,14,14,15,15,17,17,18,18,21,21,22,22,25,25],"right_children":[2,4,6,8,10,12,14,16,18,20,-1,22,24,-1,26,28,-1,30,32,-1,-1,34,36,-1,-1,38,-1,-1,-1,-1,-1,-1,-1,-1,-1,-1,-1,-1,-1],"split_conditions":[2.4747474E-1,9.14898E-1,3.6E1,7.2765E-1,6.7E-1,2.17E0,-3.2222223E0,-3.8261537E-2,8.15E-3,3E-1,-1.627459E-2,1.12E1,1.2E1,-6.1443843E-2,2.05E1,1E0,-1.5387266E-2,1.087E-1,1.74E2,9.887483E-3,2.918986E-2,5.25E0,2.5E1,2.5583629E-2,-7.318815E-2,-1.9E-2,-5.5296876E-2,-3.4102783E-2,-6.21199E-2,-0E0,-3.729024E-2,5.534266E-3,-3.516477E-2,1.9646257E-2,3.158231E-2,2.934776E-2,-7.956061E-2,-3.0223284E-2,2.7289402E-2],"split_indices":[59,258,182,25,110,45,71,255,77,61,0,156,6,0,105,6,0,258,254,0,0,202,199,0,0,113,0,0,0,0,0,0,0,0,0,0,0,0,0],"split_type":[0,0,0,0,0,0,0,0,0,0,0,0,0,0,0,0,0,0,0,0,0,0,0,0,0,0,0,0,0,0,0,0,0,0,0,0,0,0,0],"sum_hessian":[1.2036583E3,4.963142E2,7.073441E2,4.346985E2,6.1615734E1,5.623466E2,1.4499745E2,9.6742966E1,3.379555E2,4.546794E1,1.614779E1,5.296743E2,3.267231E1,3.5395115E1,1.0960233E2,8.128976E1,1.5453208E1,1.9932982E2,1.3862569E2,1.6399937E1,2.9068005E1,4.839761E2,4.5698246E1,1.7575289E1,1.5097019E1,9.325579E1,1.6346544E1,1.5210227E1,6.607953E1,3.521999E1,1.6410983E2,1.0304827E2,3.5577415E1,8.254236E1,4.0143372E2,3.0567923E1,1.5130325E1,1.7031176E1,7.622462E1],"tree_param":{"num_deleted":"0","num_feature":"259","num_nodes":"39","size_leaf_vector":"1"}},{"base_weights":[6.574813E-4,-7.3364896E-1,5.5783E-1,-8.9256215E-1,3.8685057E-1,-2.4154705E-1,7.4202704E-1,-7.025039E-1,-5.5868972E-2,8.1314987E-1,-2.0716408E-2,-1.4991288E0,6.36402E-1,8.169379E-1,-4.5950595E-2,-8.9565396E-1,1.2435027E-1,1.2826927E-2,2.9382525E-2,-6.952159E-2,7.937535E-3,-2.12851E-2,3.150752E-2,9.242828E-1,-3.5162684E-1,-2.9875632E-2,9.593005E-3,2.2330347E-2,-3.9319023E-2,2.8936565E-2,-7.1286815E-3,2.9148443E-2,-7.975983E-2],"categories":[],"categories_nodes":[],"categories_segments":[],"categories_sizes":[],"default_left":[0,0,0,0,0,0,0,0,0,0,0,0,0,0,0,0,0,0,0,0,0,0,0,0,0,0,0,0,0,0,0,0,0],"id":20,"left_children":[1,3,5,7,9,11,13,15,-1,17,-1,19,21,23,-1,25,27,-1,-1,-1,-1,-1,-1,29,31,-1,-1,-1,-1,-1,-1,-1,-1],"loss_changes":[4.732818E2,8.967517E1,9.739841E1,7.729608E1,3.0153425E1,1.3955429E2,9.3513336E1,5.9464844E1,0E0,1.7117691E0,0E0,7.673326E1,4.311205E1,6.604297E1,0E0,3.738315E1,6.533139E1,0E0,0E0,0E0,0E0,0E0,0E0,2.299414E1,1.429169E2,0E0,0E0,0E0,0E0,0E0,0E0,0E0,0E0],"parents":[2147483647,0,0,1,1,2,2,3,3,4,4,5,5,6,6,7,7,9,9,11,11,12,12,13,13,15,15,16,16,23,23,24,24],"right_children":[2,4,6,8,10,12,14,16,-1,18,-1,20,22,24,-1,26,28,-1,-1,-1,-1,-1,-1,30,32,-1,-1,-1,-1,-1,-1,-1,-1],"split_conditions":[3.6539907E0,9.14898E-1,3E0,3.2E-2,6.7E-1,-2.5E0,5E0,2.43E-2,-5.5868972E-2,3E-1,-2.0716408E-2,-2.6666667E0,5.183221E-1,1.12E1,-4.5950595E-2,2.5E1,3.667277E-2,1.2826927E-2,2.9382525E-2,-6.952159E-2,7.937535E-3,-2.12851E-2,3.150752E-2,5.2E1,7.5E0,-2.9875632E-2,9.593005E-3,2.2330347E-2,-3.9319023E-2,2.8936565E-2,-7.1286815E-3,2.9148443E-2,-7.975983E-2],"split_indices":[1,258,0,111,110,209,243,76,0,61,0,85,233,156,0,183,255,0,0,0,0,0,0,39,230,0,0,0,0,0,0,0,0],"split_type":[0,0,0,0,0,0,0,0,0,0,0,0,0,0,0,0,0,0,0,0,0,0,0,0,0,0,0,0,0,0,0,0,0],"sum_hessian":[1.1529137E3,4.9688684E2,6.560269E2,4.3576035E2,6.11265E1,1.22434616E2,5.335923E2,3.6749365E2,6.826669E1,4.4348057E1,1.677844E1,4.9893448E1,7.254117E1,5.179413E2,1.565099E1,2.9806354E2,6.943013E1,1.6057367E1,2.829069E1,3.3768932E1,1.6124517E1,1.655331E1,5.598786E1,4.7498386E2,4.2957428E1,2.759242E2,2.2139326E1,4.9300957E1,2.0129173E1,4.5965115E2,1.5332698E1,2.7952448E1,1.5004981E1],"tree_param":{"num_deleted":"0","num_feature":"259","num_nodes":"33","size_leaf_vector":"1"}},{"base_weights":[-7.466256E-3,-5.3351146E-1,7.600513E-1,-7.4183667E-1,7.4826324E-1,8.7374026E-1,-6.381284E-1,-1.008019E0,-1.9637407E-1,9.093774E-1,-2.7666075E-4,9.7068393E-1,-2.4810934E-2,2.9109124E-2,-7.577715E-2,-1.2535836E0,1.3996729E-1,-4.283132E-1,3.0124737E-2,3.132231E-2,1.24403415E-2,1.0186114E0,-7.165276E-3,7.013254E-3,-4.1746087E-2,-3.634479E-2,1.7486991E-2,-2.3687802E-2,1.2743306E-2,3.171093E-2,6.597084E-3],"categories":[],"categories_nodes":[],"categories_segments":[],"categories_sizes":[],"default_left":[0,0,0,0,0,0,0,0,0,0,0,0,0,0,0,0,0,0,0,0,0,0,0,0,0,0,0,0,0,0,0],"id":21,"left_children":[1,3,5,7,9,11,13,15,17,19,-1,21,-1,-1,-1,23,25,27,-1,-1,-1,29,-1,-1,-1,-1,-1,-1,-1,-1,-1],"loss_changes":[4.7112708E2,1.8606865E2,7.6591E1,8.592767E1,1.2202187E1,7.41532E1,1.165878E2,1.1355426E2,5.600254E1,4.0843735E0,0E0,2.4900604E1,0E0,0E0,0E0,6.875903E1,4.440538E1,5.258936E1,0E0,0E0,0E0,1.1482849E1,0E0,0E0,0E0,0E0,0E0,0E0,0E0,0E0,0E0],"parents":[2147483647,0,0,1,1,2,2,3,3,4,4,5,5,6,6,7,7,8,8,9,9,11,11,15,15,16,16,17,17,21,21],"right_children":[2,4,6,8,10,12,14,16,18,20,-1,22,-1,-1,-1,24,26,28,-1,-1,-1,30,-1,-1,-1,-1,-1,-1,-1,-1,-1],"split_conditions":[6E1,2.5E1,1.12E1,8E0,4.858E-1,5E0,6E0,2.43E-2,6.923077E-1,6.5E0,-2.7666075E-4,5.16E1,-2.4810934E-2,2.9109124E-2,-7.577715E-2,7.117596E-2,2.666772E-1,8E0,3.0124737E-2,3.132231E-2,1.24403415E-2,3E0,-7.165276E-3,7.013254E-3,-4.1746087E-2,-3.634479E-2,1.7486991E-2,-2.3687802E-2,1.2743306E-2,3.171093E-2,6.597084E-3],"split_indices":[1,183,156,166,129,243,149,76,192,106,0,39,0,0,0,258,257,0,0,0,0,9,0,0,0,0,0,0,0,0,0],"split_type":[0,0,0,0,0,0,0,0,0,0,0,0,0,0,0,0,0,0,0,0,0,0,0,0,0,0,0,0,0,0,0],"sum_hessian":[1.163041E3,6.9066797E2,4.72373E2,5.950343E2,9.563365E1,4.3774384E2,3.4629143E1,3.9838092E2,1.966534E2,7.885624E1,1.677741E1,4.1511716E2,2.262667E1,1.9137022E1,1.5492121E1,3.2824396E2,7.013698E1,1.6609978E2,3.0553621E1,5.9757603E1,1.9098637E1,3.9983734E2,1.5279839E1,2.7558079E1,3.0068588E2,1.6288977E1,5.3848E1,1.1703602E2,4.906376E1,3.8051144E2,1.9325895E1],"tree_param":{"num_deleted":"0","num_feature":"259","num_nodes":"31","size_leaf_vector":"1"}},{"base_weights":[8.874199E-3,-6.7515975E-1,5.6083024E-1,-4.5801762E-1,-1.3230205E0,8.034115E-1,-7.416956E-2,-3.3565885E-1,-1.3687376E0,-7.4485694E-3,-1.5353979E0,1.2907651E-1,9.922963E-1,6.8246233E-1,-1.359943E0,-4.9915418E-1,4.022775E-1,-1.8888412E-2,-7.064765E-2,-1.7749947E0,-1.6380891E-2,8.460332E-1,-6.363906E-2,7.558827E-3,1.02703E0,9.5152545E-1,-2.2849055E-2,5.619026E-3,-1.890611E0,-2.0108E-2,9.578272E-3,2.384319E-2,-1.3055963E-2,-3.1863566E-2,-5.7481784E-2,-0E0,3.1185424E-2,1.7878111E-2,3.1660646E-2,3.1657256E-2,1.1204175E-2,-2.8231023E-2,-7.0059836E-2],"categories":[],"categories_nodes":[],"categories_segments":[],"categories_sizes":[],"default_left":[0,0,0,0,0,0,0,0,0,0,0,0,0,0,0,0,0,0,0,0,0,0,0,0,0,0,0,0,0,0,0,0,0,0,0,0,0,0,0,0,0,0,0],"id":22,"left_children":[1,3,5,7,9,11,13,15,17,-1,19,21,23,25,27,29,31,-1,-1,33,-1,35,-1,-1,37,39,-1,-1,41,-1,-1,-1,-1,-1,-1,-1,-1,-1,-1,-1,-1,-1,-1],"loss_changes":[4.323719E2,7.017029E1,9.800711E1,4.1615868E1,2.7672943E1,5.790921E1,1.7401656E2,4.1870926E1,2.8803482E1,0E0,2.2341476E1,1.6962822E2,8.308502E0,4.520263E1,5.565303E1,4.008235E1,2.153183E1,0E0,0E0,3.4522705E0,0E0,1.2856903E1,0E0,0E0,2.4113464E0,4.5303802E0,0E0,0E0,1.5605408E1,0E0,0E0,0E0,0E0,0E0,0E0,0E0,0E0,0E0,0E0,0E0,0E0,0E0,0E0],"parents":[2147483647,0,0,1,1,2,2,3,3,4,4,5,5,6,6,7,7,8,8,10,10,11,11,12,12,13,13,14,14,15,15,16,16,19,19,21,21,24,24,25,25,28,28],"right_children":[2,4,6,8,10,12,14,16,18,-1,20,22,24,26,28,30,32,-1,-1,34,-1,36,-1,-1,38,40,-1,-1,42,-1,-1,-1,-1,-1,-1,-1,-1,-1,-1,-1,-1,-1,-1],"split_conditions":[3.6539907E0,2.96E1,3E1,3.28E0,4.48E1,4.468E-1,4.759E-1,7E0,9.603572E-2,-7.4485694E-3,1.5E0,1.3E0,4.670994E0,3.06E-2,1.15E0,5.5E-1,3.75E-1,-1.8888412E-2,-7.064765E-2,-1.4E1,-1.6380891E-2,-3.9E0,-6.363906E-2,7.558827E-3,1.1833333E1,2E0,-2.2849055E-2,5.619026E-3,2E-3,-2.0108E-2,9.578272E-3,2.384319E-2,-1.3055963E-2,-3.1863566E-2,-5.7481784E-2,-0E0,3.1185424E-2,1.7878111E-2,3.1660646E-2,3.1657256E-2,1.1204175E-2,-2.8231023E-2,-7.0059836E-2],"split_indices":[1,148,182,110,133,151,140,235,255,0,238,82,1,65,3,192,103,0,0,235,0,3,0,0,146,9,0,0,104,0,0,0,0,0,0,0,0,0,0,0,0,0,0],"split_type":[0,0,0,0,0,0,0,0,0,0,0,0,0,0,0,0,0,0,0,0,0,0,0,0,0,0,0,0,0,0,0,0,0,0,0,0,0,0,0,0,0,0,0],"sum_hessian":[1.141269E3,5.0921442E2,6.320546E2,3.842898E2,1.2492464E2,4.5729993E2,1.7475471E2,3.414775E2,4.281229E1,2.1561836E1,1.033628E2,1.0114797E2,3.5615195E2,1.1045878E2,6.4295944E1,2.804053E2,6.1072193E1,2.6518393E1,1.6293898E1,8.168875E1,2.1674055E1,7.775661E1,2.3391365E1,1.7087317E1,3.3906464E2,9.3860664E1,1.6598116E1,1.6606354E1,4.7689587E1,2.3252E2,4.78853E1,4.189683E1,1.9175362E1,1.6663656E1,6.502509E1,1.5028555E1,6.272805E1,2.4275312E1,3.1478934E2,7.77419E1,1.6118763E1,1.7413734E1,3.0275852E1],"tree_param":{"num_deleted":"0","num_feature":"259","num_nodes":"43","size_leaf_vector":"1"}},{"base_weights":[-4.8785523E-2,-6.4291793E-1,4.5933357E-1,-9.330694E-1,5.763117E-1,-2.5051698E-1,7.367161E-1,-7.694786E-1,-2.193479E0,1.445055E-1,8.9927685E-1,-2.9605546E-3,-6.3178025E-2,-9.4173527E-1,8.8841504E-1,-9.0586734E-1,5.798497E-1,-3.364715E-2,-7.930846E-2,1.7189668E-2,-1.39201E-2,1.5954815E-2,3.0204173E-2,2.6930508E-1,-3.529754E-2,-6.566908E-2,3.3013963E-3,9.697496E-1,-3.1596985E-2,-3.3854477E-2,-6.0187792E-3,2.9629668E-2,4.700718E-3,1.4886731E-2,-1.8647637E-2,-6.7018165E-4,3.1217912E-2],"categories":[],"categories_nodes":[],"categories_segments":[],"categories_sizes":[],"default_left":[0,0,0,0,0,0,0,0,0,0,0,0,0,0,0,0,0,0,0,0,0,0,0,0,0,0,0,0,0,0,0,0,0,0,0,0,0],"id":23,"left_children":[1,3,5,7,9,11,13,15,17,19,21,23,-1,25,27,29,31,-1,-1,-1,-1,-1,-1,33,-1,-1,-1,35,-1,-1,-1,-1,-1,-1,-1,-1,-1],"loss_changes":[3.4389377E2,1.8699274E2,1.21363495E2,8.341547E1,1.365255E1,7.9109055E1,1.142296E2,7.102124E1,1.5888428E1,1.2670021E1,7.4248886E-1,5.054312E1,0E0,5.0237957E1,6.6239746E1,5.3438843E1,5.537448E0,0E0,0E0,0E0,0E0,0E0,0E0,2.6356743E1,0E0,0E0,0E0,2.786969E1,0E0,0E0,0E0,0E0,0E0,0E0,0E0,0E0,0E0],"parents":[2147483647,0,0,1,1,2,2,3,3,4,4,5,5,6,6,7,7,8,8,9,9,10,10,11,11,13,13,14,14,15,15,16,16,23,23,27,27],"right_children":[2,4,6,8,10,12,14,16,18,20,22,24,-1,26,28,30,32,-1,-1,-1,-1,-1,-1,34,-1,-1,-1,36,-1,-1,-1,-1,-1,-1,-1,-1,-1],"split_conditions":[1.3043478E-1,2.4E1,1E0,1E0,8E0,6.03E-1,1.5E1,6.5625E0,4.275E1,-1.6E0,1.2833333E1,4.6636364E1,-6.3178025E-2,4.04E1,1.209E2,4.8195E-1,-1.05E-1,-3.364715E-2,-7.930846E-2,1.7189668E-2,-1.39201E-2,1.5954815E-2,3.0204173E-2,2.88E1,-3.529754E-2,-6.566908E-2,3.3013963E-3,4.5E0,-3.1596985E-2,-3.3854477E-2,-6.0187792E-3,2.9629668E-2,4.700718E-3,1.4886731E-2,-1.8647637E-2,-6.7018165E-4,3.1217912E-2],"split_indices":[223,183,179,225,0,56,183,201,155,85,19,28,0,155,27,140,255,0,0,0,0,0,0,10,0,0,0,232,0,0,0,0,0,0,0,0,0],"split_type":[0,0,0,0,0,0,0,0,0,0,0,0,0,0,0,0,0,0,0,0,0,0,0,0,0,0,0,0,0,0,0,0,0,0,0,0,0],"sum_hessian":[1.1349972E3,5.232419E2,6.117553E2,4.2323593E2,1.0000595E2,1.7163521E2,4.401201E2,3.7767575E2,4.556018E1,4.4428524E1,5.5577427E1,1.533408E2,1.8294401E1,3.5453743E1,4.0466635E2,3.4380405E2,3.3871708E1,1.5736542E1,2.9823637E1,2.6428537E1,1.7999989E1,1.5905751E1,3.9671673E1,1.2550964E2,2.7831163E1,1.5361019E1,2.0092726E1,3.8950577E2,1.516057E1,2.600815E2,8.372255E1,1.5529089E1,1.834262E1,1.0100533E2,2.4504313E1,2.57706E1,3.6373517E2],"tree_param":{"num_deleted":"0","num_feature":"259","num_nodes":"37","size_leaf_vector":"1"}},{"base_weights":[2.4276497E-2,-6.469799E-1,5.6747144E-1,-8.9806837E-1,-2.9023243E-2,7.947273E-1,-3.3200136E-1,-2.2900411E-1,-1.2755705E0,2.1016796E-1,-5.040295E-2,8.8809985E-1,-3.3328775E-2,3.3795187E-1,-1.9180233E0,-8.1563365E-1,3.6825526E-1,-3.1342444E-1,-1.4603517E0,-2.814813E-2,3.919334E-1,9.799078E-1,-1.4091113E-2,2.9645365E-2,-4.4827554E-2,-7.779815E-2,-2.9821392E-2,-2.559368E-3,-3.9535344E-2,2.5217662E-2,-1.29835205E-2,2.406808E-2,-4.7471475E-2,-1.8912615E-2,-4.8113227E-2,-2.6226586E-3,2.7081449E-2,7.864662E-3,3.0150443E-2],"categories":[],"categories_nodes":[],"categories_segments":[],"categories_sizes":[],"default_left":[0,0,0,0,0,0,0,0,0,0,0,0,0,0,0,0,0,0,0,0,0,0,0,0,0,0,0,0,0,0,0,0,0,0,0,0,0,0,0],"id":24,"left_children":[1,3,5,7,9,11,13,15,17,19,-1,21,-1,23,25,27,29,31,33,-1,35,37,-1,-1,-1,-1,-1,-1,-1,-1,-1,-1,-1,-1,-1,-1,-1,-1,-1],"loss_changes":[4.187158E2,7.933699E1,1.3045853E2,9.1074585E1,6.0685432E1,9.225391E1,1.390664E2,4.7778732E1,3.987326E1,2.8397774E1,0E0,6.1568573E1,0E0,1.1289124E2,1.7978836E1,2.4519672E1,2.6448154E1,5.9761932E1,2.0419342E1,0E0,2.8981487E1,7.2996826E0,0E0,0E0,0E0,0E0,0E0,0E0,0E0,0E0,0E0,0E0,0E0,0E0,0E0,0E0,0E0,0E0,0E0],"parents":[2147483647,0,0,1,1,2,2,3,3,4,4,5,5,6,6,7,7,8,8,9,9,11,11,13,13,14,14,15,15,16,16,17,17,18,18,20,20,21,21],"right_children":[2,4,6,8,10,12,14,16,18,20,-1,22,-1,24,26,28,30,32,34,-1,36,38,-1,-1,-1,-1,-1,-1,-1,-1,-1,-1,-1,-1,-1,-1,-1,-1,-1],"split_conditions":[3.6539907E0,7.187E-1,3.6E1,-2.0412415E-1,3.21E0,5E0,5.1282054E-1,1.1E0,2.4142857E1,3.27E-2,-5.040295E-2,6.8E0,-3.3328775E-2,4.7835E-1,7.776E-1,-6E-3,4.78E-1,3.667277E-2,-2.07E-2,-2.814813E-2,1.19E-2,4.472136E0,-1.4091113E-2,2.9645365E-2,-4.4827554E-2,-7.779815E-2,-2.9821392E-2,-2.559368E-3,-3.9535344E-2,2.5217662E-2,-1.29835205E-2,2.406808E-2,-4.7471475E-2,-1.8912615E-2,-4.8113227E-2,-2.6226586E-3,2.7081449E-2,7.864662E-3,3.0150443E-2],"split_indices":[1,258,182,237,110,243,219,102,126,255,0,138,0,140,36,113,13,255,65,0,77,1,0,0,0,0,0,0,0,0,0,0,0,0,0,0,0,0,0],"split_type":[0,0,0,0,0,0,0,0,0,0,0,0,0,0,0,0,0,0,0,0,0,0,0,0,0,0,0,0,0,0,0,0,0,0,0,0,0,0,0],"sum_hessian":[1.1444039E3,5.1144644E2,6.3295746E2,3.6268716E2,1.4875926E2,5.057451E2,1.2721239E2,1.3226889E2,2.3041829E2,1.3130136E2,1.7457907E1,4.8329077E2,2.245432E1,9.0407814E1,3.6804573E1,6.661274E1,6.565615E1,3.8252975E1,1.9216531E2,1.6578686E1,1.1472267E2,4.5341095E2,2.9879826E1,6.7528E1,2.2879814E1,1.8989187E1,1.7815388E1,2.8338976E1,3.8273766E1,4.1475723E1,2.418043E1,2.0621374E1,1.7631601E1,3.0213623E1,1.6195169E2,5.9734104E1,5.4988564E1,1.6501526E1,4.3690942E2],"tree_param":{"num_deleted":"0","num_feature":"259","num_nodes":"39","size_leaf_vector":"1"}},{"base_weights":[-4.3659322E-2,-4.9126992E-1,6.68178E-1,-6.8538374E-1,7.0186615E-1,8.1925744E-1,-1.2328194E0,-5.7024646E-1,-1.993357E0,-0E0,9.123863E-1,-6.662558E-1,9.5632035E-1,7.628804E-3,-7.889967E-2,-1.2981108E0,-3.841013E-1,-8.280799E-2,-3.7197933E-2,1.4070551E-2,3.202756E-2,-6.8526365E-2,2.8506743E-2,1.0232213E0,-1.2744947E-3,-5.139276E-2,5.0727255E-3,-2.669886E-3,-2.5959926E-2,1.8156562E-2,3.181422E-2],"categories":[],"categories_nodes":[],"categories_segments":[],"categories_sizes":[],"default_left":[0,0,0,0,0,0,0,0,0,0,0,0,0,0,0,0,0,0,0,0,0,0,0,0,0,0,0,0,0,0,0],"id":25,"left_children":[1,3,5,7,9,11,13,15,17,-1,19,21,23,-1,-1,25,27,-1,-1,-1,-1,-1,-1,29,-1,-1,-1,-1,-1,-1,-1],"loss_changes":[3.58806E2,1.6113803E2,1.26712494E2,8.6723114E1,1.4621593E1,8.360849E1,6.988541E1,7.313252E1,1.9234879E1,0E0,3.7183075E0,9.658414E1,2.51604E1,0E0,0E0,6.8636536E1,6.2306442E1,0E0,0E0,0E0,0E0,0E0,0E0,3.6342468E0,0E0,0E0,0E0,0E0,0E0,0E0,0E0],"parents":[2147483647,0,0,1,1,2,2,3,3,4,4,5,5,6,6,7,7,8,8,10,10,11,11,12,12,15,15,16,16,23,23],"right_children":[2,4,6,8,10,12,14,16,18,-1,20,22,24,-1,-1,26,28,-1,-1,-1,-1,-1,-1,30,-1,-1,-1,-1,-1,-1,-1],"split_conditions":[2.7272728E1,2.5E1,5E0,3.6E1,-3.4E0,-7.6E0,4.64E1,7.2765E-1,5.249996E-1,-0E0,3E0,6E0,4E0,7.628804E-3,-7.889967E-2,3.27E-2,5E-1,-8.280799E-2,-3.7197933E-2,1.4070551E-2,3.202756E-2,-6.8526365E-2,2.8506743E-2,3.6923078E-1,-1.2744947E-3,-5.139276E-2,5.0727255E-3,-2.669886E-3,-2.5959926E-2,1.8156562E-2,3.181422E-2],"split_indices":[59,183,243,197,102,50,39,25,258,0,227,7,125,0,0,255,83,0,0,0,0,0,0,219,0,0,0,0,0,0,0],"split_type":[0,0,0,0,0,0,0,0,0,0,0,0,0,0,0,0,0,0,0,0,0,0,0,0,0,0,0,0,0,0,0],"sum_hessian":[1.1222102E3,6.896147E2,4.3259558E2,5.940672E2,9.55475E1,4.019472E2,3.0648373E1,5.488544E2,4.5212822E1,2.2257517E1,7.328998E1,3.311627E1,3.6883093E2,1.5534791E1,1.5113582E1,1.090171E2,4.3983725E2,1.9568596E1,2.5644224E1,2.1589842E1,5.1700138E1,1.6230442E1,1.6885826E1,3.459128E2,2.2918135E1,8.487926E1,2.4137844E1,2.7449908E2,1.6533818E2,3.1786907E1,3.1412592E2],"tree_param":{"num_deleted":"0","num_feature":"259","num_nodes":"31","size_leaf_vector":"1"}},{"base_weights":[5.2187517E-3,-6.127906E-1,5.447952E-1,-7.491691E-1,3.8843974E-1,6.528955E-1,-1.1703628E0,-5.059574E-1,-1.3152319E0,-1.5868735E-2,7.543229E-1,9.1433555E-1,8.158693E-2,1.7212227E-2,-8.8477775E-2,-1.0299349E0,-2.8725818E-1,-3.2236048E-3,-1.537994E0,1.1645157E-2,2.8752599E-2,3.2686975E-3,9.7203505E-1,-8.698138E-1,8.0755216E-1,-3.859989E-2,4.398641E-3,-2.164409E-2,-1.3659812E-3,-2.2134313E-2,-5.145397E-2,3.0531298E-2,-4.827761E-4,-4.769919E-2,2.9053312E-2,-9.792253E-3,3.0944701E-2],"categories":[],"categories_nodes":[],"categories_segments":[],"categories_sizes":[],"default_left":[0,0,0,0,0,0,0,0,0,0,0,0,0,0,0,0,0,0,0,0,0,0,0,0,0,0,0,0,0,0,0,0,0,0,0,0,0],"id":26,"left_children":[1,3,5,7,9,11,13,15,17,-1,19,21,23,-1,-1,25,27,-1,29,-1,-1,-1,31,33,35,-1,-1,-1,-1,-1,-1,-1,-1,-1,-1,-1,-1],"loss_changes":[3.7056946E2,7.1389435E1,1.11425644E2,6.0990204E1,2.2053915E1,8.316879E1,1.1499544E2,3.6030144E1,3.566246E1,0E0,2.30336E0,1.7285614E1,1.24543106E2,0E0,0E0,2.9096252E1,2.3958633E1,0E0,1.2911285E1,0E0,0E0,0E0,1.6457855E1,1.0646909E2,2.6876389E1,0E0,0E0,0E0,0E0,0E0,0E0,0E0,0E0,0E0,0E0,0E0,0E0],"parents":[2147483647,0,0,1,1,2,2,3,3,4,4,5,5,6,6,7,7,8,8,10,10,11,11,12,12,15,15,16,16,18,18,22,22,23,23,24,24],"right_children":[2,4,6,8,10,12,14,16,18,-1,20,22,24,-1,-1,26,28,-1,30,-1,-1,-1,32,34,36,-1,-1,-1,-1,-1,-1,-1,-1,-1,-1,-1,-1],"split_conditions":[3.6539907E0,9.14898E-1,5E0,4.585E1,6E-1,5.75E0,8.25E0,-4.4E0,-8E-1,-1.5868735E-2,4.34E1,3.3075E-1,-3.4632035E-2,1.7212227E-2,-8.8477775E-2,1.9E-2,4.739777E0,-3.2236048E-3,-5E0,1.1645157E-2,2.8752599E-2,3.2686975E-3,4.3E1,1.6E2,1.1666667E1,-3.859989E-2,4.398641E-3,-2.164409E-2,-1.3659812E-3,-2.2134313E-2,-5.145397E-2,3.0531298E-2,-4.827761E-4,-4.769919E-2,2.9053312E-2,-9.792253E-3,3.0944701E-2],"split_indices":[1,258,243,144,108,149,156,92,93,0,155,139,206,0,0,77,248,0,238,0,0,0,227,1,41,0,0,0,0,0,0,0,0,0,0,0,0],"split_type":[0,0,0,0,0,0,0,0,0,0,0,0,0,0,0,0,0,0,0,0,0,0,0,0,0,0,0,0,0,0,0,0,0,0,0,0,0],"sum_hessian":[1.107334E3,5.1576733E2,5.9156665E2,4.546431E2,6.1124218E1,5.578227E2,3.3743977E1,3.21029E2,1.3361409E2,1.693953E1,4.418469E1,3.8151108E2,1.7631161E2,1.7637623E1,1.6106354E1,9.194624E1,2.2908276E2,2.1477606E1,1.12136475E2,1.8417429E1,2.576726E1,2.6238993E1,3.552721E2,7.595743E1,1.0035418E2,7.5532616E1,1.641363E1,8.00602E1,1.4902255E2,2.2503908E1,8.963257E1,3.3980862E2,1.54634695E1,5.4887802E1,2.1069624E1,1.6178059E1,8.4176125E1],"tree_param":{"num_deleted":"0","num_feature":"259","num_nodes":"37","size_leaf_vector":"1"}},{"base_weights":[-3.4224316E-2,-5.890711E-1,4.511506E-1,-7.17131E-1,3.8656774E-1,7.7442265E-1,-2.2553493E-1,-5.508152E-1,-1.577657E0,-1.579659E-2,7.7072763E-1,1.4563788E-1,9.636357E-1,-1.0634032E0,8.017744E-1,-6.5108836E-3,-7.2108537E-1,-5.231435E-2,-2.4094848E-2,1.0713703E-2,2.9557988E-2,6.587485E-1,-6.1188117E-2,8.465294E-3,1.0015641E0,2.249146E-2,-1.7334138E0,2.949124E-2,-7.906634E-4,1.361676E-2,-2.4611223E-2,-1.6510857E-2,-4.304188E-2,3.0703213E-2,-2.2288911E-2,1.4334502E-2,3.1024871E-2,-1.4363486E-2,-6.760183E-2],"categories":[],"categories_nodes":[],"categories_segments":[],"categories_sizes":[],"default_left":[0,0,0,0,0,0,0,0,0,0,0,0,0,0,0,0,0,0,0,0,0,0,0,0,0,0,0,0,0,0,0,0,0,0,0,0,0,0,0],"id":27,"left_children":[1,3,5,7,9,11,13,15,17,-1,19,21,23,25,27,29,31,-1,-1,-1,-1,33,-1,-1,35,-1,37,-1,-1,-1,-1,-1,-1,-1,-1,-1,-1,-1,-1],"loss_changes":[3.0168655E2,6.598094E1,1.311601E2,6.391243E1,2.2526583E1,4.755986E1,1.690488E2,3.6057846E1,5.913086E0,0E0,2.8394375E0,1.1034367E2,7.075592E0,1.3415613E2,1.3589764E1,3.6725155E1,3.4106598E1,0E0,0E0,0E0,0E0,4.2335514E1,0E0,0E0,3.5597534E0,0E0,4.896611E1,0E0,0E0,0E0,0E0,0E0,0E0,0E0,0E0,0E0,0E0,0E0,0E0],"parents":[2147483647,0,0,1,1,2,2,3,3,4,4,5,5,6,6,7,7,8,8,10,10,11,11,12,12,13,13,14,14,15,15,16,16,21,21,24,24,26,26],"right_children":[2,4,6,8,10,12,14,16,18,-1,20,22,24,26,28,30,32,-1,-1,-1,-1,34,-1,-1,36,-1,38,-1,-1,-1,-1,-1,-1,-1,-1,-1,-1,-1,-1],"split_conditions":[3.6539907E0,9.14898E-1,3E1,3.2E-2,6E-1,4.468E-1,7.723E-1,-5.760823E-2,4.428571E0,-1.579659E-2,3E-1,1.65E0,4.670994E0,5.76E-1,5.070422E-1,1.159E2,1E0,-5.231435E-2,-2.4094848E-2,1.0713703E-2,2.9557988E-2,8.21E-1,-6.1188117E-2,8.465294E-3,1.1833333E1,2.249146E-2,1.9923714E-1,2.949124E-2,-7.906634E-4,1.361676E-2,-2.4611223E-2,-1.6510857E-2,-4.304188E-2,3.0703213E-2,-2.2288911E-2,1.4334502E-2,3.1024871E-2,-1.4363486E-2,-6.760183E-2],"split_indices":[1,258,182,111,108,151,130,239,127,0,61,82,1,172,219,48,179,0,0,0,0,152,0,0,146,0,258,0,0,0,0,0,0,0,0,0,0,0,0],"split_type":[0,0,0,0,0,0,0,0,0,0,0,0,0,0,0,0,0,0,0,0,0,0,0,0,0,0,0,0,0,0,0,0,0,0,0,0,0,0,0],"sum_hessian":[1.1160985E3,5.2086865E2,5.9522986E2,4.6117355E2,5.969509E1,4.029051E2,1.9232481E2,3.895191E2,7.1654434E1,1.7226553E1,4.246854E1,9.43824E1,3.0852267E2,1.0605149E2,8.6273315E1,9.372994E1,2.9578915E2,5.661765E1,1.5036782E1,1.6802656E1,2.5665882E1,7.767753E1,1.6704868E1,1.7573278E1,2.909494E2,2.843034E1,7.7621155E1,7.077067E1,1.5502651E1,6.0194096E1,3.3535847E1,2.4188611E2,5.390306E1,6.2238354E1,1.54391775E1,1.9421848E1,2.7152756E2,2.4038507E1,5.3582645E1],"tree_param":{"num_deleted":"0","num_feature":"259","num_nodes":"39","size_leaf_vector":"1"}},{"base_weights":[1.8485872E-2,-5.743459E-1,5.5741346E-1,-6.998855E-1,4.0858495E-1,8.5462385E-1,-1.6880044E-1,-4.6383083E-1,-1.2708393E0,-1.4421842E-2,7.4912745E-1,9.765029E-1,2.4008313E-1,9.248183E-1,-9.755735E-1,-0E0,-7.0707136E-1,-1.4780061E0,-7.0001218E-3,2.7998077E-2,1.0561588E-2,1.0243183E0,9.465174E-3,-4.3460105E-2,8.7967044E-1,1.3657004E-2,3.0850986E-2,-2.4580772E0,2.3357494E-1,1.4824461E-2,-2.1723686E-2,-3.1519856E-2,-5.737293E-3,-5.2766148E-2,-2.704063E-2,7.3829573E-3,3.1952508E-2,1.4033215E-2,3.0357005E-2,-3.819698E-2,-9.937321E-2,2.893049E-2,-4.555827E-2],"categories":[],"categories_nodes":[],"categories_segments":[],"categories_sizes":[],"default_left":[0,0,0,0,0,0,0,0,0,0,0,0,0,0,0,0,0,0,0,0,0,0,0,0,0,0,0,0,0,0,0,0,0,0,0,0,0,0,0,0,0,0,0],"id":28,"left_children":[1,3,5,7,9,11,13,15,17,-1,19,21,23,25,27,29,31,33,-1,-1,-1,35,-1,-1,37,-1,-1,39,41,-1,-1,-1,-1,-1,-1,-1,-1,-1,-1,-1,-1,-1,-1],"loss_changes":[3.50096E2,6.5019394E1,1.2443434E2,6.0770554E1,1.8990637E1,2.9731903E1,1.5016716E2,3.7376617E1,2.7610596E1,0E0,2.2078972E0,9.68161E0,7.8632454E1,2.1316376E0,1.7728802E2,4.2250557E1,3.775453E1,1.4029755E1,0E0,0E0,0E0,9.08432E0,0E0,0E0,1.4731369E0,0E0,0E0,3.4991943E1,7.399427E1,0E0,0E0,0E0,0E0,0E0,0E0,0E0,0E0,0E0,0E0,0E0,0E0,0E0,0E0],"parents":[2147483647,0,0,1,1,2,2,3,3,4,4,5,5,6,6,7,7,8,8,10,10,11,11,12,12,13,13,14,14,15,15,16,16,17,17,21,21,24,24,27,27,28,28],"right_children":[2,4,6,8,10,12,14,16,18,-1,20,22,24,26,28,30,32,34,-1,-1,-1,36,-1,-1,38,-1,-1,40,42,-1,-1,-1,-1,-1,-1,-1,-1,-1,-1,-1,-1,-1,-1],"split_conditions":[3.6539907E0,9.14898E-1,3.6E1,2.9E1,5.870265E-1,2.6E0,1.5729062E-1,4.72E-1,1E0,-1.4421842E-2,8.909091E0,7E0,-3.7E0,-1E0,7.567E-1,3.27E-2,-3.1662546E-2,1.128E2,-7.0001218E-3,2.7998077E-2,1.0561588E-2,4.819316E0,9.465174E-3,-4.3460105E-2,5.1360357E-1,1.3657004E-2,3.0850986E-2,1.79E0,9.8E0,1.4824461E-2,-2.1723686E-2,-3.1519856E-2,-5.737293E-3,-5.2766148E-2,-2.704063E-2,7.3829573E-3,3.1952508E-2,1.4033215E-2,3.0357005E-2,-3.819698E-2,-9.937321E-2,2.893049E-2,-4.555827E-2],"split_indices":[1,258,197,148,257,72,258,163,102,0,145,252,102,250,258,255,255,16,0,0,0,1,0,0,203,0,0,161,15,0,0,0,0,0,0,0,0,0,0,0,0,0,0],"split_type":[0,0,0,0,0,0,0,0,0,0,0,0,0,0,0,0,0,0,0,0,0,0,0,0,0,0,0,0,0,0,0,0,0,0,0,0,0,0,0,0,0,0,0],"sum_hessian":[1.0917966E3,5.1957025E2,5.722264E2,4.6150775E2,5.8062504E1,4.0608957E2,1.6613681E2,3.2945032E2,1.3205745E2,1.5605392E1,4.2457108E1,3.3749048E2,6.8599106E1,7.024794E1,9.588887E1,1.14059494E2,2.1539082E2,1.0912852E2,2.2928934E1,2.6644548E1,1.581256E1,3.1327545E2,2.4215008E1,1.802011E1,5.0579E1,1.5165059E1,5.5082886E1,4.2258812E1,5.363006E1,6.815146E1,4.590804E1,1.27685135E2,8.770569E1,7.027813E1,3.8850388E1,1.6660229E1,2.9661523E2,1.5048081E1,3.5530914E1,1.9938908E1,2.2319906E1,3.8601284E1,1.5028773E1],"tree_param":{"num_deleted":"0","num_feature":"259","num_nodes":"43","size_leaf_vector":"1"}},{"base_weights":[-2.8226132E-2,-4.3193468E-1,6.5452516E-1,-8.2497704E-1,-1.4306752E-1,-4.0541977E-2,8.022466E-1,-9.2980474E-1,2.2555605E-2,1.063404E-1,-1.0230662E0,-4.730787E-1,9.198059E-1,-1.0689431E0,1.4605227E-2,-1.8140808E-1,6.816571E-1,-1.6302911E0,7.92564E-3,-5.745075E-2,2.8376052E-2,-8.860125E-3,9.913294E-1,-4.284459E-2,-2.0176813E-2,2.7503805E-2,-3.3178322E-2,8.2497625E-4,-2.588102E-2,2.6477637E-2,-1.3339339E-2,-5.969971E-2,-3.38611E-2,1.3913834E-2,3.155426E-2],"categories":[],"categories_nodes":[],"categories_segments":[],"categories_sizes":[],"default_left":[0,0,0,0,0,0,0,0,0,0,0,0,0,0,0,0,0,0,0,0,0,0,0,0,0,0,0,0,0,0,0,0,0,0,0],"id":29,"left_children":[1,3,5,7,9,-1,11,13,-1,15,17,19,21,23,25,27,29,31,-1,-1,-1,-1,33,-1,-1,-1,-1,-1,-1,-1,-1,-1,-1,-1,-1],"loss_changes":[3.063548E2,7.881395E1,1.2433708E2,5.0241074E1,8.9522156E1,0E0,5.8864136E1,3.6856552E1,0E0,5.2976448E1,7.164504E1,7.28184E1,3.1582214E1,3.1972046E1,3.975363E1,3.0606434E1,2.5054295E1,5.688263E0,0E0,0E0,0E0,0E0,9.2656555E0,0E0,0E0,0E0,0E0,0E0,0E0,0E0,0E0,0E0,0E0,0E0,0E0],"parents":[2147483647,0,0,1,1,2,2,3,3,4,4,6,6,7,7,9,9,10,10,11,11,12,12,13,13,14,14,15,15,16,16,17,17,22,22],"right_children":[2,4,6,8,10,-1,12,14,-1,16,18,20,22,24,26,28,30,32,-1,-1,-1,-1,34,-1,-1,-1,-1,-1,-1,-1,-1,-1,-1,-1,-1],"split_conditions":[6E1,8.1199795E-1,1E0,7E0,3.1E1,-4.0541977E-2,-7.6E0,1.31E1,2.2555605E-2,3.6539907E0,-6E-2,-6.66E0,6.5E-2,-7.7117324E-2,-5.7731688E-2,2.73E0,1.5E0,4.24E1,7.92564E-3,-5.745075E-2,2.8376052E-2,-8.860125E-3,3.8372093E-1,-4.284459E-2,-2.0176813E-2,2.7503805E-2,-3.3178322E-2,8.2497625E-4,-2.588102E-2,2.6477637E-2,-1.3339339E-2,-5.969971E-2,-3.38611E-2,1.3913834E-2,3.155426E-2],"split_indices":[1,1,179,235,182,0,50,68,0,1,97,61,256,255,255,110,208,28,0,0,0,0,219,0,0,0,0,0,0,0,0,0,0,0,0],"split_type":[0,0,0,0,0,0,0,0,0,0,0,0,0,0,0,0,0,0,0,0,0,0,0,0,0,0,0,0,0,0,0,0,0,0,0],"sum_hessian":[1.1076519E3,6.968065E2,4.1084528E2,2.9316547E2,4.0364108E2,2.6923313E1,3.8392194E2,2.7583862E2,1.7326836E1,3.1560904E2,8.803204E1,3.167712E1,3.5224484E2,2.404652E2,3.5373425E1,2.1094926E2,1.04659775E2,5.9611923E1,2.8420122E1,1.5469295E1,1.6207825E1,1.8999596E1,3.3324524E2,1.2301962E2,1.1744558E2,1.9945827E1,1.5427595E1,1.6257669E2,4.8372566E1,8.940853E1,1.52512455E1,3.0911654E1,2.870027E1,3.656885E1,2.966764E2],"tree_param":{"num_deleted":"0","num_feature":"259","num_nodes":"35","size_leaf_vector":"1"}},{"base_weights":[1.9597482E-2,-5.47455E-1,5.6615335E-1,-7.626575E-1,-1.8000515E-2,8.359236E-1,-6.540869E-2,-1.777159E-1,-1.1024158E0,-3.771351E-2,2.6341045E-1,-7.290663E-3,9.2857397E-1,4.8379454E-1,-1.3323815E0,-7.268459E-1,4.019512E-1,-7.334678E-1,-1.5284067E0,-3.1162784E-2,5.0643814E-1,5.9285187E-3,9.731998E-1,-4.6132337E-2,8.3594733E-1,-6.800088E-2,1.7438661E-2,-4.7486186E-2,-8.268883E-3,-1.0451617E-2,2.4846701E-2,-5.7512533E-2,-1.1177926E-2,-5.3850614E-2,-1.385562E-3,-1.4902433E-2,2.1340804E-2,3.0809326E-2,1.660741E-2,3.0714383E-2,-5.175436E-3],"categories":[],"categories_nodes":[],"categories_segments":[],"categories_sizes":[],"default_left":[0,0,0,0,0,0,0,0,0,0,0,0,0,0,0,0,0,0,0,0,0,0,0,0,0,0,0,0,0,0,0,0,0,0,0,0,0,0,0,0,0],"id":30,"left_children":[1,3,5,7,9,11,13,15,17,-1,19,-1,21,23,25,27,29,31,33,-1,35,-1,37,-1,39,-1,-1,-1,-1,-1,-1,-1,-1,-1,-1,-1,-1,-1,-1,-1,-1],"loss_changes":[3.332912E2,5.9847946E1,9.3675644E1,7.368019E1,5.4978455E1,3.907666E1,1.1669207E2,4.536082E1,3.421527E1,0E0,4.1304234E1,0E0,1.0831329E1,8.546992E1,9.386182E1,2.6788631E1,2.2887985E1,5.377072E1,4.1740112E1,0E0,2.3210135E1,0E0,5.9103394E0,0E0,1.9714615E1,0E0,0E0,0E0,0E0,0E0,0E0,0E0,0E0,0E0,0E0,0E0,0E0,0E0,0E0,0E0,0E0],"parents":[2147483647,0,0,1,1,2,2,3,3,4,4,5,5,6,6,7,7,8,8,10,10,12,12,13,13,14,14,15,15,16,16,17,17,18,18,20,20,22,22,24,24],"right_children":[2,4,6,8,10,12,14,16,18,-1,20,-1,22,24,26,28,30,32,34,-1,36,-1,38,-1,40,-1,-1,-1,-1,-1,-1,-1,-1,-1,-1,-1,-1,-1,-1,-1,-1],"split_conditions":[3.6539907E0,7.093572E-1,3E1,-2.0412415E-1,-4.75E-1,-4.61E-2,3.114754E-1,1.1E0,9.6E0,-3.771351E-2,-3.1662546E-2,-7.290663E-3,1.066E2,1E0,1.7549074E-1,-7.2E0,-1.1E-2,1.25E-1,3.27E-2,-3.1162784E-2,-2.5E0,5.9285187E-3,8.60754E-1,-4.6132337E-2,1.65E0,-6.800088E-2,1.7438661E-2,-4.7486186E-2,-8.268883E-3,-1.0451617E-2,2.4846701E-2,-5.7512533E-2,-1.1177926E-2,-5.3850614E-2,-1.385562E-3,-1.4902433E-2,2.1340804E-2,3.0809326E-2,1.660741E-2,3.0714383E-2,-5.175436E-3],"split_indices":[1,258,182,237,109,66,223,102,162,0,255,0,132,179,256,90,66,257,255,0,131,0,257,0,86,0,0,0,0,0,0,0,0,0,0,0,0,0,0,0,0],"split_type":[0,0,0,0,0,0,0,0,0,0,0,0,0,0,0,0,0,0,0,0,0,0,0,0,0,0,0,0,0,0,0,0,0,0,0,0,0,0,0,0,0],"sum_hessian":[1.0713718E3,5.2555524E2,5.458165E2,3.7264297E2,1.5291228E2,3.8233212E2,1.6348442E2,1.3836215E2,2.3428082E2,2.7214096E1,1.2569819E2,2.9722242E1,3.5260986E2,1.1474476E2,4.8739666E1,7.105762E1,6.730454E1,1.2884064E2,1.05440186E2,1.8545639E1,1.0715255E2,2.1300095E1,3.3130978E2,1.589781E1,9.884695E1,3.2607475E1,1.613219E1,2.2565845E1,4.849177E1,2.4261065E1,4.3043476E1,2.7894264E1,1.00946365E2,8.8836334E1,1.6603851E1,1.7444023E1,8.970853E1,2.9047342E2,4.083635E1,8.35496E1,1.5297344E1],"tree_param":{"num_deleted":"0","num_feature":"259","num_nodes":"41","size_leaf_vector":"1"}},{"base_weights":[-2.0081963E-2,-4.1492793E-1,6.5729874E-1,-5.627384E-1,6.8557614E-1,-3.3657444E-1,8.4287226E-1,-8.0407506E-1,-6.2000126E-2,8.927876E-1,-2.0530089E-3,4.4166073E-1,-5.5319715E-2,-2.032802E-2,9.70256E-1,-1.2295476E0,-3.7554356E-1,-6.257037E-1,4.4525188E-1,1.3728598E-2,3.1568483E-2,2.9408481E-2,-1.1992747E-2,8.398506E-3,1.0330143E0,-4.3273237E-2,-1.0939907E-2,-5.1795606E-2,-3.0237306E-3,2.2523857E-3,-6.0267646E-2,-3.3048008E-2,2.311451E-2,1.7476143E-2,3.1605687E-2],"categories":[],"categories_nodes":[],"categories_segments":[],"categories_sizes":[],"default_left":[0,0,0,0,0,0,0,0,0,0,0,0,0,0,0,0,0,0,0,0,0,0,0,0,0,0,0,0,0,0,0,0,0,0,0],"id":31,"left_children":[1,3,5,7,9,11,13,15,17,19,-1,21,-1,-1,23,25,27,29,31,-1,-1,-1,-1,-1,33,-1,-1,-1,-1,-1,-1,-1,-1,-1,-1],"loss_changes":[2.8965927E2,1.12091606E2,7.4245834E1,7.273486E1,1.3137428E1,7.70111E1,6.6626785E1,7.290698E1,5.759367E1,3.064743E0,0E0,2.0728848E1,0E0,0E0,1.2532532E1,3.5836426E1,7.5674255E1,9.345329E1,5.48151E1,0E0,0E0,0E0,0E0,0E0,9.1116333E-1,0E0,0E0,0E0,0E0,0E0,0E0,0E0,0E0,0E0,0E0],"parents":[2147483647,0,0,1,1,2,2,3,3,4,4,5,5,6,6,7,7,8,8,9,9,11,11,14,14,15,15,16,16,17,17,18,18,24,24],"right_children":[2,4,6,8,10,12,14,16,18,20,-1,22,-1,-1,24,26,28,30,32,-1,-1,-1,-1,-1,34,-1,-1,-1,-1,-1,-1,-1,-1,-1,-1],"split_conditions":[6E1,2.5E1,5E0,8E0,7.4E0,1.4444445E1,1E0,-4E-1,-3.1662546E-2,1E0,-2.0530089E-3,6.59E-1,-5.5319715E-2,-2.032802E-2,1.14E1,7.915E-1,1.2837948E-1,1.67E1,7.434E-1,1.3728598E-2,3.1568483E-2,2.9408481E-2,-1.1992747E-2,8.398506E-3,1.042E2,-4.3273237E-2,-1.0939907E-2,-5.1795606E-2,-3.0237306E-3,2.2523857E-3,-6.0267646E-2,-3.3048008E-2,2.311451E-2,1.7476143E-2,3.1605687E-2],"split_indices":[1,183,7,166,153,135,179,69,255,220,0,44,0,0,41,130,257,162,130,0,0,0,0,0,38,0,0,0,0,0,0,0,0,0,0],"split_type":[0,0,0,0,0,0,0,0,0,0,0,0,0,0,0,0,0,0,0,0,0,0,0,0,0,0,0,0,0,0,0,0,0,0,0],"sum_hessian":[1.0792285E3,6.825735E2,3.9665506E2,6.028532E2,7.972026E1,6.1899086E1,3.3475598E2,4.0557227E2,1.9728096E2,6.255823E1,1.7162027E1,4.1624546E1,2.0274542E1,2.502768E1,3.097283E2,2.0128528E2,2.0428699E2,9.3499916E1,1.0378104E2,1.9358812E1,4.319942E1,2.5394865E1,1.622968E1,2.712045E1,2.8260785E2,1.6017526E2,4.1110027E1,3.255452E1,1.7173247E2,6.317033E1,3.0329588E1,1.7039917E1,8.674112E1,1.550372E1,2.6710413E2],"tree_param":{"num_deleted":"0","num_feature":"259","num_nodes":"35","size_leaf_vector":"1"}},{"base_weights":[-5.7952356E-2,-3.292764E-1,8.999949E-1,-4.9021307E-1,9.064538E-1,7.824584E-4,9.6807414E-1,5.757749E-1,-7.402766E-1,1.21035455E-2,3.129749E-2,1.0627912E-2,3.0445883E-2,-3.8890105E-2,8.3870137E-1,2.0871323E-1,-8.787388E-1,7.97332E-3,3.0641863E-2,-1.4295567E-2,2.0274581E-2,9.39338E-3,-2.9228263E-2],"categories":[],"categories_nodes":[],"categories_segments":[],"categories_sizes":[],"default_left":[0,0,0,0,0,0,0,0,0,0,0,0,0,0,0,0,0,0,0,0,0,0,0],"id":32,"left_children":[1,3,5,7,9,-1,11,13,15,-1,-1,-1,-1,-1,17,19,21,-1,-1,-1,-1,-1,-1],"loss_changes":[2.726303E2,1.6341339E2,1.3421585E1,1.9419423E2,5.242264E0,0E0,5.0262146E0,7.0298416E1,7.78891E1,0E0,0E0,0E0,0E0,0E0,1.1940598E1,2.5114609E1,5.9355865E1,0E0,0E0,0E0,0E0,0E0,0E0],"parents":[2147483647,0,0,1,1,2,2,3,3,4,4,6,6,7,7,8,8,14,14,15,15,16,16],"right_children":[2,4,6,8,10,-1,12,14,16,-1,-1,-1,-1,-1,18,20,22,-1,-1,-1,-1,-1,-1],"split_conditions":[2.6E1,9.6477157E-1,-5.752874E-1,9.693207E-2,4.3044746E-1,7.824584E-4,2.8398092E0,4.0768245E-1,4.085E1,1.21035455E-2,3.129749E-2,1.0627912E-2,3.0445883E-2,-3.8890105E-2,2.8398092E0,2E0,1.096E2,7.97332E-3,3.0641863E-2,-1.4295567E-2,2.0274581E-2,9.39338E-3,-2.9228263E-2],"split_indices":[183,258,255,258,233,0,1,1,144,0,0,0,0,0,1,124,143,0,0,0,0,0,0],"split_type":[0,0,0,0,0,0,0,0,0,0,0,0,0,0,0,0,0,0,0,0,0,0,0],"sum_hessian":[1.045303E3,8.158512E2,2.2945178E2,7.231238E2,9.272743E1,1.7101229E1,2.1235054E2,1.3667812E2,5.864456E2,2.198386E1,7.074357E1,1.6708622E1,1.9564192E2,1.5723128E1,1.20954994E2,7.426541E1,5.1218024E2,3.0828669E1,9.012633E1,2.9827183E1,4.443823E1,3.743769E1,4.7474252E2],"tree_param":{"num_deleted":"0","num_feature":"259","num_nodes":"23","size_leaf_vector":"1"}},{"base_weights":[-3.7531788E-3,-3.728126E-1,6.609027E-1,-5.3783494E-1,5.4845613E-1,-2.6739857E-1,8.404142E-1,7.1293813E-1,-6.780839E-1,-1.4405838E-2,7.662382E-1,2.3742108E-2,-1.1129487E0,-2.2849986E-2,9.816213E-1,2.1462486E-4,2.9787546E-2,-1.0257932E0,-3.3891994E-1,2.809722E-2,4.30318E-1,-2.2675558E-3,-6.5126255E-2,3.5428935E-1,3.1497385E-2,6.154458E-3,-3.64122E-2,-1.5947888E-2,2.0202298E-2,-5.4313295E-4,2.5018683E-2,2.7908986E-2,-7.6241908E-3],"categories":[],"categories_nodes":[],"categories_segments":[],"categories_sizes":[],"default_left":[0,0,0,0,0,0,0,0,0,0,0,0,0,0,0,0,0,0,0,0,0,0,0,0,0,0,0,0,0,0,0,0,0],"id":33,"left_children":[1,3,5,7,9,11,13,15,17,-1,19,-1,21,-1,23,-1,-1,25,27,-1,29,-1,-1,31,-1,-1,-1,-1,-1,-1,-1,-1,-1],"loss_changes":[2.6063547E2,1.0452746E2,6.3809174E1,1.0289456E2,2.4248808E1,5.7982758E1,7.361304E1,1.141353E1,6.0662643E1,0E0,3.7799568E0,0E0,3.8334908E1,0E0,1.1419159E1,0E0,0E0,6.0303955E1,5.3057003E1,0E0,6.3693433E0,0E0,0E0,1.1991252E1,0E0,0E0,0E0,0E0,0E0,0E0,0E0,0E0,0E0],"parents":[2147483647,0,0,1,1,2,2,3,3,4,4,5,5,6,6,7,7,8,8,10,10,12,12,14,14,17,17,18,18,20,20,23,23],"right_children":[2,4,6,8,10,12,14,16,18,-1,20,-1,22,-1,24,-1,-1,26,28,-1,30,-1,-1,32,-1,-1,-1,-1,-1,-1,-1,-1,-1],"split_conditions":[2.7272728E1,9.056065E-1,5E0,3.2579154E-2,-4.5208335E-2,3.8235295E-1,1E0,2.5E0,-4.4444446E-2,-1.4405838E-2,3.579E-1,2.3742108E-2,4.5E0,-2.2849986E-2,1.14E1,2.1462486E-4,2.9787546E-2,-1.8E0,2E0,2.809722E-2,1.1E0,-2.2675558E-3,-6.5126255E-2,8E0,3.1497385E-2,6.154458E-3,-3.64122E-2,-1.5947888E-2,2.0202298E-2,-5.4313295E-4,2.5018683E-2,2.7908986E-2,-7.6241908E-3],"split_indices":[59,258,7,258,109,188,179,184,174,0,12,0,185,0,41,0,0,93,185,0,15,0,0,240,0,0,0,0,0,0,0,0,0],"split_type":[0,0,0,0,0,0,0,0,0,0,0,0,0,0,0,0,0,0,0,0,0,0,0,0,0,0,0,0,0,0,0,0,0],"sum_hessian":[1.0588715E3,6.816856E2,3.7718585E2,5.791104E2,1.0257518E2,6.0690247E1,3.164956E2,5.734937E1,5.2176105E2,1.7260626E1,8.531455E1,2.6846363E1,3.384388E1,2.4752378E1,2.9174323E2,1.717546E1,4.017391E1,2.5519884E2,2.665622E2,5.3643955E1,3.1670597E1,1.8313154E1,1.5530726E1,3.0287586E1,2.6145566E2,3.356812E1,2.2163072E2,2.2498668E2,4.157551E1,1.5555852E1,1.6114746E1,1.5268073E1,1.5019512E1],"tree_param":{"num_deleted":"0","num_feature":"259","num_nodes":"33","size_leaf_vector":"1"}},{"base_weights":[1.0312038E-1,-4.449704E-1,6.841562E-1,-2.6973045E-1,-1.0062951E0,-2.2137934E-2,7.765056E-1,-7.233607E-1,-1.3515393E-1,2.4119332E-3,-1.1685293E0,8.359719E-1,-2.3665395E-2,-2.2208513E-1,-1.0864797E0,-3.7861598E-1,2.0660897E-1,-6.51841E-1,-1.4469912E0,9.0916955E-1,9.91967E-2,-1.6682131E-2,9.249383E-3,-4.303953E-2,-5.2203475E-3,-3.5254836E-2,-5.1766764E-3,1.1675794E-2,-2.8489068E-2,-5.740758E-3,-2.7759492E-2,-4.865142E-2,-2.5735812E-2,2.9603537E-2,4.636405E-3,2.5408803E-2,-2.6099296E-2],"categories":[],"categories_nodes":[],"categories_segments":[],"categories_sizes":[],"default_left":[0,0,0,0,0,0,0,0,0,0,0,0,0,0,0,0,0,0,0,0,0,0,0,0,0,0,0,0,0,0,0,0,0,0,0,0,0],"id":34,"left_children":[1,3,5,7,9,-1,11,13,15,-1,17,19,-1,21,23,25,27,29,31,33,35,-1,-1,-1,-1,-1,-1,-1,-1,-1,-1,-1,-1,-1,-1,-1,-1],"loss_changes":[3.2997287E2,5.15074E1,6.721275E1,2.4537489E1,2.2671219E1,0E0,4.5406982E1,1.5996216E1,2.672351E1,0E0,1.3270477E1,2.4179657E1,0E0,7.82151E0,1.5821152E1,2.993581E1,2.8723495E1,4.6555347E0,3.6050415E0,2.3680359E1,3.3312176E1,0E0,0E0,0E0,0E0,0E0,0E0,0E0,0E0,0E0,0E0,0E0,0E0,0E0,0E0,0E0,0E0],"parents":[2147483647,0,0,1,1,2,2,3,3,4,4,6,6,7,7,8,8,10,10,11,11,13,13,14,14,15,15,16,16,17,17,18,18,19,19,20,20],"right_children":[2,4,6,8,10,-1,12,14,16,-1,18,20,-1,22,24,26,28,30,32,34,36,-1,-1,-1,-1,-1,-1,-1,-1,-1,-1,-1,-1,-1,-1,-1,-1],"split_conditions":[3.8783588E0,2.96E1,-3.9E0,4.4814157E0,5.73E-1,-2.2137934E-2,7.4E0,7.888E-1,2.9E-3,2.4119332E-3,2.1015406E-1,2.55E0,-2.3665395E-2,3.618E-1,6.877899E-2,-1.8E-2,9.7E1,4.2222223E0,7.787E-1,4.906E-1,8.235294E-1,-1.6682131E-2,9.249383E-3,-4.303953E-2,-5.2203475E-3,-3.5254836E-2,-5.1766764E-3,1.1675794E-2,-2.8489068E-2,-5.740758E-3,-2.7759492E-2,-4.865142E-2,-2.5735812E-2,2.9603537E-2,4.636405E-3,2.5408803E-2,-2.6099296E-2],"split_indices":[1,148,71,248,56,0,127,141,66,0,256,83,0,150,255,111,43,127,141,24,192,0,0,0,0,0,0,0,0,0,0,0,0,0,0,0,0],"split_type":[0,0,0,0,0,0,0,0,0,0,0,0,0,0,0,0,0,0,0,0,0,0,0,0,0,0,0,0,0,0,0,0,0,0,0,0,0],"sum_hessian":[1.0320132E3,5.3103766E2,5.0097552E2,4.073596E2,1.236781E2,2.9498495E1,4.7147705E2,9.068827E1,3.1667133E2,1.5956484E1,1.0772162E2,4.5530402E2,1.6173035E1,3.9797836E1,5.089043E1,1.8531815E2,1.3135316E2,4.044138E1,6.7280235E1,4.1336188E2,4.1942135E1,2.4708172E1,1.5089665E1,3.5768772E1,1.5121658E1,3.585506E1,1.4946309E2,1.1480968E2,1.6543495E1,1.6744005E1,2.3697374E1,4.8794285E1,1.8485954E1,3.738931E2,3.9468784E1,2.3992512E1,1.7949625E1],"tree_param":{"num_deleted":"0","num_feature":"259","num_nodes":"37","size_leaf_vector":"1"}},{"base_weights":[4.8590824E-2,-4.4185945E-1,5.463316E-1,-5.506721E-1,3.943765E-1,7.446511E-1,-1.3288596E-1,-4.1596034E-1,-1.3489422E0,7.801177E-1,-2.03072E-2,-2.8894702E-1,8.5580885E-1,-1.580641E0,6.559741E-1,-2.7099502E-1,-1.0015806E0,-4.5491055E-2,-2.1011902E-2,2.8653633E-2,1.1257198E-2,2.553303E-2,-5.2312817E-2,9.3324035E-1,-3.4877115E-3,-6.704141E-2,-1.8866979E-2,-2.1062016E-2,3.1010484E-2,-1.7161733E-2,7.633405E-3,-1.1127432E-2,-4.4886608E-2,6.579941E-3,3.0222243E-2],"categories":[],"categories_nodes":[],"categories_segments":[],"categories_sizes":[],"default_left":[0,0,0,0,0,0,0,0,0,0,0,0,0,0,0,0,0,0,0,0,0,0,0,0,0,0,0,0,0,0,0,0,0,0,0],"id":35,"left_children":[1,3,5,7,9,11,13,15,17,19,-1,21,23,25,27,29,31,-1,-1,-1,-1,-1,-1,33,-1,-1,-1,-1,-1,-1,-1,-1,-1,-1,-1],"loss_changes":[2.5462335E2,4.8262398E1,7.013339E1,4.8438644E1,2.6422192E1,4.6787354E1,1.3755144E2,3.3182343E1,4.382019E0,2.1584816E0,0E0,6.993306E1,2.7801819E1,2.2770569E1,4.1512917E1,5.182866E1,2.2838585E1,0E0,0E0,0E0,0E0,0E0,0E0,1.7030579E1,0E0,0E0,0E0,0E0,0E0,0E0,0E0,0E0,0E0,0E0,0E0],"parents":[2147483647,0,0,1,1,2,2,3,3,4,4,5,5,6,6,7,7,8,8,9,9,11,11,12,12,13,13,14,14,15,15,16,16,23,23],"right_children":[2,4,6,8,10,12,14,16,18,20,-1,22,24,26,28,30,32,-1,-1,-1,-1,-1,-1,34,-1,-1,-1,-1,-1,-1,-1,-1,-1,-1,-1],"split_conditions":[2.4747474E-1,9.14898E-1,1.65E0,3.2E-2,9.3E-1,7.510209E-2,2.4833334E1,8.2E1,4.428571E0,7.742E-1,-2.03072E-2,9.5E-1,7E0,3.56E-1,1.1413044E-1,8.55E-3,8.4E0,-4.5491055E-2,-2.1011902E-2,2.8653633E-2,1.1257198E-2,2.553303E-2,-5.2312817E-2,3E0,-3.4877115E-3,-6.704141E-2,-1.8866979E-2,-2.1062016E-2,3.1010484E-2,-1.7161733E-2,7.633405E-3,-1.1127432E-2,-4.4886608E-2,6.579941E-3,3.0222243E-2],"split_indices":[59,258,82,111,110,256,126,159,127,14,0,83,252,12,193,77,156,0,0,0,0,0,0,123,0,0,0,0,0,0,0,0,0,0,0],"split_type":[0,0,0,0,0,0,0,0,0,0,0,0,0,0,0,0,0,0,0,0,0,0,0,0,0,0,0,0,0,0,0,0,0,0,0],"sum_hessian":[1.0389316E3,5.231077E2,5.1582385E2,4.63799E2,5.9308723E1,3.994427E2,1.1638118E2,3.9975626E2,6.4042755E1,4.4212555E1,1.50961685E1,3.8213886E1,3.612288E2,4.0474068E1,7.590712E1,3.2319086E2,7.656539E1,4.84073E1,1.5635454E1,2.8454437E1,1.5758117E1,2.1774382E1,1.6439507E1,3.3493732E2,2.629149E1,2.2203632E1,1.8270433E1,1.59712305E1,5.9935886E1,2.0571547E2,1.1747541E2,3.5460037E1,4.110536E1,3.264726E1,3.0229004E2],"tree_param":{"num_deleted":"0","num_feature":"259","num_nodes":"35","size_leaf_vector":"1"}},{"base_weights":[-5.765156E-3,-3.5047883E-1,6.583862E-1,-4.8705018E-1,6.5524113E-1,-7.814108E-1,8.3947074E-1,-6.198898E-1,1.8313482E-1,8.621803E-1,-6.399632E-3,-6.137917E-2,1.0423954E-2,9.099842E-1,-6.366156E-3,-6.8317616E-1,2.8595828E-2,-5.795195E-1,6.2113774E-1,2.9978167E-2,1.0098925E-2,1.0146285E0,4.7351348E-1,-1.6406633E-2,-4.9958367E-2,-3.9879255E-2,4.6210247E-3,2.7767397E-2,4.6304264E-3,1.4966722E-2,3.1370904E-2,2.859315E-2,-1.5178065E-2],"categories":[],"categories_nodes":[],"categories_segments":[],"categories_sizes":[],"default_left":[0,0,0,0,0,0,0,0,0,0,0,0,0,0,0,0,0,0,0,0,0,0,0,0,0,0,0,0,0,0,0,0,0],"id":36,"left_children":[1,3,5,7,9,11,13,15,17,19,-1,-1,-1,21,-1,23,-1,25,27,-1,-1,29,31,-1,-1,-1,-1,-1,-1,-1,-1,-1,-1],"loss_changes":[2.3822456E2,9.474957E1,9.398711E1,5.421898E1,1.540065E1,5.9823914E1,2.4090836E1,5.1570602E1,3.4554768E1,3.778576E0,0E0,0E0,0E0,1.2183868E1,0E0,6.277069E1,0E0,2.1509274E1,8.702744E0,0E0,0E0,2.3022308E0,3.015179E1,0E0,0E0,0E0,0E0,0E0,0E0,0E0,0E0,0E0,0E0],"parents":[2147483647,0,0,1,1,2,2,3,3,4,4,5,5,6,6,7,7,8,8,9,9,13,13,15,15,17,17,18,18,21,21,22,22],"right_children":[2,4,6,8,10,12,14,16,18,20,-1,-1,-1,22,-1,24,-1,26,28,-1,-1,30,32,-1,-1,-1,-1,-1,-1,-1,-1,-1,-1],"split_conditions":[6E1,2.5E1,-7.6E0,2.43E-2,4.851E-1,4.516E-1,4E0,8.2608694E-1,1.3540965E-1,8.104E-1,-6.399632E-3,-6.137917E-2,1.0423954E-2,5E0,-6.366156E-3,3.3E1,2.8595828E-2,4.739777E0,1.35E0,2.9978167E-2,1.0098925E-2,3E0,1.720078E-1,-1.6406633E-2,-4.9958367E-2,-3.9879255E-2,4.6210247E-3,2.7767397E-2,4.6304264E-3,1.4966722E-2,3.1370904E-2,2.859315E-2,-1.5178065E-2],"split_indices":[1,183,50,76,129,151,125,192,256,152,0,0,0,252,0,197,0,248,74,0,0,122,255,0,0,0,0,0,0,0,0,0,0],"split_type":[0,0,0,0,0,0,0,0,0,0,0,0,0,0,0,0,0,0,0,0,0,0,0,0,0,0,0,0,0,0,0,0,0],"sum_hessian":[1.036933E3,6.835481E2,3.5338486E2,6.0299445E2,8.055365E1,3.8554268E1,3.148306E2,5.0374347E2,9.925095E1,6.5344986E1,1.5208665E1,1.75433E1,2.1010967E1,2.955679E2,1.926271E1,4.8553226E2,1.8211214E1,3.5721413E1,6.352954E1,4.994341E1,1.5401576E1,2.3571773E2,5.985017E1,4.2936728E2,5.6164993E1,1.7064207E1,1.8657207E1,3.687266E1,2.6656881E1,1.5879948E1,2.1983777E2,4.0418945E1,1.9431229E1],"tree_param":{"num_deleted":"0","num_feature":"259","num_nodes":"33","size_leaf_vector":"1"}},{"base_weights":[1.6148902E-4,-4.5357051E-1,4.6815655E-1,-2.6877174E-1,-9.3570715E-1,8.368892E-1,-3.5757016E-2,-4.077098E-1,2.9717633E-1,-1.1308722E0,-3.981903E-3,-5.0279736E-3,9.460542E-1,3.062894E-1,-1.2879723E0,-7.0140225E-1,-1.3119687E-1,-1.3935152E-2,7.259192E-1,-1.3821983E0,-7.127847E-1,7.556994E-3,9.9646837E-1,6.393278E-1,-5.2113518E-2,-6.834439E-2,1.6298061E-2,-2.5808103E-2,1.5175931E-2,5.154891E-3,-2.4049938E-2,3.0229922E-2,8.452028E-3,-4.7223657E-2,-1.8530106E-2,-4.506781E-2,-5.6387903E-3,3.1061225E-2,1.1959068E-2,2.9251596E-2,-1.746535E-2],"categories":[],"categories_nodes":[],"categories_segments":[],"categories_sizes":[],"default_left":[0,0,0,0,0,0,0,0,0,0,0,0,0,0,0,0,0,0,0,0,0,0,0,0,0,0,0,0,0,0,0,0,0,0,0,0,0,0,0,0,0],"id":37,"left_children":[1,3,5,7,9,11,13,15,17,19,-1,-1,21,23,25,27,29,-1,31,33,35,-1,37,39,-1,-1,-1,-1,-1,-1,-1,-1,-1,-1,-1,-1,-1,-1,-1,-1,-1],"loss_changes":[2.2308151E2,4.6631767E1,9.6450806E1,3.0833593E1,2.2271683E1,3.3363876E1,9.541081E1,2.5008495E1,2.6006634E1,9.721283E0,0E0,0E0,8.588928E0,1.2058113E2,8.970905E1,2.9926361E1,3.385568E1,0E0,5.366844E0,7.764679E0,1.9064281E1,0E0,4.58432E0,6.3403633E1,0E0,0E0,0E0,0E0,0E0,0E0,0E0,0E0,0E0,0E0,0E0,0E0,0E0,0E0,0E0,0E0,0E0],"parents":[2147483647,0,0,1,1,2,2,3,3,4,4,5,5,6,6,7,7,8,8,9,9,12,12,13,13,14,14,15,15,16,16,18,18,19,19,20,20,22,22,23,23],"right_children":[2,4,6,8,10,12,14,16,18,20,-1,-1,22,24,26,28,30,-1,32,34,36,-1,38,40,-1,-1,-1,-1,-1,-1,-1,-1,-1,-1,-1,-1,-1,-1,-1,-1,-1],"split_conditions":[2.4747474E-1,2.9E1,2.5E1,1E0,1.04761906E-1,2.25E1,3.8E1,-1.8E0,7.1428575E-2,1.1335E2,