{"learner":{"attributes":{"scikit_learn":"{\"_estimator_type\": \"classifier\"}"},"feature_names":[],"feature_types":[],"gradient_booster":{"model":{"cats":{"enc":[],"feature_segments":[],"sorted_idx":[]},"gbtree_model_param":{"num_parallel_tree":"1","num_trees":"800"},"iteration_indptr":[0,1,2,3,4,5,6,7,8,9,10,11,12,13,14,15,16,17,18,19,20,21,22,23,24,25,26,27,28,29,30,31,32,33,34,35,36,37,38,39,40,41,42,43,44,45,46,47,48,49,50,51,52,53,54,55,56,57,58,59,60,61,62,63,64,65,66,67,68,69,70,71,72,73,74,75,76,77,78,79,80,81,82,83,84,85,86,87,88,89,90,91,92,93,94,95,96,97,98,99,100,101,102,103,104,105,106,107,108,109,110,111,112,113,114,115,116,117,118,119,120,121,122,123,124,125,126,127,128,129,130,131,132,133,134,135,136,137,138,139,140,141,142,143,144,145,146,147,148,149,150,151,152,153,154,155,156,157,158,159,160,161,162,163,164,165,166,167,168,169,170,171,172,173,174,175,176,177,178,179,180,181,182,183,184,185,186,187,188,189,190,191,192,193,194,195,196,197,198,199,200,201,202,203,204,205,206,207,208,209,210,211,212,213,214,215,216,217,218,219,220,221,222,223,224,225,226,227,228,229,230,231,232,233,234,235,236,237,238,239,240,241,242,243,244,245,246,247,248,249,250,251,252,253,254,255,256,257,258,259,260,261,262,263,264,265,266,267,268,269,270,271,272,273,274,275,276,277,278,279,280,281,282,283,284,285,286,287,288,289,290,291,292,293,294,295,296,297,298,299,300,301,302,303,304,305,306,307,308,309,310,311,312,313,314,315,316,317,318,319,320,321,322,323,324,325,326,327,328,329,330,331,332,333,334,335,336,337,338,339,340,341,342,343,344,345,346,347,348,349,350,351,352,353,354,355,356,357,358,359,360,361,362,363,364,365,366,367,368,369,370,371,372,373,374,375,376,377,378,379,380,381,382,383,384,385,386,387,388,389,390,391,392,393,394,395,396,397,398,399,400,401,402,403,404,405,406,407,408,409,410,411,412,413,414,415,416,417,418,419,420,421,422,423,424,425,426,427,428,429,430,431,432,433,434,435,436,437,438,439,440,441,442,443,444,445,446,447,448,449,450,451,452,453,454,455,456,457,458,459,460,461,462,463,464,465,466,467,468,469,470,471,472,473,474,475,476,477,478,479,480,481,482,483,484,485,486,487,488,489,490,491,492,493,494,495,496,497,498,499,500,501,502,503,504,505,506,507,508,509,510,511,512,513,514,515,516,517,518,519,520,521,522,523,524,525,526,527,528,529,530,531,532,533,534,535,536,537,538,539,540,541,542,543,544,545,546,547,548,549,550,551,552,553,554,555,556,557,558,559,560,561,562,563,564,565,566,567,568,569,570,571,572,573,574,575,576,577,578,579,580,581,582,583,584,585,586,587,588,589,590,591,592,593,594,595,596,597,598,599,600,601,602,603,604,605,606,607,608,609,610,611,612,613,614,615,616,617,618,619,620,621,622,623,624,625,626,627,628,629,630,631,632,633,634,635,636,637,638,639,640,641,642,643,644,645,646,647,648,649,650,651,652,653,654,655,656,657,658,659,660,661,662,663,664,665,666,667,668,669,670,671,672,673,674,675,676,677,678,679,680,681,682,683,684,685,686,687,688,689,690,691,692,693,694,695,696,697,698,699,700,701,702,703,704,705,706,707,708,709,710,711,712,713,714,715,716,717,718,719,720,721,722,723,724,725,726,727,728,729,730,731,732,733,734,735,736,737,738,739,740,741,742,743,744,745,746,747,748,749,750,751,752,753,754,755,756,757,758,759,760,761,762,763,764,765,766,767,768,769,770,771,772,773,774,775,776,777,778,779,780,781,782,783,784,785,786,787,788,789,790,791,792,793,794,795,796,797,798,799,800],"tree_info":[0,0,0,0,0,0,0,0,0,0,0,0,0,0,0,0,0,0,0,0,0,0,0,0,0,0,0,0,0,0,0,0,0,0,0,0,0,0,0,0,0,0,0,0,0,0,0,0,0,0,0,0,0,0,0,0,0,0,0,0,0,0,0,0,0,0,0,0,0,0,0,0,0,0,0,0,0,0,0,0,0,0,0,0,0,0,0,0,0,0,0,0,0,0,0,0,0,0,0,0,0,0,0,0,0,0,0,0,0,0,0,0,0,0,0,0,0,0,0,0,0,0,0,0,0,0,0,0,0,0,0,0,0,0,0,0,0,0,0,0,0,0,0,0,0,0,0,0,0,0,0,0,0,0,0,0,0,0,0,0,0,0,0,0,0,0,0,0,0,0,0,0,0,0,0,0,0,0,0,0,0,0,0,0,0,0,0,0,0,0,0,0,0,0,0,0,0,0,0,0,0,0,0,0,0,0,0,0,0,0,0,0,0,0,0,0,0,0,0,0,0,0,0,0,0,0,0,0,0,0,0,0,0,0,0,0,0,0,0,0,0,0,0,0,0,0,0,0,0,0,0,0,0,0,0,0,0,0,0,0,0,0,0,0,0,0,0,0,0,0,0,0,0,0,0,0,0,0,0,0,0,0,0,0,0,0,0,0,0,0,0,0,0,0,0,0,0,0,0,0,0,0,0,0,0,0,0,0,0,0,0,0,0,0,0,0,0,0,0,0,0,0,0,0,0,0,0,0,0,0,0,0,0,0,0,0,0,0,0,0,0,0,0,0,0,0,0,0,0,0,0,0,0,0,0,0,0,0,0,0,0,0,0,0,0,0,0,0,0,0,0,0,0,0,0,0,0,0,0,0,0,0,0,0,0,0,0,0,0,0,0,0,0,0,0,0,0,0,0,0,0,0,0,0,0,0,0,0,0,0,0,0,0,0,0,0,0,0,0,0,0,0,0,0,0,0,0,0,0,0,0,0,0,0,0,0,0,0,0,0,0,0,0,0,0,0,0,0,0,0,0,0,0,0,0,0,0,0,0,0,0,0,0,0,0,0,0,0,0,0,0,0,0,0,0,0,0,0,0,0,0,0,0,0,0,0,0,0,0,0,0,0,0,0,0,0,0,0,0,0,0,0,0,0,0,0,0,0,0,0,0,0,0,0,0,0,0,0,0,0,0,0,0,0,0,0,0,0,0,0,0,0,0,0,0,0,0,0,0,0,0,0,0,0,0,0,0,0,0,0,0,0,0,0,0,0,0,0,0,0,0,0,0,0,0,0,0,0,0,0,0,0,0,0,0,0,0,0,0,0,0,0,0,0,0,0,0,0,0,0,0,0,0,0,0,0,0,0,0,0,0,0,0,0,0,0,0,0,0,0,0,0,0,0,0,0,0,0,0,0,0,0,0,0,0,0,0,0,0,0,0,0,0,0,0,0,0,0,0,0,0,0,0,0,0,0,0,0,0,0,0,0,0,0,0,0,0,0,0,0,0,0,0,0,0,0,0,0,0,0,0,0,0,0,0,0,0,0,0,0,0,0,0,0,0,0,0,0,0,0,0,0,0,0,0,0,0,0,0,0,0,0,0,0,0,0,0,0,0,0,0,0,0,0,0,0,0,0,0,0,0,0,0,0,0,0,0,0,0,0,0,0,0,0,0,0,0,0,0,0,0,0,0,0,0,0,0,0,0,0,0,0,0,0,0,0,0,0,0,0,0,0,0,0,0,0,0,0,0,0,0,0,0,0,0,0,0,0,0,0,0,0,0,0,0,0,0,0,0,0,0,0,0,0,0,0,0,0,0,0],"trees":[{"base_weights":[-3.4477126E-2,-1.4103743E0,1.1203669E0,6.8606883E-1,-1.6400563E0,1.4973043E0,-4.0298127E-2,1.8086253E0,-1.2503206E0,-2.0379047E0,-9.6312386E-1,6.814433E-1,1.7884575E0,-1.3751035E0,1.2119662E0,2.5162676E-2,4.7306933E-2,-2.2388813E-4,-4.8713487E-2,-2.1985061E-2,-2.051353E0,-1.4798708E0,1.1390641E0,9.5321316E-1,-4.789008E-2,-1.25929285E-2,1.8160906E0,1.3927265E-1,-5.041803E-2,-1.0163397E0,1.49351E0,-3.135423E-2,-5.148643E-2,-1.658678E0,3.326926E-2,4.536238E-2,-5.7706237E-2,2.3511343E-1,1.4024322E0,7.148294E-1,1.8685915E0,-1.1020292E0,8.926877E-1,-4.19419E-2,-3.985825E-3,3.7629783E-1,1.812096E0,-4.5485303E-2,-1.9804511E-2,-2.0515403E-2,2.1277657E-2,-4.275911E-3,3.6167767E-2,-2.4932733E-2,3.9009057E-2,2.8357575E-2,-1.3703368E-2,4.7064397E-2,1.4822908E-2,-3.7577767E-2,-1.3817824E-2,-1.0938089E-2,3.5538957E-2,3.2644976E-2,-4.5621987E-2,2.1678707E-2,4.7189843E-2],"categories":[],"categories_nodes":[],"categories_segments":[],"categories_sizes":[],"default_left":[0,0,0,0,0,0,0,0,0,0,0,0,0,0,0,0,0,0,0,0,0,0,0,0,0,0,0,0,0,0,0,0,0,0,0,0,0,0,0,0,0,0,0,0,0,0,0,0,0,0,0,0,0,0,0,0,0,0,0,0,0,0,0,0,0,0,0],"id":0,"left_children":[1,3,5,7,9,11,13,15,17,19,21,23,25,27,29,-1,-1,-1,-1,-1,31,33,35,37,-1,-1,39,41,-1,43,45,-1,-1,47,-1,-1,49,51,53,55,57,59,61,-1,-1,63,65,-1,-1,-1,-1,-1,-1,-1,-1,-1,-1,-1,-1,-1,-1,-1,-1,-1,-1,-1,-1],"loss_changes":[4.772977E3,6.6193335E2,7.148369E2,2.9983066E2,3.293208E2,2.9053687E2,6.7392847E2,2.3992615E0,4.3655205E1,8.812744E0,5.028847E2,2.3324475E2,5.9116943E1,1.9046811E2,1.3283957E2,0E0,0E0,0E0,0E0,0E0,4.1577148E-1,1.8952667E2,7.458587E1,9.497504E1,0E0,0E0,4.9348877E1,5.6988274E1,0E0,1.29121475E1,6.449988E1,0E0,0E0,4.592041E1,0E0,0E0,2.4898375E1,5.7834526E1,7.1503845E1,2.4055798E1,1.3086914E1,3.411745E0,2.7789305E1,0E0,0E0,9.176054E1,7.243225E0,0E0,0E0,0E0,0E0,0E0,0E0,0E0,0E0,0E0,0E0,0E0,0E0,0E0,0E0,0E0,0E0,0E0,0E0,0E0,0E0],"parents":[2147483647,0,0,1,1,2,2,3,3,4,4,5,5,6,6,7,7,8,8,9,9,10,10,11,11,12,12,13,13,14,14,20,20,21,21,22,22,23,23,26,26,27,27,29,29,30,30,33,33,36,36,37,37,38,38,39,39,40,40,41,41,42,42,45,45,46,46],"right_children":[2,4,6,8,10,12,14,16,18,20,22,24,26,28,30,-1,-1,-1,-1,-1,32,34,36,38,-1,-1,40,42,-1,44,46,-1,-1,48,-1,-1,50,52,54,56,58,60,62,-1,-1,64,66,-1,-1,-1,-1,-1,-1,-1,-1,-1,-1,-1,-1,-1,-1,-1,-1,-1,-1,-1,-1],"split_conditions":[-1E0,-6E0,4E0,7E0,-2E0,2.059375E0,6E0,1E0,2.25E0,-8.5E0,1.39E-1,2.5E0,-6E-1,2E0,-7.922222E-1,2.5162676E-2,4.7306933E-2,-2.2388813E-4,-4.8713487E-2,-2.1985061E-2,4.082483E0,6.01983E-1,9.6666664E-1,6.3E-2,-4.789008E-2,-1.25929285E-2,-4.5E-1,1.325E1,-5.041803E-2,4.6825E-1,4.5615E-1,-3.135423E-2,-5.148643E-2,5E-2,3.326926E-2,4.536238E-2,3.1E0,2.238806E-2,3.2395E-1,4.89E-1,1.2214286E2,-6.5E-1,-5E-1,-4.19419E-2,-3.985825E-3,1.575E1,-0E0,-4.5485303E-2,-1.9804511E-2,-2.0515403E-2,2.1277657E-2,-4.275911E-3,3.6167767E-2,-2.4932733E-2,3.9009057E-2,2.8357575E-2,-1.3703368E-2,4.7064397E-2,1.4822908E-2,-3.7577767E-2,-1.3817824E-2,-1.0938089E-2,3.5538957E-2,3.2644976E-2,-4.5621987E-2,2.1678707E-2,4.7189843E-2],"split_indices":[235,252,252,0,239,238,0,225,230,70,100,208,115,185,107,0,0,0,0,0,1,233,249,100,0,0,109,19,0,24,24,0,0,107,0,0,105,205,23,35,27,74,68,0,0,199,101,0,0,0,0,0,0,0,0,0,0,0,0,0,0,0,0,0,0,0,0],"split_type":[0,0,0,0,0,0,0,0,0,0,0,0,0,0,0,0,0,0,0,0,0,0,0,0,0,0,0,0,0,0,0,0,0,0,0,0,0,0,0,0,0,0,0,0,0,0,0,0,0,0,0,0,0,0,0,0,0,0,0,0,0,0,0,0,0,0,0],"sum_hessian":[3.0008342E3,1.3692875E3,1.6315468E3,1.3482335E2,1.2344641E3,1.231381E3,4.0016574E2,8.5474594E1,4.9348763E1,7.7542065E2,4.590435E2,3.253611E2,9.0601984E2,1.9370526E2,2.0646048E2,1.0144111E1,7.533048E1,1.841477E1,3.093399E1,1.021151E1,7.652091E2,3.6890155E2,9.014193E1,2.9546808E2,2.989303E1,1.0398273E1,8.956215E2,5.7902885E1,1.3580238E2,2.2640991E1,1.8381949E2,1.0300233E1,7.549089E2,3.4748145E2,2.1420116E1,5.723348E1,3.290845E1,1.14755615E2,1.8071248E2,4.192546E1,8.536961E2,2.1507805E1,3.639508E1,1.1836091E1,1.0804901E1,4.1652542E1,1.4216695E2,2.9152377E2,5.595765E1,1.8089073E1,1.4819379E1,8.6786385E1,2.7969229E1,1.0588096E1,1.7012437E2,3.1705984E1,1.0219476E1,8.435782E2,1.0117919E1,1.0715404E1,1.0792402E1,1.0319775E1,2.6075304E1,2.9778751E1,1.1873791E1,1.2099852E1,1.300671E2],"tree_param":{"num_deleted":"0","num_feature":"255","num_nodes":"67","size_leaf_vector":"1"}},{"base_weights":[9.5313914E-2,-1.5486069E0,1.0692343E0,4.8079863E-1,-1.7427967E0,2.4743679E-1,1.5569768E0,1.4755731E0,-4.5846276E-2,-1.8922518E0,-1.5890886E-1,9.0457845E-1,-9.773619E-1,-3.5988548E-1,1.6338116E0,3.3161833E-3,4.484692E-2,-9.8582536E-1,-1.952697E0,-1.6445885E0,4.2953867E-2,1.6680323E-1,1.6907941E0,-2.0196635E-1,-1.6494775E0,4.1916627E-2,-4.2805772E-2,1.7147571E0,-4.239876E-1,-2.121018E-1,-1.5133748E0,-1.9718709E0,-1.8700676E-2,-1.43094985E-2,-4.848883E-2,1.1801136E0,-3.6842608E-1,1.771092E0,1.0089328E-2,-7.435063E-1,1.2105138E0,-1.8632027E0,1.4862577E-2,1.7379627E0,-1.040332E-2,3.408989E-2,-4.5966066E-2,-2.4857422E-2,1.7429283E-2,-4.3184236E-2,-2.1202443E-2,-3.0325433E-2,-4.966458E-2,-1.1768253E-2,3.776217E-2,-1.6698055E-2,4.3935787E-2,4.5783784E-2,1.8942324E-2,-2.89432E-2,2.720507E-2,3.9375357E-2,9.30377E-3,-4.894173E-2,-2.0175224E-2,3.557572E-2,4.6496682E-2],"categories":[],"categories_nodes":[],"categories_segments":[],"categories_sizes":[],"default_left":[0,0,0,0,0,0,0,0,0,0,0,0,0,0,0,0,0,0,0,0,0,0,0,0,0,0,0,0,0,0,0,0,0,0,0,0,0,0,0,0,0,0,0,0,0,0,0,0,0,0,0,0,0,0,0,0,0,0,0,0,0,0,0,0,0,0,0],"id":1,"left_children":[1,3,5,7,9,11,13,15,-1,17,19,21,23,25,27,-1,-1,29,31,33,-1,35,37,39,41,-1,-1,43,45,47,49,51,-1,-1,-1,53,55,57,-1,59,61,63,-1,65,-1,-1,-1,-1,-1,-1,-1,-1,-1,-1,-1,-1,-1,-1,-1,-1,-1,-1,-1,-1,-1,-1,-1],"loss_changes":[4.593862E3,4.221792E2,7.212876E2,2.2113522E2,2.2985547E2,5.430186E2,1.676101E2,2.7833893E1,0E0,4.5306152E1,2.4346721E2,2.5379596E2,1.2192926E2,1.27393974E2,1.8242944E2,0E0,0E0,2.321408E1,1.6483154E1,1.3238602E1,0E0,1.24593864E2,2.042456E1,8.635781E1,6.2283325E1,0E0,0E0,5.3090088E1,1.1070688E2,1.943177E1,2.2163925E0,4.887207E0,0E0,0E0,0E0,4.4561928E1,9.727327E1,9.561401E0,0E0,6.3705418E1,8.296726E0,8.588409E0,0E0,3.5127686E1,0E0,0E0,0E0,0E0,0E0,0E0,0E0,0E0,0E0,0E0,0E0,0E0,0E0,0E0,0E0,0E0,0E0,0E0,0E0,0E0,0E0,0E0,0E0],"parents":[2147483647,0,0,1,1,2,2,3,3,4,4,5,5,6,6,7,7,9,9,10,10,11,11,12,12,13,13,14,14,17,17,18,18,19,19,21,21,22,22,23,23,24,24,27,27,28,28,29,29,30,30,31,31,35,35,36,36,37,37,39,39,40,40,41,41,43,43],"right_children":[2,4,6,8,10,12,14,16,-1,18,20,22,24,26,28,-1,-1,30,32,34,-1,36,38,40,42,-1,-1,44,46,48,50,52,-1,-1,-1,54,56,58,-1,60,62,64,-1,66,-1,-1,-1,-1,-1,-1,-1,-1,-1,-1,-1,-1,-1,-1,-1,-1,-1,-1,-1,-1,-1,-1,-1],"split_conditions":[-2.9333334E0,-6E0,1.2E1,1.2E1,1.97E1,3E0,-1.1578947E1,9.75E0,-4.5846276E-2,-2.5E-2,-6.583798E-2,9.7083336E-1,2.7586207E-1,-2.7E0,4.73E1,3.3161833E-3,4.484692E-2,-9E0,1.5E1,6E0,4.2953867E-2,-1.15E0,1.75E-1,1.42E1,1E1,4.1916627E-2,-4.2805772E-2,1.1E1,9.6E0,5E-1,4.6E0,-1.1E1,-1.8700676E-2,-1.43094985E-2,-4.848883E-2,1.144E2,8.25E0,8.1025E-1,1.0089328E-2,4.5358977E-1,-9.5E-1,7E0,1.4862577E-2,4.041452E0,-1.040332E-2,3.408989E-2,-4.5966066E-2,-2.4857422E-2,1.7429283E-2,-4.3184236E-2,-2.1202443E-2,-3.0325433E-2,-4.966458E-2,-1.1768253E-2,3.776217E-2,-1.6698055E-2,4.3935787E-2,4.5783784E-2,1.8942324E-2,-2.89432E-2,2.720507E-2,3.9375357E-2,9.30377E-3,-4.894173E-2,-2.0175224E-2,3.557572E-2,4.6496682E-2],"split_indices":[238,252,241,0,98,252,79,220,0,103,239,238,188,81,28,0,0,123,6,202,0,83,103,98,105,0,0,252,18,198,106,123,0,0,0,168,230,25,0,239,110,0,0,237,0,0,0,0,0,0,0,0,0,0,0,0,0,0,0,0,0,0,0,0,0,0,0],"split_type":[0,0,0,0,0,0,0,0,0,0,0,0,0,0,0,0,0,0,0,0,0,0,0,0,0,0,0,0,0,0,0,0,0,0,0,0,0,0,0,0,0,0,0,0,0,0,0,0,0,0,0,0,0,0,0,0,0,0,0,0,0,0,0,0,0,0,0],"sum_hessian":[2.866293E3,1.0659467E3,1.8003464E3,9.2807396E1,9.731393E2,6.7153986E2,1.1288065E3,6.535132E1,2.745608E1,8.888495E2,8.428985E1,4.3741104E2,2.3412881E2,4.318964E1,1.085617E3,1.3049363E1,5.2301952E1,5.7397583E1,8.314519E2,4.7213272E1,3.7076576E1,2.2672638E2,2.1068465E2,1.097558E2,1.2437302E2,1.703234E1,2.6157299E1,1.0448634E3,4.0753464E1,2.4275875E1,3.3121708E1,8.173219E2,1.4130004E1,1.1284061E1,3.592921E1,7.7869026E1,1.4885735E2,1.9763667E2,1.3047971E1,7.9953804E1,2.980199E1,1.13871155E2,1.0501859E1,1.0339739E3,1.0889595E1,1.7965149E1,2.2788315E1,1.3092688E1,1.11831875E1,2.3021296E1,1.0100411E1,1.8183573E1,7.991383E2,1.2777656E1,6.509138E1,1.3145976E2,1.7397583E1,1.8521524E2,1.2421434E1,6.574695E1,1.4206862E1,1.9686283E1,1.0115707E1,1.0317362E2,1.0697537E1,2.9430447E2,7.396694E2],"tree_param":{"num_deleted":"0","num_feature":"255","num_nodes":"67","size_leaf_vector":"1"}},{"base_weights":[-2.1452792E-2,-1.2758864E0,1.0929968E0,3.8188258E-1,-1.5229543E0,1.4856974E0,3.2042507E-2,1.3493855E0,-1.6536244E0,-1.7259881E0,1.7085849E-1,-3.2185546E-1,1.6257012E0,-1.1443014E0,1.0899283E0,4.947513E-3,4.542869E-2,-4.77127E-2,-7.824748E-3,-1.8048829E0,1.2344679E-1,4.5316424E-2,-1.4455281E0,9.339055E-1,-1.456292E0,-2.3745552E-2,1.6734922E0,5.066624E-1,-4.8866555E-2,-7.747277E-1,1.4433606E0,-2.2791365E-2,2.1512987E-2,-7.5659704E-1,-1.8887607E0,4.120336E-2,-3.729618E-2,-4.6864673E-2,3.1501278E-3,-3.5540487E-3,3.6270063E-2,-1.1998616E-2,-4.8927475E-2,-1.7929634E-2,1.6982179E0,-2.1200895E-2,1.0672634E0,2.3633724E-2,-1.5423636E0,1.5874255E0,-1.9617882E-2,-2.3509439E-3,-3.415512E-2,-4.8942976E-2,-3.8057756E-2,4.4207767E-2,2.138926E-2,-3.0528678E-4,3.9373852E-2,-4.4508435E-2,-2.4718015E-2,4.2675417E-2,3.6506595E-3],"categories":[],"categories_nodes":[],"categories_segments":[],"categories_sizes":[],"default_left":[0,0,0,0,0,0,0,0,0,0,0,0,0,0,0,0,0,0,0,0,0,0,0,0,0,0,0,0,0,0,0,0,0,0,0,0,0,0,0,0,0,0,0,0,0,0,0,0,0,0,0,0,0,0,0,0,0,0,0,0,0,0,0],"id":2,"left_children":[1,3,5,7,9,11,13,15,17,19,21,23,25,27,29,31,-1,-1,-1,33,35,-1,37,39,41,-1,43,45,-1,47,49,-1,-1,51,53,-1,-1,-1,-1,-1,-1,-1,-1,-1,55,-1,57,-1,59,61,-1,-1,-1,-1,-1,-1,-1,-1,-1,-1,-1,-1,-1],"loss_changes":[4.2036025E3,5.805149E2,6.629911E2,3.6679474E2,4.2429053E2,2.9507935E2,5.392031E2,7.886464E1,1.9187881E1,1.6116968E2,3.571779E2,1.2277005E2,1.3530542E2,2.7616483E2,1.5220337E2,2.7939E1,0E0,0E0,0E0,9.010742E1,1.1775887E2,0E0,4.644301E1,2.3386215E1,2.0183174E1,0E0,6.466235E1,5.352557E1,0E0,5.1488415E1,6.3804626E1,0E0,0E0,3.2172062E1,1.9492432E1,0E0,0E0,0E0,0E0,0E0,0E0,0E0,0E0,0E0,5.918506E1,0E0,2.7367405E1,0E0,2.8469467E-1,3.05159E1,0E0,0E0,0E0,0E0,0E0,0E0,0E0,0E0,0E0,0E0,0E0,0E0,0E0],"parents":[2147483647,0,0,1,1,2,2,3,3,4,4,5,5,6,6,7,7,8,8,9,9,10,10,11,11,12,12,13,13,14,14,15,15,19,19,20,20,22,22,23,23,24,24,26,26,27,27,29,29,30,30,33,33,34,34,44,44,46,46,48,48,49,49],"right_children":[2,4,6,8,10,12,14,16,18,20,22,24,26,28,30,32,-1,-1,-1,34,36,-1,38,40,42,-1,44,46,-1,48,50,-1,-1,52,54,-1,-1,-1,-1,-1,-1,-1,-1,-1,56,-1,58,-1,60,62,-1,-1,-1,-1,-1,-1,-1,-1,-1,-1,-1,-1,-1],"split_conditions":[0E0,-5E0,4E0,6.837153E0,1.87E1,7E0,6E0,1.725E1,4.3E0,5.432692E-2,1.7676767E-2,1.3333334E0,-4.2E0,2E0,-3.8E0,1E-1,4.542869E-2,-4.77127E-2,-7.824748E-3,-2.5E-2,9E0,4.5316424E-2,4.3666667E-1,5.28E-1,5E-1,-2.3745552E-2,-1.097E-1,1.31E1,-4.8866555E-2,3E0,4.4E1,-2.2791365E-2,2.1512987E-2,1.1139845E-1,5E-2,4.120336E-2,-3.729618E-2,-4.6864673E-2,3.1501278E-3,-3.5540487E-3,3.6270063E-2,-1.1998616E-2,-4.8927475E-2,-1.7929634E-2,1.75E-1,-2.1200895E-2,4.6E1,2.3633724E-2,-5.133333E0,5E-2,-1.9617882E-2,-2.3509439E-3,-3.415512E-2,-4.8942976E-2,-3.8057756E-2,4.4207767E-2,2.138926E-2,-3.0528678E-4,3.9373852E-2,-4.4508435E-2,-2.4718015E-2,4.2675417E-2,3.6506595E-3],"split_indices":[235,250,250,2,98,241,235,227,106,207,59,37,71,185,106,73,0,0,0,103,240,0,107,163,209,0,67,30,0,37,182,0,0,59,103,0,0,0,0,0,0,0,0,0,103,0,43,0,70,103,0,0,0,0,0,0,0,0,0,0,0,0,0],"split_type":[0,0,0,0,0,0,0,0,0,0,0,0,0,0,0,0,0,0,0,0,0,0,0,0,0,0,0,0,0,0,0,0,0,0,0,0,0,0,0,0,0,0,0,0,0,0,0,0,0,0,0,0,0,0,0,0,0,0,0,0,0,0,0],"sum_hessian":[3.0038396E3,1.4131493E3,1.5906902E3,1.8308214E2,1.2300671E3,1.1603942E3,4.302961E2,1.2450646E2,5.8575672E1,1.0984838E3,1.3158336E2,8.317437E1,1.0772197E3,2.0359344E2,2.2670267E2,3.2639034E1,9.186743E1,4.8559E1,1.0016675E1,1.0536793E3,4.480445E1,6.5249565E1,6.6333786E1,3.951843E1,4.3655945E1,1.9032553E1,1.0581871E3,6.713446E1,1.3645898E2,3.574794E1,1.9095471E2,1.5597181E1,1.7041855E1,7.935348E1,9.7432587E2,2.3096664E1,2.1707787E1,5.1980198E1,1.4353587E1,1.3050551E1,2.6467878E1,1.5932205E1,2.772374E1,1.0319491E1,1.0478677E3,1.9320475E1,4.7813988E1,1.0843228E1,2.4904715E1,1.7984708E2,1.1107647E1,3.9012142E1,4.0341335E1,8.14075E2,1.6025087E2,9.656576E2,8.2210106E1,1.5636641E1,3.2177345E1,1.4840868E1,1.0063846E1,1.6568518E2,1.4161887E1],"tree_param":{"num_deleted":"0","num_feature":"255","num_nodes":"63","size_leaf_vector":"1"}},{"base_weights":[-1.283112E-2,1.1134976E0,-9.178917E-1,-7.175E-1,1.2599306E0,-1.2582288E0,1.3038492E-1,-1.4172661E0,1.3406855E0,8.390357E-1,1.6715631E0,-1.4119415E0,1.1063447E0,7.912045E-1,-8.367275E-1,1.710232E-2,-1.7683861E0,1.7744193E-2,4.122265E-2,-1.1370624E0,1.0259613E0,1.088618E-2,1.7050507E0,-1.566401E0,-6.7922687E-3,1.6014789E0,-2.593636E-2,-8.358778E-1,1.2466639E0,5.470422E-1,-1.5638081E0,-3.0510023E-2,-4.7412757E-2,-1.6603209E0,5.5876207E-3,-6.340554E-1,1.258964E0,1.3612896E0,4.4957153E-2,-1.6255125E0,4.3183157E-1,1.021165E0,-4.5230687E-2,2.096059E-2,4.4289224E-2,-1.5218939E0,4.4448826E-2,1.4961646E0,-4.3375924E-2,-6.20789E-1,1.5153497E0,4.832751E-3,-1.8304266E0,-2.5008354E-2,-4.7015958E-2,-3.6243733E-2,3.3009652E-2,3.536683E-2,-1.4693941E-2,-3.4010687E-3,3.8622566E-2,-4.1951638E-2,1.0685325E-2,-1.2864559E-2,2.5804335E-2,-3.128596E-2,4.2288523E-2,-2.023657E-2,-4.4854637E-2,2.7987732E-2,-2.7840583E-2,4.115531E-2,1.8968178E-3,1.121423E-2,-3.7123024E-2,4.2440984E-2,2.4630882E-2,-2.4283966E-2,-4.7911577E-2],"categories":[],"categories_nodes":[],"categories_segments":[],"categories_sizes":[],"default_left":[0,0,0,0,0,0,0,0,0,0,0,0,0,0,0,0,0,0,0,0,0,0,0,0,0,0,0,0,0,0,0,0,0,0,0,0,0,0,0,0,0,0,0,0,0,0,0,0,0,0,0,0,0,0,0,0,0,0,0,0,0,0,0,0,0,0,0,0,0,0,0,0,0,0,0,0,0,0,0],"id":3,"left_children":[1,3,5,7,9,11,13,15,17,19,21,23,25,27,29,-1,31,-1,-1,33,35,-1,37,39,41,43,-1,45,47,49,51,-1,-1,53,-1,55,57,59,-1,61,63,65,-1,-1,-1,67,69,71,-1,73,75,-1,77,-1,-1,-1,-1,-1,-1,-1,-1,-1,-1,-1,-1,-1,-1,-1,-1,-1,-1,-1,-1,-1,-1,-1,-1,-1,-1],"loss_changes":[3.10039E3,3.6476074E2,6.0214197E2,1.486101E2,2.1487817E2,4.652406E2,2.6591684E2,5.8342697E1,2.9014816E0,2.3219125E2,2.4655762E1,2.5933716E2,8.591769E1,1.8481314E2,1.7140112E2,0E0,5.3125E-1,0E0,0E0,3.9670334E1,2.2213104E2,0E0,1.5423706E1,1.2859839E2,2.2549825E2,5.6118927E0,0E0,3.3526806E1,1.4802728E2,6.852083E1,5.295056E1,0E0,0E0,2.3705597E0,0E0,1.16339966E2,1.4553888E2,3.8524307E1,0E0,1.1430884E2,1.9112911E1,1.2115928E2,0E0,0E0,0E0,3.3148422E0,3.3439598E1,3.7766754E1,0E0,2.6895653E1,1.3265228E-1,0E0,3.7837524E0,0E0,0E0,0E0,0E0,0E0,0E0,0E0,0E0,0E0,0E0,0E0,0E0,0E0,0E0,0E0,0E0,0E0,0E0,0E0,0E0,0E0,0E0,0E0,0E0,0E0,0E0],"parents":[2147483647,0,0,1,1,2,2,3,3,4,4,5,5,6,6,7,7,8,8,9,9,10,10,11,11,12,12,13,13,14,14,16,16,19,19,20,20,22,22,23,23,24,24,25,25,27,27,28,28,29,29,30,30,33,33,35,35,36,36,37,37,39,39,40,40,41,41,45,45,46,46,47,47,49,49,50,50,52,52],"right_children":[2,4,6,8,10,12,14,16,18,20,22,24,26,28,30,-1,32,-1,-1,34,36,-1,38,40,42,44,-1,46,48,50,52,-1,-1,54,-1,56,58,60,-1,62,64,66,-1,-1,-1,68,70,72,-1,74,76,-1,78,-1,-1,-1,-1,-1,-1,-1,-1,-1,-1,-1,-1,-1,-1,-1,-1,-1,-1,-1,-1,-1,-1,-1,-1,-1,-1],"split_conditions":[9E0,-9.9E0,9.7E-2,-3.2E0,7E0,5.350476E-2,2E0,-2.21E-2,4.7189026E0,-7.5E0,1E1,5E0,7.95E-1,8.428572E0,2.34375E-1,1.710232E-2,-5.9E0,1.7744193E-2,4.122265E-2,6.428571E0,2.4E1,1.088618E-2,3.8924947E0,1E0,1.83E0,2E0,-2.593636E-2,4.6E0,1.909091E1,2.83E1,5.25E0,-3.0510023E-2,-4.7412757E-2,4.1E0,5.5876207E-3,6.4E-3,8E0,-5.04E-2,4.4957153E-2,5.2E0,6.1868686E-2,-3.7E0,-4.5230687E-2,2.096059E-2,4.4289224E-2,2.51E1,8E0,9.571428E0,-4.3375924E-2,1.9E1,4.125E0,4.832751E-3,2.2222222E-1,-2.5008354E-2,-4.7015958E-2,-3.6243733E-2,3.3009652E-2,3.536683E-2,-1.4693941E-2,-3.4010687E-3,3.8622566E-2,-4.1951638E-2,1.0685325E-2,-1.2864559E-2,2.5804335E-2,-3.128596E-2,4.2288523E-2,-2.023657E-2,-4.4854637E-2,2.7987732E-2,-2.7840583E-2,4.115531E-2,1.8968178E-3,1.121423E-2,-3.7123024E-2,4.2440984E-2,2.4630882E-2,-2.4283966E-2,-4.7911577E-2],"split_indices":[240,68,100,106,0,212,252,77,1,50,241,70,141,134,218,0,108,0,0,245,10,0,1,180,45,224,0,11,246,10,196,0,0,11,0,88,240,67,0,93,59,106,0,0,0,10,50,145,0,240,127,0,20,0,0,0,0,0,0,0,0,0,0,0,0,0,0,0,0,0,0,0,0,0,0,0,0,0,0],"split_type":[0,0,0,0,0,0,0,0,0,0,0,0,0,0,0,0,0,0,0,0,0,0,0,0,0,0,0,0,0,0,0,0,0,0,0,0,0,0,0,0,0,0,0,0,0,0,0,0,0,0,0,0,0,0,0,0,0,0,0,0,0,0,0,0,0,0,0,0,0,0,0,0,0,0,0,0,0,0,0],"sum_hessian":[3.038434E3,1.3534846E3,1.6849495E3,9.9694084E1,1.2537905E3,1.2719003E3,4.1304916E2,7.482013E1,2.4873957E1,6.2241437E2,6.3137616E2,1.1949121E3,7.698818E1,2.4566681E2,1.6738237E2,1.0426749E1,6.439338E1,1.0002411E1,1.4871547E1,5.3036854E1,5.693775E2,1.7364988E1,6.1401117E2,1.0762878E3,1.18624245E2,6.29272E1,1.4060985E1,5.3358177E1,1.9230862E2,5.76879E1,1.09694466E2,1.5490294E1,4.8903084E1,3.8172626E1,1.4864226E1,6.965851E1,4.9971902E2,1.3645271E2,4.7755847E2,1.0457329E3,3.0554886E1,7.588503E1,4.2739212E1,1.3305602E1,4.9621597E1,2.9502022E1,2.3856157E1,1.7821083E2,1.4097795E1,2.6300215E1,3.1387686E1,1.4407277E1,9.5287186E1,1.1860752E1,2.6311874E1,4.9492348E1,2.0166157E1,4.6128436E2,3.843465E1,1.4828463E1,1.2162425E2,1.0199934E3,2.5739553E1,1.1813123E1,1.8741762E1,1.6921595E1,5.8963436E1,1.0008693E1,1.9493328E1,1.2486941E1,1.1369216E1,1.6083942E2,1.7371418E1,1.1973269E1,1.4326945E1,2.0617203E1,1.0770484E1,1.0564197E1,8.472299E1],"tree_param":{"num_deleted":"0","num_feature":"255","num_nodes":"79","size_leaf_vector":"1"}},{"base_weights":[5.7982832E-2,-1.2247195E0,9.5326424E-1,-9.510611E-2,-1.6699585E0,-6.578648E-2,1.3819339E0,8.2331294E-1,-1.7294761E0,-1.7396176E0,-1.0844662E-1,-9.975255E-1,1.1954436E0,1.4498138E0,-1.3904003E0,-3.176677E-1,1.6357428E0,-9.999852E-3,-4.653736E-2,-1.1662422E0,-1.8421291E0,-2.6523171E-2,6.983851E-1,-1.435327E0,3.7015805E-1,1.5839361E0,-7.738881E-1,1.5275123E0,-1.8816245E-1,-1.6586388E-2,-4.412589E-2,-9.381264E-1,6.866521E-1,1.3078392E-2,4.478748E-2,-1.5060308E0,2.0845158E-2,-4.686764E-2,-1.3128798E0,1.609908E-5,3.19776E-2,-1.2470354E-1,-1.7051402E0,1.247569E0,-3.8265403E-2,-0E0,1.7434596E0,-4.54525E-2,1.565806E-2,2.0929357E-1,1.6038318E0,-1.0730287E0,4.1030884E-2,-3.1830493E-2,1.3086808E-2,-7.5162263E-3,3.3795588E-2,-1.7431106E-2,-4.4457395E-2,-3.8897943E-2,-1.0031616E-2,-3.536344E-2,2.6889464E-2,-4.6035208E-2,-1.1239318E-2,8.173895E-3,4.191531E-2,4.464707E-2,2.3115687E-2,1.8645655E-2,-2.682108E-2,4.132172E-2,-6.586009E-3,-4.1822456E-2,1.2211286E-2],"categories":[],"categories_nodes":[],"categories_segments":[],"categories_sizes":[],"default_left":[0,0,0,0,0,0,0,0,0,0,0,0,0,0,0,0,0,0,0,0,0,0,0,0,0,0,0,0,0,0,0,0,0,0,0,0,0,0,0,0,0,0,0,0,0,0,0,0,0,0,0,0,0,0,0,0,0,0,0,0,0,0,0,0,0,0,0,0,0,0,0,0,0,0,0],"id":4,"left_children":[1,3,5,7,9,11,13,15,17,19,21,23,25,27,29,31,33,-1,-1,35,37,-1,39,41,43,45,47,49,51,-1,-1,53,55,-1,-1,57,-1,-1,59,-1,-1,61,63,65,-1,-1,67,-1,-1,69,71,73,-1,-1,-1,-1,-1,-1,-1,-1,-1,-1,-1,-1,-1,-1,-1,-1,-1,-1,-1,-1,-1,-1,-1],"loss_changes":[3.3683374E3,6.057855E2,7.550333E2,5.165349E2,9.338989E1,6.043662E2,2.3190625E2,2.0522086E2,2.016156E1,4.4809814E1,3.08813E1,1.7814883E2,1.6914545E2,1.5188501E2,5.8630714E0,5.882041E1,2.0486816E1,0E0,0E0,9.028345E1,7.7229004E0,0E0,8.540475E0,7.8710175E1,1.2424937E2,4.6120514E1,5.592708E1,1.1326245E2,9.1588394E1,0E0,0E0,2.9603474E1,2.4571241E1,0E0,0E0,2.2228348E1,0E0,0E0,8.840256E0,0E0,0E0,6.439247E1,3.011383E1,1.8809914E1,0E0,0E0,2.7563782E0,0E0,0E0,4.5128E1,9.908569E1,3.7114647E1,0E0,0E0,0E0,0E0,0E0,0E0,0E0,0E0,0E0,0E0,0E0,0E0,0E0,0E0,0E0,0E0,0E0,0E0,0E0,0E0,0E0,0E0,0E0],"parents":[2147483647,0,0,1,1,2,2,3,3,4,4,5,5,6,6,7,7,8,8,9,9,10,10,11,11,12,12,13,13,14,14,15,15,16,16,19,19,20,20,22,22,23,23,24,24,25,25,26,26,27,27,28,28,31,31,32,32,35,35,38,38,41,41,42,42,43,43,46,46,49,49,50,50,51,51],"right_children":[2,4,6,8,10,12,14,16,18,20,22,24,26,28,30,32,34,-1,-1,36,38,-1,40,42,44,46,48,50,52,-1,-1,54,56,-1,-1,58,-1,-1,60,-1,-1,62,64,66,-1,-1,68,-1,-1,70,72,74,-1,-1,-1,-1,-1,-1,-1,-1,-1,-1,-1,-1,-1,-1,-1,-1,-1,-1,-1,-1,-1,-1,-1],"split_conditions":[-7.4658584E-4,-3E0,1E1,6.837153E0,3.925E-2,3.7E0,4.5E1,3.75E0,3.125E-1,2.990625E0,6E-1,8E0,1.1E-2,4.745E1,8E-1,1E-1,2.475E1,-9.999852E-3,-4.653736E-2,1.2E1,-5.4516506E-1,-2.6523171E-2,4.255E1,4E-1,6E0,-4.3E0,-1.7797552E-2,-4.5E-1,9.260417E0,-1.6586388E-2,-4.412589E-2,4.7E1,5.570292E0,1.3078392E-2,4.478748E-2,8.82353E-2,2.0845158E-2,-4.686764E-2,-2E-1,1.609908E-5,3.19776E-2,-8E0,6.428571E0,1E0,-3.8265403E-2,-0E0,1.3428572E1,-4.54525E-2,1.565806E-2,1E0,5E0,3.634E-1,4.1030884E-2,-3.1830493E-2,1.3086808E-2,-7.5162263E-3,3.3795588E-2,-1.7431106E-2,-4.4457395E-2,-3.8897943E-2,-1.0031616E-2,-3.536344E-2,2.6889464E-2,-4.6035208E-2,-1.1239318E-2,8.173895E-3,4.191531E-2,4.464707E-2,2.3115687E-2,1.8645655E-2,-2.682108E-2,4.132172E-2,-6.586009E-3,-4.1822456E-2,1.2211286E-2],"split_indices":[239,251,241,2,101,162,182,230,31,2,108,241,104,28,153,73,197,0,0,241,239,0,28,93,251,105,206,109,2,0,0,155,248,0,0,193,0,0,106,0,0,90,245,179,0,0,245,0,0,5,244,12,0,0,0,0,0,0,0,0,0,0,0,0,0,0,0,0,0,0,0,0,0,0,0],"split_type":[0,0,0,0,0,0,0,0,0,0,0,0,0,0,0,0,0,0,0,0,0,0,0,0,0,0,0,0,0,0,0,0,0,0,0,0,0,0,0,0,0,0,0,0,0,0,0,0,0,0,0,0,0,0,0,0,0,0,0,0,0,0,0,0,0,0,0,0,0,0,0,0,0,0,0],"sum_hessian":[2.9301443E3,1.2041455E3,1.7259988E3,3.4107513E2,8.6307043E2,5.1130563E2,1.2146931E3,2.1876447E2,1.2231066E2,8.259267E2,3.7143753E1,2.9433594E2,2.1696971E2,1.1864313E3,2.8261806E1,9.12624E1,1.27502075E2,1.1731273E1,1.1057939E2,1.2837968E2,6.97547E2,1.69314E1,2.021235E1,2.230187E2,7.131723E1,1.8155019E2,3.5419525E1,1.1329141E3,5.3517246E1,1.1206635E1,1.7055172E1,5.6595974E1,3.4666424E1,1.6617954E1,1.1088412E2,1.101387E2,1.8240978E1,6.531528E2,4.439423E1,1.0019663E1,1.0192689E1,3.857487E1,1.8444383E2,4.9218376E1,2.2098854E1,1.679207E1,1.6475812E2,2.0114346E1,1.5305181E1,6.2452095E1,1.0704619E3,3.6561985E1,1.695526E1,4.630909E1,1.0286885E1,1.41641655E1,2.0502258E1,2.9268885E1,8.086982E1,3.403966E1,1.0354567E1,1.8545057E1,2.0029816E1,1.6561075E2,1.8833086E1,1.6634468E1,3.2583908E1,1.5472607E2,1.0032047E1,4.458017E1,1.7871923E1,1.0433418E3,2.71202E1,2.6429638E1,1.0132348E1],"tree_param":{"num_deleted":"0","num_feature":"255","num_nodes":"75","size_leaf_vector":"1"}},{"base_weights":[3.4825705E-2,-1.3715392E0,9.474378E-1,-1.5261632E0,4.711835E-1,-1.3258706E-1,1.3405696E0,-4.4579217E-1,-1.6779187E0,1.3381692E0,-4.259434E-2,6.362027E-1,-1.1127872E0,1.5699927E0,5.9189606E-1,8.867839E-1,-1.5800582E0,-4.372232E-1,-1.7527357E0,4.1970722E-2,-1.3446354E-3,-1.3659818E0,9.6888113E-1,2.8341907E-1,-1.7474352E0,1.1240398E0,1.6992825E0,-1.0559375E0,1.2235659E0,-3.2224226E-1,1.4750905E0,-8.896234E-3,-4.4076536E-2,1.6342726E-2,-9.8403645E-1,-1.7921356E0,7.4947416E-4,-7.928832E-3,-4.3422103E-2,1.1704497E0,-3.23318E-2,-7.4527544E-1,1.1069651E0,-2.5151024E-2,-4.5538712E-2,6.081425E-1,1.6657726E0,-9.298818E-3,4.3216188E-2,7.0476156E-1,-4.6034053E-2,1.3752115E0,-3.6816042E-2,-2.9195387E-2,1.298401E-2,4.2651784E-2,1.7557763E-2,-1.374533E-4,-3.3516355E-2,-4.6030175E-2,-3.633753E-2,3.5698503E-2,-4.258822E-3,-3.664302E-2,-1.8885985E-3,5.6199827E-3,3.720687E-2,2.1886172E-2,-1.6816147E-2,4.3067154E-2,2.5529807E-2,-1.1847681E-2,3.5356946E-2,3.9792694E-2,-1.1743578E-2],"categories":[],"categories_nodes":[],"categories_segments":[],"categories_sizes":[],"default_left":[0,0,0,0,0,0,0,0,0,0,0,0,0,0,0,0,0,0,0,0,0,0,0,0,0,0,0,0,0,0,0,0,0,0,0,0,0,0,0,0,0,0,0,0,0,0,0,0,0,0,0,0,0,0,0,0,0,0,0,0,0,0,0,0,0,0,0,0,0,0,0,0,0,0,0],"id":5,"left_children":[1,3,5,7,9,11,13,15,17,19,-1,21,23,25,27,29,31,33,35,-1,-1,37,39,41,43,45,47,49,51,53,55,-1,-1,-1,57,59,-1,-1,-1,61,-1,63,65,-1,-1,67,69,-1,-1,71,-1,73,-1,-1,-1,-1,-1,-1,-1,-1,-1,-1,-1,-1,-1,-1,-1,-1,-1,-1,-1,-1,-1,-1,-1],"loss_changes":[3.84595E3,3.3728247E2,7.721482E2,1.7689526E2,1.7745802E2,3.6755597E2,2.2707397E2,2.0819038E2,8.693286E1,3.2194725E1,0E0,1.8396997E2,1.9100061E2,5.5319824E1,3.300587E2,4.613161E1,1.5264069E1,3.466722E1,6.3559082E1,0E0,0E0,1.4122093E1,1.0956195E2,5.907681E1,4.8011475E0,6.3366364E1,4.9081543E1,1.2395439E2,9.6500946E1,1.663485E1,5.4171295E0,0E0,0E0,0E0,1.3078247E1,9.940674E0,0E0,0E0,0E0,7.552261E1,0E0,1.4534527E1,1.2133499E1,0E0,0E0,4.2796104E1,9.5751953E-1,0E0,0E0,2.4752794E1,0E0,8.814465E1,0E0,0E0,0E0,0E0,0E0,0E0,0E0,0E0,0E0,0E0,0E0,0E0,0E0,0E0,0E0,0E0,0E0,0E0,0E0,0E0,0E0,0E0,0E0],"parents":[2147483647,0,0,1,1,2,2,3,3,4,4,5,5,6,6,7,7,8,8,9,9,11,11,12,12,13,13,14,14,15,15,16,16,17,17,18,18,21,21,22,22,23,23,24,24,25,25,26,26,27,27,28,28,29,29,30,30,34,34,35,35,39,39,41,41,42,42,45,45,46,46,49,49,51,51],"right_children":[2,4,6,8,10,12,14,16,18,20,-1,22,24,26,28,30,32,34,36,-1,-1,38,40,42,44,46,48,50,52,54,56,-1,-1,-1,58,60,-1,-1,-1,62,-1,64,66,-1,-1,68,70,-1,-1,72,-1,74,-1,-1,-1,-1,-1,-1,-1,-1,-1,-1,-1,-1,-1,-1,-1,-1,-1,-1,-1,-1,-1,-1,-1],"split_conditions":[-2E0,3.02E1,1E1,-5E0,6.75E0,3E0,4E0,9E0,3E0,4E0,-4.259434E-2,2.34E1,2.2E-1,2.4494898E0,5E0,2.0588236E-1,-0E0,4.18E1,4.3E-2,4.1970722E-2,-1.3446354E-3,6.03E-1,5.0769234E-1,7E-1,1.7E0,9.6E0,-1.071E-1,5E0,4.5E1,3.8E0,3.744E-1,-8.896234E-3,-4.4076536E-2,1.6342726E-2,-2.5E-2,-2.4494898E0,7.4947416E-4,-7.928832E-3,-4.3422103E-2,1.25E-1,-3.23318E-2,1E0,7.5E1,-2.5151024E-2,-4.5538712E-2,3E1,5.263158E-1,-9.298818E-3,4.3216188E-2,4.6E0,-4.6034053E-2,2.5E-1,-3.6816042E-2,-2.9195387E-2,1.298401E-2,4.2651784E-2,1.7557763E-2,-1.374533E-4,-3.3516355E-2,-4.6030175E-2,-3.633753E-2,3.5698503E-2,-4.258822E-3,-3.664302E-2,-1.8885985E-3,5.6199827E-3,3.720687E-2,2.1886172E-2,-1.6816147E-2,4.3067154E-2,2.5529807E-2,-1.1847681E-2,3.5356946E-2,3.9792694E-2,-1.1743578E-2],"split_indices":[235,21,241,251,2,251,251,0,2,149,0,148,189,237,0,219,103,39,101,0,0,172,189,105,161,162,67,190,182,98,34,0,0,0,103,237,0,0,0,103,0,235,254,0,0,182,31,0,0,90,0,103,0,0,0,0,0,0,0,0,0,0,0,0,0,0,0,0,0,0,0,0,0,0,0],"split_type":[0,0,0,0,0,0,0,0,0,0,0,0,0,0,0,0,0,0,0,0,0,0,0,0,0,0,0,0,0,0,0,0,0,0,0,0,0,0,0,0,0,0,0,0,0,0,0,0,0,0,0,0,0,0,0,0,0,0,0,0,0,0,0,0,0,0,0,0,0,0,0,0,0,0,0],"sum_hessian":[2.9935825E3,1.1777139E3,1.8158687E3,1.0868793E3,9.083454E1,4.8471863E2,1.3311501E3,1.3475574E2,9.5212354E2,6.542412E1,2.5410429E1,2.7183533E2,2.1288329E2,1.01745044E3,3.1369965E2,6.2030758E1,7.272498E1,5.4885925E1,8.972376E2,5.242776E1,1.2996353E1,3.798244E1,2.3385289E2,6.66876E1,1.4619568E2,2.3229498E2,7.8515546E2,8.656192E1,2.2713773E2,2.0414806E1,4.161595E1,1.0174147E1,6.2550835E1,1.8105381E1,3.6780544E1,8.7793854E2,1.9299116E1,1.0790677E1,2.7191765E1,2.1546614E2,1.8386755E1,2.960615E1,3.7081448E1,1.5518269E1,1.3067741E2,1.20804634E2,1.1149036E2,1.063608E1,7.7451935E2,2.6671467E1,5.9890457E1,2.1580885E2,1.1328862E1,1.00119E1,1.0402906E1,3.0445538E1,1.1170412E1,1.0380635E1,2.639991E1,7.6049005E2,1.17448494E2,1.8079718E2,3.4668964E1,1.3260318E1,1.634583E1,1.2068835E1,2.5012611E1,1.0046761E2,2.0337019E1,9.9854485E1,1.1635867E1,1.0103487E1,1.656798E1,1.9342563E2,2.2383236E1],"tree_param":{"num_deleted":"0","num_feature":"255","num_nodes":"75","size_leaf_vector":"1"}},{"base_weights":[-4.548853E-3,-1.1905525E0,9.795044E-1,7.047752E-1,-1.4302033E0,-1.2666366E-1,1.3363723E0,1.5312505E0,-1.2679087E0,-1.5954181E0,1.8266356E-1,5.761036E-1,-1.2083466E0,1.4138854E0,-1.1648797E0,4.659315E-3,4.2812914E-2,-1.9925262E-3,-4.2118426E-2,-6.4744204E-1,-1.6764675E0,1.5250698E0,-1.5179172E0,7.7489635E-4,1.3060704E0,8.0150396E-1,-1.5664434E0,9.793142E-2,1.5026591E0,6.5123695E-3,-4.4777688E-2,-9.7774345E-1,1.9917024E-2,-1.7539431E0,-8.9091116E-1,4.0826812E-2,2.444004E-2,-1.29296975E-2,-4.3581482E-2,-2.7671692E-1,1.2488831E0,-1.3559054E-2,1.5285999E0,-6.293792E-3,3.9051693E-2,7.989378E-3,-1.7743722E0,3.2866467E-2,-3.8079044E-1,1.5400629E0,-2.8024593E-2,7.398938E-3,-2.9911492E-2,-1.6815422E-2,-4.4251915E-2,-3.741722E-2,3.548432E-2,-1.3770667E-2,2.3971623E-2,3.8823165E-2,1.6891846E-2,4.2122804E-2,1.2529655E-2,-4.6188798E-2,-2.0903356E-2,2.0086875E-2,-2.1677135E-2,-6.24722E-3,3.957924E-2],"categories":[],"categories_nodes":[],"categories_segments":[],"categories_sizes":[],"default_left":[0,0,0,0,0,0,0,0,0,0,0,0,0,0,0,0,0,0,0,0,0,0,0,0,0,0,0,0,0,0,0,0,0,0,0,0,0,0,0,0,0,0,0,0,0,0,0,0,0,0,0,0,0,0,0,0,0,0,0,0,0,0,0,0,0,0,0,0,0],"id":6,"left_children":[1,3,5,7,9,11,13,15,17,19,21,23,25,27,29,-1,-1,-1,-1,31,33,35,37,39,41,43,45,47,49,-1,-1,51,-1,53,55,-1,-1,-1,-1,57,59,-1,61,-1,-1,-1,63,-1,65,67,-1,-1,-1,-1,-1,-1,-1,-1,-1,-1,-1,-1,-1,-1,-1,-1,-1,-1,-1],"loss_changes":[3.4610764E3,6.12516E2,6.402617E2,2.5057251E2,3.1901514E2,3.0261658E2,2.4014185E2,2.5416458E1,2.2025703E1,8.1176025E1,2.596631E2,1.0106807E2,1.1486621E2,1.3842236E2,3.4554348E1,0E0,0E0,0E0,0E0,4.3179913E1,5.7822266E1,8.3950806E-1,9.514282E0,4.8018272E1,4.512172E1,2.0570612E1,5.355478E1,4.5742054E1,1.1200537E2,0E0,0E0,2.0881699E1,0E0,1.3530518E1,1.3308626E2,0E0,0E0,0E0,0E0,3.8927814E1,2.3804283E0,0E0,1.3596649E1,0E0,0E0,0E0,5.433777E0,0E0,3.345042E1,8.566968E1,0E0,0E0,0E0,0E0,0E0,0E0,0E0,0E0,0E0,0E0,0E0,0E0,0E0,0E0,0E0,0E0,0E0,0E0,0E0],"parents":[2147483647,0,0,1,1,2,2,3,3,4,4,5,5,6,6,7,7,8,8,9,9,10,10,11,11,12,12,13,13,14,14,19,19,20,20,21,21,22,22,23,23,24,24,25,25,26,26,27,27,28,28,31,31,33,33,34,34,39,39,40,40,42,42,46,46,48,48,49,49],"right_children":[2,4,6,8,10,12,14,16,18,20,22,24,26,28,30,-1,-1,-1,-1,32,34,36,38,40,42,44,46,48,50,-1,-1,52,-1,54,56,-1,-1,-1,-1,58,60,-1,62,-1,-1,-1,64,-1,66,68,-1,-1,-1,-1,-1,-1,-1,-1,-1,-1,-1,-1,-1,-1,-1,-1,-1,-1,-1],"split_conditions":[-1E0,-6E0,1E1,7.2727275E0,1.91E1,6.75E0,4.5E1,1.725E1,-1.4E0,-2.5E-2,1.3636364E-1,8.2E0,1E0,-4.5E-1,2.3E1,4.659315E-3,4.2812914E-2,-1.9925262E-3,-4.2118426E-2,5.3333335E0,3.5E1,7E0,8E0,6E0,-1.5E-1,2.7272728E1,1E0,-2.21E-2,1.8E1,6.5123695E-3,-4.4777688E-2,-7.8E0,1.9917024E-2,1.6E1,4.174397E-2,4.0826812E-2,2.444004E-2,-1.29296975E-2,-4.3581482E-2,5.3333335E0,1.145E2,-1.3559054E-2,3.45E0,-6.293792E-3,3.9051693E-2,7.989378E-3,8E0,3.2866467E-2,7.65E-1,-9.9E0,-2.8024593E-2,7.398938E-3,-2.9911492E-2,-1.6815422E-2,-4.4251915E-2,-3.741722E-2,3.548432E-2,-1.3770667E-2,2.3971623E-2,3.8823165E-2,1.6891846E-2,4.2122804E-2,1.2529655E-2,-4.6188798E-2,-2.0903356E-2,2.0086875E-2,-2.1677135E-2,-6.24722E-3,3.957924E-2],"split_indices":[235,250,241,246,162,202,182,197,37,103,188,162,250,109,184,0,0,0,0,11,182,182,220,200,97,59,176,77,240,0,0,90,0,159,207,0,0,0,0,92,16,0,99,0,0,0,215,0,14,167,0,0,0,0,0,0,0,0,0,0,0,0,0,0,0,0,0,0,0],"split_type":[0,0,0,0,0,0,0,0,0,0,0,0,0,0,0,0,0,0,0,0,0,0,0,0,0,0,0,0,0,0,0,0,0,0,0,0,0,0,0,0,0,0,0,0,0,0,0,0,0,0,0,0,0,0,0,0,0,0,0,0,0,0,0,0,0,0,0,0,0],"sum_hessian":[2.9625242E3,1.343362E3,1.6191622E3,1.5037161E2,1.1929904E3,3.9504993E2,1.2241123E3,1.0628113E2,4.409048E1,1.082268E3,1.10722435E2,2.3978093E2,1.55269E2,1.1880277E3,3.608462E1,1.3115809E1,9.316532E1,1.2038957E1,3.205152E1,8.649925E1,9.957687E2,6.2029743E1,4.869269E1,1.3508682E2,1.0469411E2,2.311547E1,1.3215352E2,7.5420815E1,1.1126069E3,1.1184326E1,2.4900293E1,7.090476E1,1.5594495E1,9.0446234E2,9.130638E1,4.9019585E1,1.3010161E1,1.0020877E1,3.8671818E1,1.1133984E2,2.3746984E1,1.0921382E1,9.377273E1,1.0003205E1,1.3112265E1,1.2947345E1,1.19206184E2,2.0673985E1,5.474683E1,1.097654E3,1.4952915E1,1.0179567E1,6.0725193E1,1.4419873E1,8.900425E2,7.282564E1,1.848074E1,9.1937065E1,1.9402775E1,1.3613428E1,1.0133556E1,8.038781E1,1.3384916E1,1.0903487E2,1.0171311E1,1.5532115E1,3.9214714E1,2.5534332E1,1.0721196E3],"tree_param":{"num_deleted":"0","num_feature":"255","num_nodes":"69","size_leaf_vector":"1"}},{"base_weights":[-1.5949165E-2,-1.2825375E0,8.689688E-1,-3.8828924E-1,-1.6168382E0,-1.5480739E-1,1.2947228E0,-1.6875174E0,3.5141367E-1,-1.6847353E0,-6.358226E-1,-9.786678E-1,1.0794048E0,1.5215576E0,5.7321787E-1,-4.4006977E-2,-1.9173412E-2,-6.855772E-1,1.3502048E0,-1.7156122E0,1.4676867E-4,1.7168693E-2,-9.931959E-1,-5.3527113E-2,-1.49311E0,-9.8501104E-1,1.4372137E0,1.5756266E0,-2.4817398E-2,-6.2931734E-1,1.0908378E0,-4.16211E-2,-1.9849734E-1,-3.065738E-2,4.2651292E-2,-1.7613341E0,-1.2120477E0,-3.9066844E-2,-8.454024E-4,-1.0463305E0,4.6786222E-1,1.4505153E-2,-1.6066709E0,2.067021E-3,-4.2719312E-2,1.5823607E0,-2.1797983E-2,1.6345145E0,8.328374E-1,-1.4430128E0,3.9653607E-2,-8.257882E-2,1.4590479E0,-2.7521307E-2,7.1635516E-3,-1.5775021E-2,-4.4415183E-2,-1.2884996E-2,-3.786301E-2,-3.8558457E-2,4.157352E-3,2.7019098E-2,-9.221233E-3,-4.2617965E-2,-2.9631676E-3,4.3072607E-3,4.2037204E-2,3.389054E-2,4.1999664E-2,-2.314198E-3,2.8074427E-2,9.883452E-4,-4.393621E-2,3.130868E-2,-2.7176434E-2,3.8436007E-2,6.4763515E-3],"categories":[],"categories_nodes":[],"categories_segments":[],"categories_sizes":[],"default_left":[0,0,0,0,0,0,0,0,0,0,0,0,0,0,0,0,0,0,0,0,0,0,0,0,0,0,0,0,0,0,0,0,0,0,0,0,0,0,0,0,0,0,0,0,0,0,0,0,0,0,0,0,0,0,0,0,0,0,0,0,0,0,0,0,0,0,0,0,0,0,0,0,0,0,0,0,0],"id":7,"left_children":[1,3,5,7,9,11,13,15,17,19,21,23,25,27,29,-1,-1,31,33,35,-1,-1,37,39,41,43,45,47,-1,49,51,-1,53,-1,-1,55,57,-1,-1,59,61,-1,63,-1,-1,65,-1,67,69,71,-1,73,75,-1,-1,-1,-1,-1,-1,-1,-1,-1,-1,-1,-1,-1,-1,-1,-1,-1,-1,-1,-1,-1,-1,-1,-1],"loss_changes":[3.398202E3,3.7146582E2,7.784547E2,3.2933078E2,5.8348633E1,5.358136E2,2.0462231E2,5.791565E0,2.2807455E2,4.4585205E1,3.0065842E1,1.4995087E2,1.5802988E2,1.3271387E2,1.9047076E2,0E0,0E0,5.0746937E1,1.0594185E2,1.5363525E1,0E0,0E0,2.6375153E1,6.017547E1,4.9367004E1,2.5240276E1,6.2700256E1,3.8520996E1,0E0,1.6992471E2,9.262564E1,0E0,3.3070885E1,0E0,0E0,1.0944824E1,1.410997E1,0E0,0E0,2.4754372E1,3.9739967E1,0E0,2.7466034E1,0E0,0E0,2.3014801E1,0E0,6.982666E0,1.9762127E1,3.233835E1,0E0,7.2059654E1,1.4337494E1,0E0,0E0,0E0,0E0,0E0,0E0,0E0,0E0,0E0,0E0,0E0,0E0,0E0,0E0,0E0,0E0,0E0,0E0,0E0,0E0,0E0,0E0,0E0,0E0],"parents":[2147483647,0,0,1,1,2,2,3,3,4,4,5,5,6,6,7,7,8,8,9,9,10,10,11,11,12,12,13,13,14,14,17,17,18,18,19,19,22,22,23,23,24,24,25,25,26,26,27,27,29,29,30,30,32,32,35,35,36,36,39,39,40,40,42,42,45,45,47,47,48,48,49,49,51,51,52,52],"right_children":[2,4,6,8,10,12,14,16,18,20,22,24,26,28,30,-1,-1,32,34,36,-1,-1,38,40,42,44,46,48,-1,50,52,-1,54,-1,-1,56,58,-1,-1,60,62,-1,64,-1,-1,66,-1,68,70,72,-1,74,76,-1,-1,-1,-1,-1,-1,-1,-1,-1,-1,-1,-1,-1,-1,-1,-1,-1,-1,-1,-1,-1,-1,-1,-1],"split_conditions":[-3.3333334E-1,-3E0,1E1,-1.2E2,1E-1,9.9E0,4E0,1.2E-2,1E1,5.652174E-1,-6.6E0,2.78E1,-8.75E-3,4.6E1,-1.5E0,-4.4006977E-2,-1.9173412E-2,-3.1754265E0,-5.05E0,-2.4494898E0,1.4676867E-4,1.7168693E-2,-1.8333334E0,-2.6571429E0,-1.8333334E-1,4.814815E-1,2.685E-2,1.75E-1,-2.4817398E-2,2.4E2,1.14E2,-4.16211E-2,-3.7E0,-3.065738E-2,4.2651292E-2,-1E0,3.0769232E-1,-3.9066844E-2,-8.454024E-4,-2.9E0,3E0,1.4505153E-2,2E0,2.067021E-3,-4.2719312E-2,5.3846157E-1,-2.1797983E-2,2.4494898E0,4E0,4.7560975E-1,3.9653607E-2,-2.4E0,7.638889E-2,-2.7521307E-2,7.1635516E-3,-1.5775021E-2,-4.4415183E-2,-1.2884996E-2,-3.786301E-2,-3.8558457E-2,4.157352E-3,2.7019098E-2,-9.221233E-3,-4.2617965E-2,-2.9631676E-3,4.3072607E-3,4.2037204E-2,3.389054E-2,4.1999664E-2,-2.314198E-3,2.8074427E-2,9.883452E-4,-4.393621E-2,3.130868E-2,-2.7176434E-2,3.8436007E-2,6.4763515E-3],"split_indices":[237,251,241,237,107,98,251,111,220,219,61,32,76,182,210,0,0,237,3,237,0,0,237,119,174,187,76,103,0,237,168,0,106,0,0,60,222,0,0,68,251,0,180,0,0,147,0,237,180,187,0,26,103,0,0,0,0,0,0,0,0,0,0,0,0,0,0,0,0,0,0,0,0,0,0,0,0],"split_type":[0,0,0,0,0,0,0,0,0,0,0,0,0,0,0,0,0,0,0,0,0,0,0,0,0,0,0,0,0,0,0,0,0,0,0,0,0,0,0,0,0,0,0,0,0,0,0,0,0,0,0,0,0,0,0,0,0,0,0,0,0,0,0,0,0,0,0,0,0,0,0,0,0,0,0,0,0],"sum_hessian":[3.028806E3,1.2455684E3,1.7832374E3,3.39977E2,9.055914E2,5.239125E2,1.259325E3,1.22740906E2,2.1723608E2,8.4577466E2,5.9816742E1,3.1447018E2,2.0944228E2,9.5662885E2,3.0269608E2,1.1228089E2,1.0460016E1,1.06712456E2,1.10523636E2,8.3069904E2,1.5075626E1,1.2311631E1,4.750511E1,1.1310823E2,2.0136197E2,3.0467648E1,1.7897462E2,9.371157E2,1.9513174E1,9.0872025E1,2.1182405E2,3.410574E1,7.260672E1,1.289882E1,9.762481E1,7.57754E2,7.294502E1,2.9087408E1,1.8417704E1,3.8559174E1,7.454906E1,1.004487E1,1.913171E2,1.2734313E1,1.7733334E1,1.6891568E2,1.0058958E1,8.6636115E2,7.075456E1,6.6910416E1,2.3961613E1,5.0741337E1,1.6108272E2,2.4862001E1,4.7744717E1,1.112318E1,7.466308E2,2.351136E1,4.9433662E1,2.7193226E1,1.1365947E1,4.2914883E1,3.1634178E1,1.7916026E2,1.2156831E1,1.1497027E1,1.5741864E2,1.2854933E2,7.378118E2,1.6967747E1,5.3786816E1,1.182614E1,5.5084274E1,2.1542568E1,2.9198769E1,1.5065253E2,1.0430186E1],"tree_param":{"num_deleted":"0","num_feature":"255","num_nodes":"77","size_leaf_vector":"1"}},{"base_weights":[4.044497E-2,-1.1210258E0,9.939593E-1,-1.7000396E0,-6.899582E-1,4.523201E-1,1.526435E0,-2.0347314E-3,-4.3234833E-2,6.728581E-1,-9.465955E-1,-4.4032317E-2,5.938147E-1,1.5556892E0,-1.7874913E-2,1.358839E0,-9.227302E-1,-1.1215141E0,1.1559503E0,1.5969144E-1,1.3630118E0,1.0602912E0,1.6348008E0,-1.058242E-2,4.2674173E-2,5.634903E-3,-4.0891916E-2,-1.2870228E0,1.0029762E0,3.9771255E-2,3.7308862E-3,1.2529477E0,-2.8547114E-1,-1.8331403E-2,1.5052809E0,-1.8904084E-2,1.2994168E0,1.8851615E-2,4.1274108E-2,-3.5582222E-2,8.7556534E-4,-1.0888436E-2,3.748259E-2,3.789021E-2,-1.0760679E-2,-2.3029327E-2,1.0933873E-2,3.9416753E-2,1.2087321E-2,2.9015755E-3,3.6749236E-2],"categories":[],"categories_nodes":[],"categories_segments":[],"categories_sizes":[],"default_left":[0,0,0,0,0,0,0,0,0,0,0,0,0,0,0,0,0,0,0,0,0,0,0,0,0,0,0,0,0,0,0,0,0,0,0,0,0,0,0,0,0,0,0,0,0,0,0,0,0,0,0],"id":8,"left_children":[1,3,5,7,9,11,13,-1,-1,15,17,-1,19,21,-1,23,25,27,29,31,33,35,37,-1,-1,-1,-1,39,41,-1,-1,43,45,-1,47,-1,49,-1,-1,-1,-1,-1,-1,-1,-1,-1,-1,-1,-1,-1,-1],"loss_changes":[3.2958025E3,3.3262073E2,4.6993225E2,2.6572266E1,2.7093985E2,2.5582913E2,5.5823242E1,0E0,0E0,1.3666077E2,2.4107263E2,0E0,2.5479385E2,2.8734863E1,0E0,5.516356E1,3.1780193E1,2.1336383E2,2.1445427E1,2.3960086E2,8.400137E1,5.2232483E1,7.5906982E0,0E0,0E0,0E0,0E0,1.0095343E2,3.2751472E1,0E0,0E0,6.4173645E1,1.6147456E2,0E0,1.7312256E1,0E0,2.0354431E1,0E0,0E0,0E0,0E0,0E0,0E0,0E0,0E0,0E0,0E0,0E0,0E0,0E0,0E0],"parents":[2147483647,0,0,1,1,2,2,3,3,4,4,5,5,6,6,9,9,10,10,12,12,13,13,15,15,16,16,17,17,18,18,19,19,20,20,21,21,22,22,27,27,28,28,31,31,32,32,34,34,36,36],"right_children":[2,4,6,8,10,12,14,-1,-1,16,18,-1,20,22,-1,24,26,28,30,32,34,36,38,-1,-1,-1,-1,40,42,-1,-1,44,46,-1,48,-1,50,-1,-1,-1,-1,-1,-1,-1,-1,-1,-1,-1,-1,-1,-1],"split_conditions":[-6.166667E-1,-6.75E0,5.0666666E0,-7.5E-1,-9.55E0,-1E1,5.4E1,-2.0347314E-3,-4.3234833E-2,8.0344445E-1,7.1E-1,-4.4032317E-2,1.38E-1,3.6632762E0,-1.7874913E-2,6.75E0,2.4375E-1,5.71E-1,3.376E-1,7.522E-1,1.052E2,7.272E-1,2.305E1,-1.058242E-2,4.2674173E-2,5.634903E-3,-4.0891916E-2,1.2E1,-5.833333E-1,3.9771255E-2,3.7308862E-3,2E-1,1.142E2,-1.8331403E-2,3.852E-1,-1.8904084E-2,-1.2E1,1.8851615E-2,4.1274108E-2,-3.5582222E-2,8.7556534E-4,-1.0888436E-2,3.748259E-2,3.789021E-2,-1.0760679E-2,-2.3029327E-2,1.0933873E-2,3.9416753E-2,1.2087321E-2,2.9015755E-3,3.6749236E-2],"split_indices":[238,238,238,103,61,210,182,0,0,130,44,0,100,1,0,220,193,165,150,25,38,130,137,0,0,0,0,6,64,0,0,103,132,0,12,0,6,0,0,0,0,0,0,0,0,0,0,0,0,0,0],"split_type":[0,0,0,0,0,0,0,0,0,0,0,0,0,0,0,0,0,0,0,0,0,0,0,0,0,0,0,0,0,0,0,0,0,0,0,0,0,0,0,0,0,0,0,0,0,0,0,0,0,0,0],"sum_hessian":[2.972964E3,1.34011E3,1.6328541E3,5.698298E2,7.702802E2,8.1102344E2,8.218307E2,1.0371732E1,5.5945807E2,1.2155846E2,6.4872174E2,4.7609592E1,7.634138E2,8.117838E2,1.0046886E1,8.525377E1,3.630469E1,5.996312E2,4.909053E1,4.893203E2,2.740935E2,1.15107994E2,6.9667584E2,1.378536E1,7.146841E1,1.4193225E1,2.2111465E1,5.56929E2,4.2702206E1,3.3534595E1,1.5555937E1,1.4093393E2,3.4838638E2,1.6934507E1,2.57159E2,1.2915925E1,1.0219206E2,1.4066218E1,6.826096E2,5.0492203E2,5.200698E1,1.0897772E1,3.1804434E1,1.2214386E2,1.8790075E1,1.8529263E2,1.6309373E2,2.3942108E2,1.7737932E1,1.3338472E1,8.885359E1],"tree_param":{"num_deleted":"0","num_feature":"255","num_nodes":"51","size_leaf_vector":"1"}},{"base_weights":[-5.405954E-3,-1.1269518E0,9.1002995E-1,7.0204604E-1,-1.3409896E0,1.3348503E0,4.3606393E-2,-4.0450796E-2,1.311405E0,-1.60793E0,-5.883604E-1,6.692981E-1,1.5606681E0,8.3961934E-1,-1.3537647E0,-1.8972357E-1,4.1667018E-2,8.176938E-3,-1.6464262E0,9.9141634E-1,-1.1213312E0,1.136116E0,-4.6914634E-1,1.2488934E0,4.1058984E-2,-7.458761E-1,1.1254047E0,3.6440525E-2,-1.7487667E0,-2.4507452E-2,1.4878437E-2,-1.7058005E0,-2.9903844E-1,3.993116E-2,-2.3326454E-1,-1.3761749E0,-2.7575803E-1,-2.2932565E-1,1.354826E0,5.248154E-1,-4.3168154E-2,4.3310532E-1,1.4857026E0,-1.3138272E0,9.907204E-3,1.9568123E-1,1.3878578E0,-1.818407E-2,-4.5494303E-2,-4.2948853E-2,-1.5636584E-2,4.0703095E-2,-4.0684734E-2,-2.57036E-2,1.0932351E-2,-3.860169E-2,-1.0687097E-2,-2.1519262E-2,1.9237168E-2,-2.4345974E-2,8.114162E-3,3.706876E-2,-1.0105798E-2,2.863034E-2,-7.5240596E-3,3.258891E-2,-1.008338E-2,1.4473078E-2,3.8736682E-2,-8.213944E-3,-4.288974E-2,-2.4345625E-2,1.1587749E-2,3.648198E-2,-1.852821E-3],"categories":[],"categories_nodes":[],"categories_segments":[],"categories_sizes":[],"default_left":[0,0,0,0,0,0,0,0,0,0,0,0,0,0,0,0,0,0,0,0,0,0,0,0,0,0,0,0,0,0,0,0,0,0,0,0,0,0,0,0,0,0,0,0,0,0,0,0,0,0,0,0,0,0,0,0,0,0,0,0,0,0,0,0,0,0,0,0,0,0,0,0,0,0,0],"id":9,"left_children":[1,3,5,7,9,11,13,-1,15,17,19,21,23,25,27,29,-1,-1,31,33,35,37,39,41,-1,43,45,-1,47,-1,-1,49,51,-1,53,55,57,59,61,63,-1,65,67,69,-1,71,73,-1,-1,-1,-1,-1,-1,-1,-1,-1,-1,-1,-1,-1,-1,-1,-1,-1,-1,-1,-1,-1,-1,-1,-1,-1,-1,-1,-1],"loss_changes":[3.03658E3,5.219061E2,5.9897815E2,2.0125238E2,2.3734204E2,1.6216687E2,5.993911E2,0E0,6.044203E1,6.646118E1,2.6631036E2,1.495227E2,1.7084717E1,1.5693373E2,2.2100952E2,1.5007648E1,0E0,0E0,6.771777E1,6.0175194E1,4.991217E1,6.007498E1,1.0440436E2,3.261963E1,0E0,3.550093E1,7.0443726E1,0E0,9.992493E0,0E0,0E0,8.741943E0,1.0202703E2,0E0,1.5541616E1,2.7386383E1,3.566176E1,1.24022255E1,3.9760925E1,2.4763752E1,0E0,3.1450203E1,6.061615E0,1.3005104E1,0E0,2.128621E1,2.4145721E1,0E0,0E0,0E0,0E0,0E0,0E0,0E0,0E0,0E0,0E0,0E0,0E0,0E0,0E0,0E0,0E0,0E0,0E0,0E0,0E0,0E0,0E0,0E0,0E0,0E0,0E0,0E0,0E0],"parents":[2147483647,0,0,1,1,2,2,3,3,4,4,5,5,6,6,8,8,9,9,10,10,11,11,12,12,13,13,14,14,15,15,18,18,19,19,20,20,21,21,22,22,23,23,25,25,26,26,28,28,31,31,32,32,34,34,35,35,36,36,37,37,38,38,39,39,41,41,42,42,43,43,45,45,46,46],"right_children":[2,4,6,8,10,12,14,-1,16,18,20,22,24,26,28,30,-1,-1,32,34,36,38,40,42,-1,44,46,-1,48,-1,-1,50,52,-1,54,56,58,60,62,64,-1,66,68,70,-1,72,74,-1,-1,-1,-1,-1,-1,-1,-1,-1,-1,-1,-1,-1,-1,-1,-1,-1,-1,-1,-1,-1,-1,-1,-1,-1,-1,-1,-1],"split_conditions":[-6.166667E-1,-6E0,3E0,-8.364236E0,-2.598076E0,2.059375E0,1E0,-4.0450796E-2,1.875E1,-7.4E0,3.8888888E0,1E0,3.4832027E0,-5.92E0,5E-1,4.1666668E-2,4.1667018E-2,8.176938E-3,5.432692E-2,4.082483E-1,5.25E0,-2.75E-3,6.296296E-1,-5E-3,4.1058984E-2,-1E0,3.75E0,3.6440525E-2,-7.05E0,-2.4507452E-2,1.4878437E-2,3.6E-2,-6E0,3.993116E-2,-3.5E-1,4.772E-1,1E0,-6E-1,4.74E-2,-2E-1,-4.3168154E-2,-1.52E-2,1.0945E2,1E0,9.907204E-3,-1.3E1,5E0,-1.818407E-2,-4.5494303E-2,-4.2948853E-2,-1.5636584E-2,4.0703095E-2,-4.0684734E-2,-2.57036E-2,1.0932351E-2,-3.860169E-2,-1.0687097E-2,-2.1519262E-2,1.9237168E-2,-2.4345974E-2,8.114162E-3,3.706876E-2,-1.0105798E-2,2.863034E-2,-7.5240596E-3,3.258891E-2,-1.008338E-2,1.4473078E-2,3.8736682E-2,-8.213944E-3,-4.288974E-2,-2.4345625E-2,1.1587749E-2,3.648198E-2,-1.852821E-3],"split_indices":[238,252,252,238,237,238,176,0,197,85,11,252,1,79,234,73,0,0,207,1,11,101,192,104,0,70,238,0,80,0,0,101,80,0,82,13,79,86,87,3,0,87,27,230,0,7,243,0,0,0,0,0,0,0,0,0,0,0,0,0,0,0,0,0,0,0,0,0,0,0,0,0,0,0,0],"split_type":[0,0,0,0,0,0,0,0,0,0,0,0,0,0,0,0,0,0,0,0,0,0,0,0,0,0,0,0,0,0,0,0,0,0,0,0,0,0,0,0,0,0,0,0,0,0,0,0,0,0,0,0,0,0,0,0,0,0,0,0,0,0,0,0,0,0,0,0,0,0,0,0,0,0,0],"sum_hessian":[2.9545615E3,1.3277461E3,1.6268154E3,1.3864459E2,1.1891014E3,1.0908928E3,5.359227E2,2.8255026E1,1.1038957E2,8.763203E2,3.1278116E2,2.780952E2,8.127976E2,3.419007E2,1.9402202E2,2.1152214E1,8.923736E1,1.6773304E1,8.59547E2,7.848337E1,2.3429779E2,1.9735057E2,8.074464E1,1.7433357E2,6.38464E2,5.1739994E1,2.901607E2,2.3342512E1,1.706795E2,1.04786215E1,1.0673592E1,8.227443E2,3.6802654E1,5.23123E1,2.6171064E1,1.7913214E2,5.5165653E1,2.7110157E1,1.7024042E2,4.5498592E1,3.5246044E1,4.0365555E1,1.3396802E2,3.452286E1,1.7217133E1,6.4621956E1,2.2553874E2,1.237332E1,1.5830618E2,8.1253314E2,1.0211208E1,1.4817074E1,2.198558E1,1.1745876E1,1.4425188E1,1.512184E2,2.791374E1,3.5662056E1,1.95036E1,1.123392E1,1.5876238E1,1.5902492E2,1.1215495E1,2.578702E1,1.971157E1,1.94873E1,2.0878254E1,1.000104E1,1.2396697E2,1.0933759E1,2.3589104E1,1.1165542E1,5.3456413E1,2.151668E2,1.037194E1],"tree_param":{"num_deleted":"0","num_feature":"255","num_nodes":"75","size_leaf_vector":"1"}},{"base_weights":[-4.8282392E-2,-1.1867815E0,8.618775E-1,2.4961565E-1,-1.3851097E0,1.2168882E0,-1.909616E-1,-1.3360466E0,1.1957588E0,-1.5304961E0,-1.167966E-1,3.223107E-1,1.4470559E0,-1.1993932E0,9.285206E-1,-4.1052308E-2,-0E0,-1.6326878E-2,1.4926659E0,-1.5609138E0,2.3343237E-2,3.8238373E-2,-1.4065157E0,-1.6608821E-1,1.2223815E0,1.5286113E0,-1.8637817E-1,5.3266548E-2,-1.6889923E0,-4.938805E-1,1.2581798E0,1.621571E-2,4.029352E-2,-1.5854242E0,1.3536875E-2,-4.0998366E-2,-1.6265633E-3,1.224884E-1,-1.3202349E0,1.4393646E0,1.3586835E-3,8.287355E-1,1.5719593E0,-4.2767406E-2,3.695814E-2,-3.1391338E-2,6.6724396E-1,-1.5021184E-2,-4.4228625E-2,1.4707287E-2,-4.0679768E-2,-0E0,1.3911918E0,-4.0157143E-2,-9.153978E-3,1.8596977E-2,-1.0182926E-2,-1.5269001E-2,-4.015511E-2,4.0122025E-2,1.553481E-2,2.7298352E-2,-6.2855366E-3,3.9750002E-2,7.045917E-3,-1.2007671E-2,2.6973918E-2,2.0951476E-2,3.8961854E-2],"categories":[],"categories_nodes":[],"categories_segments":[],"categories_sizes":[],"default_left":[0,0,0,0,0,0,0,0,0,0,0,0,0,0,0,0,0,0,0,0,0,0,0,0,0,0,0,0,0,0,0,0,0,0,0,0,0,0,0,0,0,0,0,0,0,0,0,0,0,0,0,0,0,0,0,0,0,0,0,0,0,0,0,0,0,0,0,0,0],"id":10,"left_children":[1,3,5,7,9,11,13,15,17,19,21,23,25,27,29,-1,-1,-1,31,33,-1,-1,35,37,39,41,43,45,47,49,51,-1,-1,53,-1,-1,-1,55,57,59,-1,61,63,-1,-1,-1,65,-1,-1,-1,-1,-1,67,-1,-1,-1,-1,-1,-1,-1,-1,-1,-1,-1,-1,-1,-1,-1,-1],"loss_changes":[2.9794546E3,3.646671E2,5.9776685E2,2.366092E2,2.0644775E2,2.4505115E2,4.5788467E2,2.3896156E1,5.5785736E1,7.779907E1,2.5213583E2,1.0896462E2,1.272561E2,1.3129501E2,9.122839E1,0E0,0E0,0E0,6.578369E0,5.2792725E1,0E0,0E0,2.0349289E1,5.413824E1,2.1659348E1,2.5026123E1,1.215795E2,5.0392086E1,1.1322815E1,4.7186455E1,2.604918E1,0E0,0E0,2.3763672E1,0E0,0E0,0E0,4.3356426E1,4.6768646E0,7.9763947E0,0E0,1.6566853E1,1.8746826E1,0E0,0E0,0E0,2.1119179E1,0E0,0E0,0E0,0E0,0E0,1.065921E1,0E0,0E0,0E0,0E0,0E0,0E0,0E0,0E0,0E0,0E0,0E0,0E0,0E0,0E0,0E0,0E0],"parents":[2147483647,0,0,1,1,2,2,3,3,4,4,5,5,6,6,7,7,8,8,9,9,10,10,11,11,12,12,13,13,14,14,18,18,19,19,22,22,23,23,24,24,25,25,26,26,27,27,28,28,29,29,30,30,33,33,37,37,38,38,39,39,41,41,42,42,46,46,52,52],"right_children":[2,4,6,8,10,12,14,16,18,20,22,24,26,28,30,-1,-1,-1,32,34,-1,-1,36,38,40,42,44,46,48,50,52,-1,-1,54,-1,-1,-1,56,58,60,-1,62,64,-1,-1,-1,66,-1,-1,-1,-1,-1,68,-1,-1,-1,-1,-1,-1,-1,-1,-1,-1,-1,-1,-1,-1,-1,-1],"split_conditions":[-1E0,-5E0,4E0,-6.75E0,1.91E1,1.5611111E0,5.4545455E0,4.3E0,6.6E1,9.517325E-2,2.7272727E0,1.44E1,1.3E1,1E0,-1.03E1,-4.1052308E-2,-0E0,-1.6326878E-2,2.5E0,2.3E0,2.3343237E-2,3.8238373E-2,4.757E-1,1.8181819E-1,1.159E2,-2.375E-1,3.6363637E0,1.325E1,1.875E1,1.5E-1,-1.35E-2,1.621571E-2,4.029352E-2,4.3E-2,1.3536875E-2,-4.0998366E-2,-1.6265633E-3,3E0,8.5E0,3.125E-2,1.3586835E-3,9.388889E0,4.053E-1,-4.2767406E-2,3.695814E-2,-3.1391338E-2,-2.9E0,-1.5021184E-2,-4.4228625E-2,1.4707287E-2,-4.0679768E-2,-0E0,8E0,-4.0157143E-2,-9.153978E-3,1.8596977E-2,-1.0182926E-2,-1.5269001E-2,-4.015511E-2,4.0122025E-2,1.553481E-2,2.7298352E-2,-6.2855366E-3,3.9750002E-2,7.045917E-3,-1.2007671E-2,2.6973918E-2,2.0951476E-2,3.8961854E-2],"split_indices":[238,252,252,238,162,2,246,68,254,212,246,162,37,234,68,0,0,0,226,107,0,0,24,58,143,107,246,19,197,75,101,0,0,101,0,0,0,122,105,253,0,145,128,0,0,0,68,0,0,0,0,0,2,0,0,0,0,0,0,0,0,0,0,0,0,0,0,0,0],"split_type":[0,0,0,0,0,0,0,0,0,0,0,0,0,0,0,0,0,0,0,0,0,0,0,0,0,0,0,0,0,0,0,0,0,0,0,0,0,0,0,0,0,0,0,0,0,0,0,0,0,0,0,0,0,0,0,0,0,0,0,0,0,0,0,0,0,0,0,0,0],"sum_hessian":[2.8722776E3,1.2759648E3,1.5963127E3,1.5463318E2,1.1213317E3,1.1937455E3,4.025672E2,5.7476883E1,9.71563E1,1.005593E3,1.1573866E2,2.452025E2,9.4854297E2,2.1182576E2,1.9074144E2,4.640382E1,1.1073062E1,1.3101366E1,8.405494E1,9.9395496E2,1.1638092E1,5.0649887E1,6.5088776E1,1.5960059E2,8.560191E1,9.0364386E2,4.489914E1,5.978687E1,1.520389E2,3.5634235E1,1.5510721E2,1.1795492E1,7.2259445E1,9.829592E2,1.0995702E1,5.5030384E1,1.0058389E1,1.2861092E2,3.0989664E1,7.175287E1,1.3849045E1,5.473347E1,8.489104E2,2.3478916E1,2.1420225E1,1.8485268E1,4.13016E1,1.1476381E1,1.4056252E2,1.850711E1,1.7127127E1,1.5055664E1,1.4005154E2,9.6579443E2,1.71648E1,5.908433E1,6.952659E1,1.0454823E1,2.0534842E1,5.8273674E1,1.3479196E1,4.4145473E1,1.0587996E1,8.3670636E2,1.2204045E1,1.0711151E1,3.059045E1,3.489119E1,1.05160355E2],"tree_param":{"num_deleted":"0","num_feature":"255","num_nodes":"69","size_leaf_vector":"1"}},{"base_weights":[-1.0546221E-2,-1.1396183E0,8.101398E-1,7.2738105E-1,-1.3819026E0,1.1111065E0,-1.7580892E-1,1.5049121E0,-9.077009E-1,-1.6415926E0,-8.7945807E-1,-4.7583872E-1,1.3103621E0,-1.0805817E0,7.758373E-1,1.5320584E-2,4.0079243E-2,-3.7201557E-2,-2.3289E-3,-4.123296E-2,-2.5419949E-2,1.6935597E-1,-1.2524931E0,-1.5772736E0,3.8526025E-2,6.748449E-1,1.4946631E0,1.349291E-1,-4.298703E-2,-7.91066E-1,1.1682806E0,-5.741259E-1,3.8215145E-2,-1.4188796E0,-3.683572E-2,-2.4168814E-2,-4.0805977E-2,1.2316387E0,-3.7403443E-1,5.8609797E-3,1.5201054E0,6.9918346E-1,-1.0695359E0,1.6270438E-2,-1.3719164E0,1.336306E0,-2.056736E-2,-3.0329173E-2,9.083082E-4,-6.6700936E-3,-3.7272442E-2,-2.235937E-2,2.1232953E-2,1.13856485E-2,3.9640546E-2,1.7081229E-2,-4.271498E-2,3.1866472E-2,3.969101E-2,-1.4402624E-3,3.323938E-2,-3.646667E-2,-1.2499071E-2,-1.7152516E-2,-4.2546146E-2,-2.633101E-4,3.717067E-2],"categories":[],"categories_nodes":[],"categories_segments":[],"categories_sizes":[],"default_left":[0,0,0,0,0,0,0,0,0,0,0,0,0,0,0,0,0,0,0,0,0,0,0,0,0,0,0,0,0,0,0,0,0,0,0,0,0,0,0,0,0,0,0,0,0,0,0,0,0,0,0,0,0,0,0,0,0,0,0,0,0,0,0,0,0,0,0],"id":11,"left_children":[1,3,5,7,9,11,13,15,17,19,21,23,25,27,29,-1,-1,-1,-1,-1,-1,31,33,35,-1,37,39,41,-1,43,45,47,-1,49,51,-1,-1,53,55,-1,57,59,61,-1,63,65,-1,-1,-1,-1,-1,-1,-1,-1,-1,-1,-1,-1,-1,-1,-1,-1,-1,-1,-1,-1,-1],"loss_changes":[2.6125862E3,5.385001E2,4.8493176E2,1.7661392E2,1.3448083E2,3.9672302E2,3.3104633E2,6.2911835E0,2.0783745E1,2.866211E-1,1.4203012E2,3.158949E2,1.283081E2,1.5368686E2,1.16701E2,0E0,0E0,0E0,0E0,0E0,0E0,9.8587456E1,5.365454E1,1.9096375E-1,0E0,1.4860742E2,2.670813E1,4.8057518E1,0E0,3.3584133E1,5.212494E1,2.4914604E1,0E0,1.8529083E1,2.6863937E1,0E0,0E0,4.4045975E1,1.2718687E2,0E0,1.036792E1,2.3328058E1,3.5115337E0,0E0,4.084671E0,2.8603745E1,0E0,0E0,0E0,0E0,0E0,0E0,0E0,0E0,0E0,0E0,0E0,0E0,0E0,0E0,0E0,0E0,0E0,0E0,0E0,0E0,0E0],"parents":[2147483647,0,0,1,1,2,2,3,3,4,4,5,5,6,6,7,7,8,8,9,9,10,10,11,11,12,12,13,13,14,14,21,21,22,22,23,23,25,25,26,26,27,27,29,29,30,30,31,31,33,33,34,34,37,37,38,38,40,40,41,41,42,42,44,44,45,45],"right_children":[2,4,6,8,10,12,14,16,18,20,22,24,26,28,30,-1,-1,-1,-1,-1,-1,32,34,36,-1,38,40,42,-1,44,46,48,-1,50,52,-1,-1,54,56,-1,58,60,62,-1,64,66,-1,-1,-1,-1,-1,-1,-1,-1,-1,-1,-1,-1,-1,-1,-1,-1,-1,-1,-1,-1,-1],"split_conditions":[-7.4658584E-4,-6E0,4E0,7E0,-2E0,-1E0,5.4545455E0,6.8421054E-1,-1.9777777E0,4.0677965E-1,-2E0,1.83E1,3E0,2E0,-3.8E0,1.5320584E-2,4.0079243E-2,-3.7201557E-2,-2.3289E-3,-4.123296E-2,-2.5419949E-2,1.3E1,3.925E-2,1.8181819E-1,3.8526025E-2,1E0,-2E0,2E0,-4.298703E-2,4.64E1,4.4E1,-2.6E0,3.8215145E-2,0E0,4.743E-1,-2.4168814E-2,-4.0805977E-2,7.9E1,6.75E-1,5.8609797E-3,1.1793334E0,1.0014E2,3.3125E-1,1.6270438E-2,2.9166666E-1,-1.35E-2,-2.056736E-2,-3.0329173E-2,9.083082E-4,-6.6700936E-3,-3.7272442E-2,-2.235937E-2,2.1232953E-2,1.13856485E-2,3.9640546E-2,1.7081229E-2,-4.271498E-2,3.1866472E-2,3.969101E-2,-1.4402624E-3,3.323938E-2,-3.646667E-2,-1.2499071E-2,-1.7152516E-2,-4.2546146E-2,-2.633101E-4,3.717067E-2],"split_indices":[239,252,252,0,239,180,246,192,68,223,252,98,0,185,106,0,0,0,0,0,0,184,101,58,0,252,107,57,0,39,182,106,0,236,13,0,0,43,192,0,239,53,12,0,218,101,0,0,0,0,0,0,0,0,0,0,0,0,0,0,0,0,0,0,0,0,0],"split_type":[0,0,0,0,0,0,0,0,0,0,0,0,0,0,0,0,0,0,0,0,0,0,0,0,0,0,0,0,0,0,0,0,0,0,0,0,0,0,0,0,0,0,0,0,0,0,0,0,0,0,0,0,0,0,0,0,0,0,0,0,0,0,0,0,0,0,0],"sum_hessian":[2.8164333E3,1.1853414E3,1.6310919E3,1.3571526E2,1.0496261E3,1.2496432E3,3.814487E2,9.214109E1,4.3574154E1,6.894717E2,3.6015448E2,1.3905685E2,1.1105864E3,1.9554358E2,1.8590512E2,1.0420777E1,8.1720314E1,2.4577158E1,1.8996998E1,6.783046E2,1.1167053E1,9.456402E1,2.6559045E2,9.0215515E1,4.884134E1,2.5148369E2,8.5910266E2,6.767038E1,1.2787321E2,3.6828236E1,1.4907689E2,6.1593124E1,3.2970898E1,2.3325032E2,3.2340145E1,1.0054756E1,8.016076E1,1.6423138E2,8.725231E1,1.7459719E1,8.4164294E2,4.662386E1,2.1046518E1,1.0424873E1,2.6403362E1,1.3802237E2,1.1054516E1,2.9528603E1,3.206452E1,1.4301579E1,2.1894875E2,1.6543058E1,1.5797088E1,5.268933E1,1.1154205E2,4.900847E1,3.824384E1,1.8868076E2,6.529622E2,2.16629E1,2.4960958E1,1.0904187E1,1.014233E1,1.027353E1,1.6129831E1,1.3881253E1,1.2414111E2],"tree_param":{"num_deleted":"0","num_feature":"255","num_nodes":"67","size_leaf_vector":"1"}},{"base_weights":[-1.2156435E-2,-1.0852801E0,9.2445016E-1,-1.3083615E0,3.436629E-1,4.4277564E-1,1.4224523E0,1.45545285E-2,-1.4135164E0,3.8099106E-2,-7.5581014E-1,9.977683E-1,-6.0732687E-1,-1.4735537E-2,1.4619156E0,1.0849748E0,-1.2313194E0,-1.533279E0,-8.423183E-1,2.7896224E-2,-1.0752832E0,-3.3354652E-1,1.2329085E0,4.1766426E-1,-1.6949036E0,1.4954023E0,-1.9399686E-2,-4.804451E-3,3.6854837E-2,-3.8663458E-2,-7.003321E-3,-7.887689E-1,-1.5810359E0,-1.146387E0,3.9569084E-2,1.145048E-2,-1.3566245E0,5.873164E-1,-3.9535146E-2,-1.4359071E-2,1.3196331E0,-1.0227206E0,7.6035917E-1,-4.3892294E-2,-2.2579202E-2,6.6140154E-3,1.5118928E0,1.0458961E-2,-2.6925776E-2,-3.9928164E-2,-1.2336831E-2,1.5946169E-3,-3.3576537E-2,-2.074443E-3,-3.9433237E-2,-1.0155761E-2,3.6739986E-2,3.9120868E-2,1.816648E-2,-3.568507E-2,-7.401582E-3,2.5555685E-2,-3.5391554E-2,3.8123187E-2,1.5019241E-2],"categories":[],"categories_nodes":[],"categories_segments":[],"categories_sizes":[],"default_left":[0,0,0,0,0,0,0,0,0,0,0,0,0,0,0,0,0,0,0,0,0,0,0,0,0,0,0,0,0,0,0,0,0,0,0,0,0,0,0,0,0,0,0,0,0,0,0,0,0,0,0,0,0,0,0,0,0,0,0,0,0,0,0,0,0],"id":12,"left_children":[1,3,5,7,9,11,13,15,17,-1,19,21,23,-1,25,27,29,31,33,-1,35,37,39,41,43,45,-1,-1,-1,-1,-1,47,49,51,-1,-1,53,55,-1,-1,57,59,61,-1,-1,-1,63,-1,-1,-1,-1,-1,-1,-1,-1,-1,-1,-1,-1,-1,-1,-1,-1,-1,-1],"loss_changes":[2.883058E3,4.2702393E2,3.6606018E2,1.6123193E2,2.3753516E2,4.5610345E2,6.1182007E1,1.1736313E2,7.0904785E1,0E0,5.8554646E1,1.609479E2,3.0322034E2,0E0,5.7204224E1,2.4254665E1,1.115831E1,2.9082031E1,1.4228418E2,0E0,3.646096E1,9.104733E1,6.9503784E1,7.048259E1,3.4325867E0,1.381897E1,0E0,0E0,0E0,0E0,0E0,2.0476524E1,1.2904297E1,4.0661957E1,0E0,0E0,1.9072311E1,4.125094E1,0E0,0E0,5.8303406E1,7.1190186E0,6.733519E1,0E0,0E0,0E0,6.725464E0,0E0,0E0,0E0,0E0,0E0,0E0,0E0,0E0,0E0,0E0,0E0,0E0,0E0,0E0,0E0,0E0,0E0,0E0],"parents":[2147483647,0,0,1,1,2,2,3,3,4,4,5,5,6,6,7,7,8,8,10,10,11,11,12,12,14,14,15,15,16,16,17,17,18,18,20,20,21,21,22,22,23,23,24,24,25,25,31,31,32,32,33,33,36,36,37,37,40,40,41,41,42,42,46,46],"right_children":[2,4,6,8,10,12,14,16,18,-1,20,22,24,-1,26,28,30,32,34,-1,36,38,40,42,44,46,-1,-1,-1,-1,-1,48,50,52,-1,-1,54,56,-1,-1,58,60,62,-1,-1,-1,64,-1,-1,-1,-1,-1,-1,-1,-1,-1,-1,-1,-1,-1,-1,-1,-1,-1,-1],"split_conditions":[-6.166667E-1,1.59E1,5.5E0,-6E0,3.7142856E0,3E0,-1.025E0,8E0,-2.9333334E0,3.8099106E-2,-4.35E0,-3.8E0,2E0,-1.4735537E-2,5E1,5E-1,-3.3E0,-2.5E-2,5.15625E-1,2.7896224E-2,-4E0,3.6E1,-7.6E0,-8.5E-1,5.2578435E0,-6.9E0,-1.9399686E-2,-4.804451E-3,3.6854837E-2,-3.8663458E-2,-7.003321E-3,-7.15E0,1.6E1,-1.845E-2,3.9569084E-2,1.145048E-2,1.1547005E0,7.5E-1,-3.9535146E-2,-1.4359071E-2,3.4027778E-2,-5.92E0,4E0,-4.3892294E-2,-2.2579202E-2,6.6140154E-3,6.4E0,1.0458961E-2,-2.6925776E-2,-3.9928164E-2,-1.2336831E-2,1.5946169E-3,-3.3576537E-2,-2.074443E-3,-3.9433237E-2,-1.0155761E-2,3.6739986E-2,3.9120868E-2,1.816648E-2,-3.568507E-2,-7.401582E-3,2.5555685E-2,-3.5391554E-2,3.8123187E-2,1.5019241E-2],"split_indices":[238,98,2,250,11,250,109,0,238,0,85,108,185,0,182,228,106,103,219,0,250,197,50,109,181,70,0,0,0,0,0,61,8,77,0,0,1,228,0,0,253,79,200,0,0,0,63,0,0,0,0,0,0,0,0,0,0,0,0,0,0,0,0,0,0],"split_type":[0,0,0,0,0,0,0,0,0,0,0,0,0,0,0,0,0,0,0,0,0,0,0,0,0,0,0,0,0,0,0,0,0,0,0,0,0,0,0,0,0,0,0,0,0,0,0,0,0,0,0,0,0,0,0,0,0,0,0,0,0,0,0,0,0],"sum_hessian":[2.865415E3,1.335375E3,1.5300399E3,1.155283E3,1.8009209E2,7.7941473E2,7.5062524E2,8.502348E1,1.0702595E3,8.666193E1,9.343015E1,5.1009058E2,2.693242E2,1.3940743E1,7.366845E2,4.5922443E1,3.910104E1,8.82376E2,1.878835E2,1.2985914E1,8.044424E1,7.634767E1,4.337429E2,1.390325E2,1.3029169E2,7.2640204E2,1.0282447E1,1.078357E1,3.5138874E1,2.850537E1,1.059567E1,5.5024876E1,8.273511E2,1.6772652E2,2.0156984E1,1.2215767E1,6.822847E1,4.429427E1,3.2053402E1,1.9368975E1,4.1437393E2,2.6036797E1,1.129957E2,1.1907073E2,1.1220955E1,1.0101744E1,7.163003E2,1.0342754E1,4.468212E1,8.1441504E2,1.2936045E1,2.3447386E1,1.4427913E2,1.0515525E1,5.7712948E1,2.1107544E1,2.3186726E1,2.911743E2,1.2319962E2,1.5617516E1,1.0419282E1,1.0165011E2,1.1345589E1,7.049846E2,1.131565E1],"tree_param":{"num_deleted":"0","num_feature":"255","num_nodes":"65","size_leaf_vector":"1"}},{"base_weights":[9.686579E-3,8.423866E-1,-7.401343E-1,-1.5141706E-1,1.1299862E0,-2.552793E-1,-1.3259416E0,5.0450295E-1,-9.7538036E-1,1.3245133E0,3.9262494E-1,1.9673084E-1,-7.4996454E-1,-1.5408152E0,2.5842884E-1,-3.6567032E-2,1.0447246E0,3.5226814E-2,-1.3489432E0,-4.6712067E-2,1.3742242E0,-1.4425976E0,8.272861E-1,-2.2043735E-1,1.0482769E0,-1.1095994E0,4.6782506E-1,-1.5601195E0,-1.319865E-2,-3.6773022E-2,3.522576E-2,-6.30667E-1,1.3510492E0,-1.5449921E0,1.2342749E-2,-3.7061367E-2,1.9693842E-2,1.4597106E0,9.428444E-1,-1.7372565E-2,-4.3847717E-2,1.3551872E0,-5.483114E-1,2.670625E-1,-1.4994049E0,1.2700481E0,-2.9675037E-2,-2.4143787E-1,-1.5844387E0,1.2884619E0,-6.6447E-1,-2.2323841E-2,-1.5756242E0,-3.814666E-2,8.617472E-3,3.4230065E-3,3.6659367E-2,-1.7490374E-2,-4.125037E-2,3.70136E-2,3.738114E-3,2.8015191E-3,3.648688E-2,3.766423E-2,-2.3235704E-3,3.0082678E-2,-3.488393E-2,-1.5078656E-2,2.6060173E-2,-1.8915467E-2,-3.965792E-2,-1.6172983E-3,3.671482E-2,-1.9945722E-2,9.481428E-3,-1.578472E-2,-4.092013E-2,3.712323E-2,8.995958E-3,-3.8270164E-2,1.9991001E-2,-3.9713904E-2,-2.2850415E-2],"categories":[],"categories_nodes":[],"categories_segments":[],"categories_sizes":[],"default_left":[0,0,0,0,0,0,0,0,0,0,0,0,0,0,0,0,0,0,0,0,0,0,0,0,0,0,0,0,0,0,0,0,0,0,0,0,0,0,0,0,0,0,0,0,0,0,0,0,0,0,0,0,0,0,0,0,0,0,0,0,0,0,0,0,0,0,0,0,0,0,0,0,0,0,0,0,0,0,0,0,0,0,0],"id":13,"left_children":[1,3,5,7,9,11,13,15,17,19,21,23,25,27,29,-1,31,-1,33,35,37,39,41,43,45,47,49,51,-1,-1,-1,53,55,57,-1,-1,-1,59,61,-1,-1,63,65,67,69,71,-1,73,75,77,79,-1,81,-1,-1,-1,-1,-1,-1,-1,-1,-1,-1,-1,-1,-1,-1,-1,-1,-1,-1,-1,-1,-1,-1,-1,-1,-1,-1,-1,-1,-1,-1],"loss_changes":[1.7928379E3,3.8934045E2,4.2827985E2,1.6650577E2,1.502843E2,1.8562024E2,2.3358203E2,1.8449652E2,1.244386E2,5.723706E1,1.7930847E2,1.5467787E2,1.7441377E2,1.0123413E1,1.6787775E2,0E0,7.097742E1,0E0,4.4293716E1,3.8432487E1,2.715503E1,7.7147064E0,1.3277975E2,1.8313448E2,7.322327E1,1.2537875E2,8.619952E1,3.4996338E0,0E0,0E0,0E0,2.0121897E1,1.5502548E1,7.377777E0,0E0,0E0,0E0,1.7604248E1,5.859725E1,0E0,0E0,2.92995E1,7.850006E1,1.4463545E2,2.9617615E0,3.514006E1,0E0,3.8615173E1,7.861023E0,8.593819E0,5.174408E1,0E0,2.236206E0,0E0,0E0,0E0,0E0,0E0,0E0,0E0,0E0,0E0,0E0,0E0,0E0,0E0,0E0,0E0,0E0,0E0,0E0,0E0,0E0,0E0,0E0,0E0,0E0,0E0,0E0,0E0,0E0,0E0,0E0],"parents":[2147483647,0,0,1,1,2,2,3,3,4,4,5,5,6,6,7,7,8,8,9,9,10,10,11,11,12,12,13,13,14,14,16,16,18,18,19,19,20,20,21,21,22,22,23,23,24,24,25,25,26,26,27,27,31,31,32,32,33,33,37,37,38,38,41,41,42,42,43,43,44,44,45,45,47,47,48,48,49,49,50,50,52,52],"right_children":[2,4,6,8,10,12,14,16,18,20,22,24,26,28,30,-1,32,-1,34,36,38,40,42,44,46,48,50,52,-1,-1,-1,54,56,58,-1,-1,-1,60,62,-1,-1,64,66,68,70,72,-1,74,76,78,80,-1,82,-1,-1,-1,-1,-1,-1,-1,-1,-1,-1,-1,-1,-1,-1,-1,-1,-1,-1,-1,-1,-1,-1,-1,-1,-1,-1,-1,-1,-1,-1],"split_conditions":[9E0,-3.7E0,1.7E1,8.6E0,1.02E1,1E0,1.9E-2,7.474E-1,4.2857143E-1,-1.9E-2,4.424E-1,1.15E2,1.2E2,1.26E2,2.92E1,-3.6567032E-2,5.25E-1,3.5226814E-2,6E-3,7.3E0,2.5E1,2.617647E-1,3.08E-2,1.11E2,3.5E-2,2E0,1.5E-4,3.3333333E0,-1.319865E-2,-3.6773022E-2,3.522576E-2,5.75E-1,-2.3E-2,6E0,1.2342749E-2,-3.7061367E-2,1.9693842E-2,1.5E0,5.084746E-1,-1.7372565E-2,-4.3847717E-2,8.146E-1,8.222222E0,0E0,4.12E1,2.25E1,-2.9675037E-2,1.375E1,-2.4E-2,4.651E-1,-6.521739E-3,-2.2323841E-2,3.9455E-1,-3.814666E-2,8.617472E-3,3.4230065E-3,3.6659367E-2,-1.7490374E-2,-4.125037E-2,3.70136E-2,3.738114E-3,2.8015191E-3,3.648688E-2,3.766423E-2,-2.3235704E-3,3.0082678E-2,-3.488393E-2,-1.5078656E-2,2.6060173E-2,-1.8915467E-2,-3.965792E-2,-1.6172983E-3,3.671482E-2,-1.9945722E-2,9.481428E-3,-1.578472E-2,-4.092013E-2,3.712323E-2,8.995958E-3,-3.8270164E-2,1.9991001E-2,-3.9713904E-2,-2.2850415E-2],"split_indices":[240,79,240,134,156,250,111,141,20,113,129,159,1,159,148,0,165,0,113,18,182,115,65,43,111,185,77,11,0,0,0,56,113,182,0,0,0,103,217,0,0,141,18,180,39,227,0,19,101,129,205,0,139,0,0,0,0,0,0,0,0,0,0,0,0,0,0,0,0,0,0,0,0,0,0,0,0,0,0,0,0,0,0],"split_type":[0,0,0,0,0,0,0,0,0,0,0,0,0,0,0,0,0,0,0,0,0,0,0,0,0,0,0,0,0,0,0,0,0,0,0,0,0,0,0,0,0,0,0,0,0,0,0,0,0,0,0,0,0,0,0,0,0,0,0,0,0,0,0,0,0,0,0,0,0,0,0,0,0,0,0,0,0,0,0,0,0,0,0],"sum_hessian":[2.8683777E3,1.3591166E3,1.509261E3,3.0504498E2,1.0540717E3,8.271494E2,6.821115E2,1.7003033E2,1.3501465E2,8.328797E2,2.2119196E2,4.3247867E2,3.9467078E2,6.007982E2,8.13133E1,3.6001503E1,1.3402882E2,1.765153E1,1.1736311E2,2.900038E1,8.0387933E2,4.160198E1,1.7958998E2,2.908631E2,1.4161555E2,3.0491998E2,8.975078E1,5.885727E2,1.2225547E1,3.2250107E1,4.9063198E1,2.0371138E1,1.1365769E2,1.0639417E2,1.0968943E1,1.0319687E1,1.868069E1,6.6755145E2,1.363279E2,1.3843617E1,2.775836E1,1.2990509E2,4.9684895E1,2.1133836E2,7.952474E1,1.295041E2,1.2111439E1,1.0875825E2,1.9616174E2,5.201928E1,3.77315E1,1.5656611E1,5.729161E2,1.0287565E1,1.0083572E1,1.0294445E1,1.0336325E2,1.3237331E1,9.315684E1,6.567605E2,1.0790934E1,5.311968E1,8.320821E1,1.1768077E2,1.2224319E1,1.5912402E1,3.377249E1,9.96129E1,1.11725464E2,1.0096373E1,6.942837E1,1.6769957E1,1.1273415E2,5.729403E1,5.146422E1,1.1435994E1,1.8472575E2,4.201605E1,1.0003229E1,2.3747818E1,1.398368E1,5.595746E2,1.3341462E1],"tree_param":{"num_deleted":"0","num_feature":"255","num_nodes":"83","size_leaf_vector":"1"}},{"base_weights":[7.1302464E-4,-1.0649242E0,9.3001324E-1,4.2587566E-1,-1.2881256E0,1.2437053E0,1.8505052E-1,-9.4118696E-1,1.4021674E0,-1.4434927E0,5.2414276E-2,6.6778433E-1,1.4399284E0,-8.299941E-1,9.6850497E-1,-3.780298E-2,-8.817094E-3,2.5594996E-3,3.8881958E-2,-5.29442E-1,-1.5198015E0,3.570817E-2,-1.2674655E0,9.423668E-1,-7.539031E-1,6.109376E-1,1.4969401E0,4.3317813E-1,-1.3360096E0,-4.66377E-1,1.2428846E0,2.1679817E-2,-3.174865E-2,-7.810723E-1,1.7010033E-2,-1.5383813E0,-8.489475E-1,-3.8364097E-2,1.0108204E-3,-3.1017963E-2,1.2087584E0,-1.3126233E0,2.3392502E-2,9.763243E-1,-8.3238315E-3,3.787748E-2,1.0997006E0,-3.5686478E-1,1.1277719E0,1.3107379E-2,-1.49246E0,1.77463E-2,-1.3253422E0,1.3315116E0,-1.1341497E-2,-9.667341E-3,-3.5192914E-2,-1.717496E-2,-3.877483E-2,1.1268199E-4,-3.301722E-2,3.203342E-2,-1.452031E-2,-7.0464234E-3,3.2706097E-2,-1.2515805E-2,-4.0627804E-2,5.9137633E-3,3.1279493E-2,1.1339925E-2,3.246632E-2,-2.3711175E-2,1.1516254E-2,3.552632E-2,1.5011716E-2,-1.9589874E-3,-4.0717017E-2,-2.0280464E-2,-3.972238E-2,1.5355897E-3,3.5313524E-2],"categories":[],"categories_nodes":[],"categories_segments":[],"categories_sizes":[],"default_left":[0,0,0,0,0,0,0,0,0,0,0,0,0,0,0,0,0,0,0,0,0,0,0,0,0,0,0,0,0,0,0,0,0,0,0,0,0,0,0,0,0,0,0,0,0,0,0,0,0,0,0,0,0,0,0,0,0,0,0,0,0,0,0,0,0,0,0,0,0,0,0,0,0,0,0,0,0,0,0,0,0],"id":14,"left_children":[1,3,5,7,9,11,13,15,17,19,21,23,25,27,29,-1,31,-1,-1,33,35,-1,37,39,41,43,45,47,49,51,53,-1,-1,55,-1,57,59,-1,-1,61,63,65,-1,67,-1,-1,69,71,73,-1,75,-1,77,79,-1,-1,-1,-1,-1,-1,-1,-1,-1,-1,-1,-1,-1,-1,-1,-1,-1,-1,-1,-1,-1,-1,-1,-1,-1,-1,-1],"loss_changes":[2.784042E3,4.3673242E2,3.5033228E2,2.3101512E2,2.3771545E2,1.1751599E2,3.5667776E2,3.8151123E1,1.9481903E1,6.961987E1,2.2005637E2,1.0709299E2,3.537207E1,1.25946075E2,1.00656296E2,0E0,3.3872395E1,0E0,0E0,2.5536503E1,9.300293E0,0E0,2.1979057E1,5.9501877E1,4.4083088E1,1.901947E1,2.276123E0,3.1986351E1,4.2111908E1,4.35611E1,3.310315E1,0E0,0E0,1.5642735E1,0E0,7.769043E0,1.195311E1,0E0,0E0,3.7316334E1,2.7374084E1,7.05249E0,0E0,7.1890144E0,0E0,0E0,3.6584969E0,1.4115119E1,3.0755577E0,0E0,2.443634E1,0E0,9.282417E-1,2.0454956E1,0E0,0E0,0E0,0E0,0E0,0E0,0E0,0E0,0E0,0E0,0E0,0E0,0E0,0E0,0E0,0E0,0E0,0E0,0E0,0E0,0E0,0E0,0E0,0E0,0E0,0E0,0E0],"parents":[2147483647,0,0,1,1,2,2,3,3,4,4,5,5,6,6,7,7,8,8,9,9,10,10,11,11,12,12,13,13,14,14,16,16,19,19,20,20,22,22,23,23,24,24,25,25,26,26,27,27,28,28,29,29,30,30,33,33,35,35,36,36,39,39,40,40,41,41,43,43,46,46,47,47,48,48,50,50,52,52,53,53],"right_children":[2,4,6,8,10,12,14,16,18,20,22,24,26,28,30,-1,32,-1,-1,34,36,-1,38,40,42,44,46,48,50,52,54,-1,-1,56,-1,58,60,-1,-1,62,64,66,-1,68,-1,-1,70,72,74,-1,76,-1,78,80,-1,-1,-1,-1,-1,-1,-1,-1,-1,-1,-1,-1,-1,-1,-1,-1,-1,-1,-1,-1,-1,-1,-1,-1,-1,-1,-1],"split_conditions":[-1E0,-5E0,3E0,-6E0,1.91E1,3E0,6E0,-2.7E0,6.75E0,-2.5E-2,2.7272727E0,3.78E-1,-1.5E-1,5E-1,-3.8E0,-3.780298E-2,8.116E-1,2.5594996E-3,3.8881958E-2,5.3333335E0,2E-1,3.570817E-2,2.2E-2,-6E-3,6E-1,4.89E-1,5.8357143E1,4.5E1,5E0,4.585E1,1.1E1,2.1679817E-2,-3.174865E-2,1.7E1,1.7010033E-2,-1.84E1,-6E-1,-3.8364097E-2,1.0108204E-3,-1.15E1,-8.5E0,5.714286E-1,2.3392502E-2,-7.05E0,-8.3238315E-3,3.787748E-2,5.76E-1,3.452778E-1,-2.2E0,1.3107379E-2,-1.75E-1,1.77463E-2,2.01E0,-2.85E-2,-1.1341497E-2,-9.667341E-3,-3.5192914E-2,-1.717496E-2,-3.877483E-2,1.1268199E-4,-3.301722E-2,3.203342E-2,-1.452031E-2,-7.0464234E-3,3.2706097E-2,-1.2515805E-2,-4.0627804E-2,5.9137633E-3,3.1279493E-2,1.1339925E-2,3.246632E-2,-2.3711175E-2,1.1516254E-2,3.552632E-2,1.5011716E-2,-1.9589874E-3,-4.0717017E-2,-2.0280464E-2,-3.972238E-2,1.5355897E-3,3.5313524E-2],"split_indices":[235,252,252,235,162,235,235,106,220,103,246,139,109,234,106,0,36,0,0,11,109,0,101,113,86,35,245,43,240,28,250,0,0,240,0,153,68,0,0,106,51,222,0,79,0,0,172,109,46,0,103,0,45,101,0,0,0,0,0,0,0,0,0,0,0,0,0,0,0,0,0,0,0,0,0,0,0,0,0,0,0],"split_type":[0,0,0,0,0,0,0,0,0,0,0,0,0,0,0,0,0,0,0,0,0,0,0,0,0,0,0,0,0,0,0,0,0,0,0,0,0,0,0,0,0,0,0,0,0,0,0,0,0,0,0,0,0,0,0,0,0,0,0,0,0,0,0,0,0,0,0,0,0,0,0,0,0,0,0,0,0,0,0,0,0],"sum_hessian":[2.8083474E3,1.3080082E3,1.5003394E3,1.7003786E2,1.1379702E3,1.0548752E3,4.4546405E2,7.077855E1,9.925931E1,1.0198095E3,1.1816078E2,2.700104E2,7.8486487E2,1.9390112E2,2.5156293E2,4.318637E1,2.759218E1,1.0861678E1,8.839763E1,7.9697464E1,9.40112E2,5.7866238E1,6.0294548E1,2.2684445E2,4.3165974E1,5.186034E1,7.330045E2,5.540748E1,1.3849365E2,4.0096706E1,2.1146623E2,1.6465097E1,1.1127082E1,6.655242E1,1.3145049E1,9.1259894E2,2.751306E1,4.9980507E1,1.0314039E1,4.8865685E1,1.7797876E2,3.2779465E1,1.038651E1,3.750301E1,1.4357331E1,6.9644324E2,3.6561325E1,2.6129139E1,2.927834E1,1.037093E1,1.2812273E2,1.6934673E1,2.3162033E1,2.0138649E2,1.0079732E1,4.253058E1,2.402184E1,1.4767332E1,8.978316E2,1.0172003E1,1.7341057E1,1.3730784E1,3.51349E1,1.0837513E1,1.6714125E2,1.0371816E1,2.2407648E1,1.1112447E1,2.6390562E1,1.0002627E1,2.6558699E1,1.5161881E1,1.09672575E1,1.6936638E1,1.23417015E1,1.1594267E1,1.1652846E2,1.0179782E1,1.2982252E1,1.23837385E1,1.8900276E2],"tree_param":{"num_deleted":"0","num_feature":"255","num_nodes":"81","size_leaf_vector":"1"}},{"base_weights":[1.6802363E-2,-1.2111005E0,7.2245216E-1,-1.2862815E0,7.908799E-1,-2.5468236E-1,1.0214211E0,-1.3179859E0,1.5695272E-2,-7.873835E-3,3.553204E-2,-7.771427E-1,9.9485445E-1,-3.5794324E-1,1.1719311E0,-2.2384244E-1,-1.3735248E0,2.2949274E-1,-1.3569683E0,1.2503939E0,-3.8246762E-2,-1.0229194E0,8.764119E-2,-6.776122E-2,1.244458E0,-2.9667333E-2,3.0167273E-1,1.185702E-1,-1.4143454E0,5.1628417E-1,-3.7256E-2,-1.5262575E0,-5.1168315E-2,-1.641686E-2,3.6525868E-2,-1.4196107E0,-6.058197E-3,4.262203E-1,-2.9390544E-2,3.3740044E-2,-3.9478723E-2,-3.6442524E-1,1.2812519E0,-1.54798655E-2,2.4650251E-2,3.4665268E-2,-3.4565747E-2,-3.614634E-2,3.8851432E-3,1.4672041E-3,3.6223806E-2,-4.0000148E-2,-1.8263282E-2,3.3787545E-2,-3.502196E-2,-2.1362314E-2,-4.1009188E-2,-5.5899066E-3,3.1101752E-2,2.8813621E-2,-3.7981298E-2,2.2596737E-2,3.51211E-2],"categories":[],"categories_nodes":[],"categories_segments":[],"categories_sizes":[],"default_left":[0,0,0,0,0,0,0,0,0,0,0,0,0,0,0,0,0,0,0,0,0,0,0,0,0,0,0,0,0,0,0,0,0,0,0,0,0,0,0,0,0,0,0,0,0,0,0,0,0,0,0,0,0,0,0,0,0,0,0,0,0,0,0],"id":15,"left_children":[1,3,5,7,9,11,13,15,-1,-1,-1,17,19,21,23,25,27,29,31,33,-1,35,37,39,41,-1,43,45,47,49,-1,51,53,-1,-1,55,-1,57,-1,-1,-1,59,61,-1,-1,-1,-1,-1,-1,-1,-1,-1,-1,-1,-1,-1,-1,-1,-1,-1,-1,-1,-1],"loss_changes":[2.3755874E3,1.522146E2,5.0922284E2,5.9938965E1,2.6717924E1,2.681192E2,2.776936E2,5.693872E1,0E0,0E0,0E0,1.6958311E2,8.0964485E1,3.9503307E1,1.08527954E2,2.4926237E1,5.554077E1,5.3689064E1,4.022995E1,4.6147964E1,0E0,1.5673058E1,3.4981792E1,1.4840196E2,6.8177246E1,0E0,2.1165913E1,5.1061745E1,4.410388E1,3.9195934E1,0E0,7.325348E0,4.6011303E1,0E0,0E0,1.7521515E0,0E0,3.4961998E1,0E0,0E0,0E0,4.9057354E1,4.948999E1,0E0,0E0,0E0,0E0,0E0,0E0,0E0,0E0,0E0,0E0,0E0,0E0,0E0,0E0,0E0,0E0,0E0,0E0,0E0,0E0],"parents":[2147483647,0,0,1,1,2,2,3,3,4,4,5,5,6,6,7,7,11,11,12,12,13,13,14,14,15,15,16,16,17,17,18,18,19,19,21,21,22,22,23,23,24,24,26,26,27,27,28,28,29,29,31,31,32,32,35,35,37,37,41,41,42,42],"right_children":[2,4,6,8,10,12,14,16,-1,-1,-1,18,20,22,24,26,28,30,32,34,-1,36,38,40,42,-1,44,46,48,50,-1,52,54,-1,-1,56,-1,58,-1,-1,-1,60,62,-1,-1,-1,-1,-1,-1,-1,-1,-1,-1,-1,-1,-1,-1,-1,-1,-1,-1,-1,-1],"split_conditions":[-2.9333334E0,3.15E1,-3.8557213E-3,3.19E1,-1.1666666E0,6E0,-6.75E-1,-1.1E1,1.5695272E-2,-7.873835E-3,3.553204E-2,1E0,4.93E1,-2.1428572E-1,5.58E-1,-1.1E1,-6.6E0,1.1E1,4.6125E1,7.484E-1,-3.8246762E-2,1.1695E2,4.655E1,2.6666667E0,-2.025E0,-2.9667333E-2,8.611111E0,1.12E1,5E0,6E0,-3.7256E-2,4.58E1,2.6625E1,-1.641686E-2,3.6525868E-2,7.64E-1,-6.058197E-3,2E0,-2.9390544E-2,3.3740044E-2,-3.9478723E-2,1E0,1.6166667E0,-1.54798655E-2,2.4650251E-2,3.4665268E-2,-3.4565747E-2,-3.614634E-2,3.8851432E-3,1.4672041E-3,3.6223806E-2,-4.0000148E-2,-1.8263282E-2,3.3787545E-2,-3.502196E-2,-2.1362314E-2,-4.1009188E-2,-5.5899066E-3,3.1101752E-2,2.8813621E-2,-3.7981298E-2,2.2596737E-2,3.51211E-2],"split_indices":[238,10,205,98,237,235,107,122,0,0,0,216,17,84,56,235,102,122,17,130,0,27,28,93,204,0,145,79,243,200,0,28,10,0,0,152,0,238,0,0,0,176,238,0,0,0,0,0,0,0,0,0,0,0,0,0,0,0,0,0,0,0,0],"split_type":[0,0,0,0,0,0,0,0,0,0,0,0,0,0,0,0,0,0,0,0,0,0,0,0,0,0,0,0,0,0,0,0,0,0,0,0,0,0,0,0,0,0,0,0,0,0,0,0,0,0,0,0,0,0,0,0,0,0,0,0,0,0,0],"sum_hessian":[2.7387842E3,9.9902344E2,1.7397607E3,9.634778E2,3.5545612E1,4.0749103E2,1.3322698E3,9.4834143E2,1.513638E1,1.306343E1,2.2482183E1,2.8785806E2,1.1963299E2,1.307355E2,1.2015343E3,4.6350967E1,9.019905E2,1.0541259E2,1.8244547E2,1.0939675E2,1.0236237E1,5.1854626E1,7.888088E1,6.626222E1,1.135272E3,1.5833719E1,3.051725E1,2.38129E1,8.7817755E2,9.134535E1,1.4067238E1,1.6114728E2,2.1298191E1,1.0470923E1,9.892583E1,3.339788E1,1.8456745E1,6.3116623E1,1.576426E1,3.4209328E1,3.2052895E1,2.496222E1,1.1103098E3,1.2946514E1,1.7570736E1,1.3043219E1,1.0769681E1,8.6113855E2,1.703902E1,6.249311E1,2.885224E1,1.458613E2,1.52859745E1,1.037055E1,1.0927641E1,1.1688479E1,2.1709402E1,3.5642498E1,2.7474123E1,1.0715806E1,1.4246413E1,2.773927E2,8.329171E2],"tree_param":{"num_deleted":"0","num_feature":"255","num_nodes":"63","size_leaf_vector":"1"}},{"base_weights":[-1.338112E-2,-1.0190467E0,7.776036E-1,7.0898587E-1,-1.196579E0,1.0793575E0,-1.697559E-1,-1.0611804E0,1.2685157E0,-1.3383329E0,1.6375554E-1,-1.50168E-1,1.2444569E0,-8.095651E-1,1.2412999E0,-1.173356E-2,-3.4908142E-2,7.7294516E-3,1.4329225E0,-1.4193168E0,-2.1187904E-1,1.0564086E0,-3.7228882E-2,-1.3252342E0,5.745702E-1,-2.1289783E-2,1.2824641E0,1.2099105E-2,-1.3791761E0,1.705224E-1,3.713342E-2,3.7792735E-2,2.2585995E-2,-4.264853E-1,-1.4922131E0,3.827497E-2,-1.3613243E0,-8.865251E-3,3.601744E-2,-4.0105876E-2,-3.3281993E-3,3.5412807E-2,-1.6609804E-1,-1.8038204E-2,1.3129131E0,-8.562724E-1,6.0325915E-1,-3.9712567E-2,-4.1537818E-2,-2.219226E-2,3.0745236E-2,-2.577281E-2,5.575488E-4,-1.2831672E-2,-3.7617084E-2,-1.7775116E-2,-3.821026E-2,-1.5117946E-2,1.9704865E-2,1.0889887E-2,3.415866E-2,-7.885414E-3,-3.417542E-2,-2.6963392E-2,2.5161877E-2,3.3063333E-2,-3.6378175E-2],"categories":[],"categories_nodes":[],"categories_segments":[],"categories_sizes":[],"default_left":[0,0,0,0,0,0,0,0,0,0,0,0,0,0,0,0,0,0,0,0,0,0,0,0,0,0,0,0,0,0,0,0,0,0,0,0,0,0,0,0,0,0,0,0,0,0,0,0,0,0,0,0,0,0,0,0,0,0,0,0,0,0,0,0,0,0,0],"id":16,"left_children":[1,3,5,7,9,11,13,15,17,19,21,23,25,27,29,-1,-1,-1,31,33,35,37,-1,39,41,-1,43,45,47,49,-1,-1,-1,51,53,-1,55,-1,-1,-1,-1,-1,57,-1,59,61,63,-1,65,-1,-1,-1,-1,-1,-1,-1,-1,-1,-1,-1,-1,-1,-1,-1,-1,-1,-1],"loss_changes":[2.199597E3,3.7486304E2,4.4288477E2,1.1523213E2,2.1358496E2,2.3884363E2,3.3998297E2,4.2320805E0,1.2801559E1,9.051465E1,1.57869E2,1.2068329E2,8.421399E1,1.2152907E2,2.9989288E1,0E0,0E0,0E0,5.6300354E-1,6.620032E1,1.414217E2,3.86317E1,0E0,1.7305832E1,5.5263733E1,0E0,6.3638916E1,5.5853443E1,4.2452454E1,2.8219662E1,0E0,0E0,0E0,1.8171509E1,9.041138E0,0E0,2.5369644E0,0E0,0E0,0E0,0E0,0E0,2.0705872E1,0E0,4.577014E1,1.1165817E1,4.5632084E1,0E0,4.60874E1,0E0,0E0,0E0,0E0,0E0,0E0,0E0,0E0,0E0,0E0,0E0,0E0,0E0,0E0,0E0,0E0,0E0,0E0],"parents":[2147483647,0,0,1,1,2,2,3,3,4,4,5,5,6,6,7,7,8,8,9,9,10,10,11,11,12,12,13,13,14,14,18,18,19,19,20,20,21,21,23,23,24,24,26,26,27,27,28,28,29,29,33,33,34,34,36,36,42,42,44,44,45,45,46,46,48,48],"right_children":[2,4,6,8,10,12,14,16,18,20,22,24,26,28,30,-1,-1,-1,32,34,36,38,-1,40,42,-1,44,46,48,50,-1,-1,-1,52,54,-1,56,-1,-1,-1,-1,-1,58,-1,60,62,64,-1,66,-1,-1,-1,-1,-1,-1,-1,-1,-1,-1,-1,-1,-1,-1,-1,-1,-1,-1],"split_conditions":[-1E0,-6E0,4E0,6E0,1.91E1,7E0,8.775E0,9E0,9.3E1,5.432692E-2,5.279035E-1,-3.2E0,-4.2E0,2E0,1E0,-1.173356E-2,-3.4908142E-2,7.7294516E-3,7.714E-1,-9.53125E-2,-9.35E0,6.57E-1,-3.7228882E-2,9.844E1,3.6458332E-2,-2.1289783E-2,-1E0,1.32E1,5.25E0,7.484E-1,3.713342E-2,3.7792735E-2,2.2585995E-2,-6E-3,-3E0,3.827497E-2,-1.6666667E-1,-8.865251E-3,3.601744E-2,-4.0105876E-2,-3.3281993E-3,3.5412807E-2,3.5E0,-1.8038204E-2,-4.5E-1,7.807E-1,-1.025E0,-3.9712567E-2,6E0,-2.219226E-2,3.0745236E-2,-2.577281E-2,5.575488E-4,-1.2831672E-2,-3.7617084E-2,-1.7775116E-2,-3.821026E-2,-1.5117946E-2,1.9704865E-2,1.0889887E-2,3.415866E-2,-7.885414E-3,-3.417542E-2,-2.6963392E-2,2.5161877E-2,3.3063333E-2,-3.6378175E-2],"split_indices":[238,252,252,241,162,241,2,2,159,207,203,85,71,185,7,0,0,0,36,103,61,44,0,169,253,0,180,19,2,130,0,0,0,104,236,0,63,0,0,0,0,0,79,0,109,130,109,0,250,0,0,0,0,0,0,0,0,0,0,0,0,0,0,0,0,0,0],"split_type":[0,0,0,0,0,0,0,0,0,0,0,0,0,0,0,0,0,0,0,0,0,0,0,0,0,0,0,0,0,0,0,0,0,0,0,0,0,0,0,0,0,0,0,0,0,0,0,0,0,0,0,0,0,0,0,0,0,0,0,0,0,0,0,0,0,0,0],"sum_hessian":[2.7621128E3,1.2159556E3,1.5461572E3,1.1276144E2,1.1031942E3,1.1726467E3,3.7351056E2,2.6673399E1,8.6088036E1,9.992395E2,1.0395467E2,1.3869357E2,1.0339531E3,2.5752377E2,1.1598679E2,1.1161148E1,1.5512251E1,1.340503E1,7.268301E1,9.3169025E2,6.7549286E1,6.793095E1,3.6023727E1,5.2540035E1,8.615354E1,1.7749025E1,1.01620404E3,1.058918E2,1.5163196E2,2.2152863E1,9.383393E1,6.0517666E1,1.2165341E1,6.461868E1,8.6707153E2,2.6577902E1,4.0971382E1,1.4454141E1,5.3476803E1,4.2019447E1,1.0520586E1,3.9806023E1,4.634752E1,1.4601398E1,1.00160266E3,4.2480297E1,6.3411507E1,1.3074146E2,2.089051E1,1.1109156E1,1.1043707E1,2.6895622E1,3.7723064E1,1.1903276E1,8.551683E2,1.0231004E1,3.0740377E1,3.2273E1,1.4074523E1,5.8503677E1,9.43099E2,2.2000578E1,2.047972E1,1.168126E1,5.1730247E1,1.0608634E1,1.0281877E1],"tree_param":{"num_deleted":"0","num_feature":"255","num_nodes":"67","size_leaf_vector":"1"}},{"base_weights":[-3.176154E-2,-1.0857109E0,7.5927603E-1,-3.6358245E-2,-1.2643359E0,2.9680553E-1,1.2910413E0,8.9852077E-1,-1.3774855E0,4.4145995E-1,-1.3236431E0,8.22969E-1,-6.7347217E-1,1.3347332E0,-3.708733E-2,5.9902653E-2,3.8070533E-2,-3.790572E-2,-1.701047E-2,-2.393413E-2,3.4450684E-2,-1.5060757E0,-9.78372E-1,-3.0068648E-1,1.0342865E0,6.227674E-1,-1.3468584E0,1.3678848E0,-1.9646546E-2,-7.0407784E-1,2.711447E-2,-3.7854757E-2,-2.2739831E-2,-1.0788187E0,3.6469918E-2,6.932672E-1,-1.2804664E0,-8.693629E-1,1.1550475E0,9.379984E-1,-1.6306654E-2,-5.354899E-1,-3.9727416E-2,2.2971572E-1,1.4228731E0,-3.1742662E-2,-2.7535725E-3,-3.1170744E-2,1.5802486E-2,-7.0647164E-3,3.670639E-2,-4.8405556E-3,-3.9829835E-2,-3.6879387E-2,3.2382123E-3,3.5988685E-2,1.3843737E-2,2.9162401E-2,-0E0,-3.3506155E-2,8.727183E-3,2.2724293E-2,-1.274976E-2,1.225971E-2,3.603759E-2],"categories":[],"categories_nodes":[],"categories_segments":[],"categories_sizes":[],"default_left":[0,0,0,0,0,0,0,0,0,0,0,0,0,0,0,0,0,0,0,0,0,0,0,0,0,0,0,0,0,0,0,0,0,0,0,0,0,0,0,0,0,0,0,0,0,0,0,0,0,0,0,0,0,0,0,0,0,0,0,0,0,0,0,0,0],"id":17,"left_children":[1,3,5,7,9,11,13,15,17,19,21,23,25,27,-1,29,-1,-1,-1,-1,-1,31,33,35,37,39,41,43,-1,45,-1,-1,-1,47,-1,49,51,53,55,57,-1,59,-1,61,63,-1,-1,-1,-1,-1,-1,-1,-1,-1,-1,-1,-1,-1,-1,-1,-1,-1,-1,-1,-1],"loss_changes":[2.2837168E3,2.1981836E2,3.838971E2,2.1829666E2,1.0256702E2,4.2919305E2,9.10896E1,5.3208115E1,4.9336243E0,4.7558647E1,5.8405396E1,1.2997726E2,2.5950452E2,5.2116455E1,0E0,3.679196E1,0E0,0E0,0E0,0E0,0E0,5.065918E-1,8.5536316E1,8.6420044E1,1.07094635E2,4.1978706E1,3.6659363E1,4.338672E1,0E0,8.527056E0,0E0,0E0,0E0,9.546118E1,0E0,3.42753E1,1.4327797E1,1.7585003E1,7.237891E1,1.787577E1,0E0,3.4589706E1,0E0,1.811443E1,1.0250977E1,0E0,0E0,0E0,0E0,0E0,0E0,0E0,0E0,0E0,0E0,0E0,0E0,0E0,0E0,0E0,0E0,0E0,0E0,0E0,0E0],"parents":[2147483647,0,0,1,1,2,2,3,3,4,4,5,5,6,6,7,7,8,8,9,9,10,10,11,11,12,12,13,13,15,15,21,21,22,22,23,23,24,24,25,25,26,26,27,27,29,29,33,33,35,35,36,36,37,37,38,38,39,39,41,41,43,43,44,44],"right_children":[2,4,6,8,10,12,14,16,18,20,22,24,26,28,-1,30,-1,-1,-1,-1,-1,32,34,36,38,40,42,44,-1,46,-1,-1,-1,48,-1,50,52,54,56,58,-1,60,-1,62,64,-1,-1,-1,-1,-1,-1,-1,-1,-1,-1,-1,-1,-1,-1,-1,-1,-1,-1,-1,-1],"split_conditions":[-1E0,-5E0,5.0666666E0,6.837153E0,6.994E-1,3E0,5.19E1,1.5E1,4.1E0,2.8E-2,-2.5401027E0,-3.8E0,3.4375E-1,4.6E1,-3.708733E-2,1.29E-1,3.8070533E-2,-3.790572E-2,-1.701047E-2,-2.393413E-2,3.4450684E-2,8.372093E-2,2.5E1,5.89E-1,-7.6E0,8E-1,2E0,-4.5E-1,-1.9646546E-2,-1.5E0,2.711447E-2,-3.7854757E-2,-2.2739831E-2,1.76E-1,3.6469918E-2,4.9384028E-1,1E0,5.95E-1,6.428571E0,8.18E-1,-1.6306654E-2,1.31E1,-3.9727416E-2,4.796E-1,2.315E1,-3.1742662E-2,-2.7535725E-3,-3.1170744E-2,1.5802486E-2,-7.0647164E-3,3.670639E-2,-4.8405556E-3,-3.9829835E-2,-3.6879387E-2,3.2382123E-3,3.5988685E-2,1.3843737E-2,2.9162401E-2,-0E0,-3.3506155E-2,8.727183E-3,2.2724293E-2,-1.274976E-2,1.225971E-2,3.603759E-2],"split_indices":[238,251,238,2,36,251,17,227,69,111,239,108,222,182,0,100,0,0,0,0,0,207,229,56,50,103,185,109,0,46,0,0,0,100,0,233,251,160,245,36,0,19,0,13,137,0,0,0,0,0,0,0,0,0,0,0,0,0,0,0,0,0,0,0,0],"split_type":[0,0,0,0,0,0,0,0,0,0,0,0,0,0,0,0,0,0,0,0,0,0,0,0,0,0,0,0,0,0,0,0,0,0,0,0,0,0,0,0,0,0,0,0,0,0,0,0,0,0,0,0,0,0,0,0,0,0,0,0,0,0,0,0,0],"sum_hessian":[2.736149E3,1.1729918E3,1.5631571E3,1.7105203E2,1.0019398E3,8.3750305E2,7.256541E2,1.0099552E2,7.00565E1,3.322698E1,9.687128E2,5.4331E2,2.9419302E2,7.1524133E2,1.0412781E1,4.39381E1,5.7057426E1,5.6717808E1,1.33387E1,1.3226088E1,2.0000889E1,6.3014026E2,3.3857257E2,8.5752174E1,4.5755783E2,1.005173E2,1.9367572E2,7.0484906E2,1.0392253E1,2.5328068E1,1.861003E1,6.190752E2,1.1065071E1,3.2605255E2,1.2520009E1,4.2684597E1,4.3067574E1,2.6640976E1,4.3091687E2,8.103588E1,1.9481426E1,4.5825672E1,1.4785005E2,3.300948E1,6.718396E2,1.1926527E1,1.3401541E1,2.9737436E2,2.867821E1,1.9201405E1,2.3483192E1,1.0308811E1,3.2758762E1,1.6262821E1,1.0378154E1,2.9087006E2,1.400468E2,6.500501E1,1.6030869E1,2.3709259E1,2.2116415E1,1.7169886E1,1.5839595E1,1.4173121E1,6.5766644E2],"tree_param":{"num_deleted":"0","num_feature":"255","num_nodes":"65","size_leaf_vector":"1"}},{"base_weights":[1.3084674E-2,-1.003248E0,8.1533784E-1,6.105933E-1,-1.2101582E0,1.0872921E0,-8.221165E-2,1.4204656E0,-8.376929E-1,-1.4158185E0,-5.1431495E-1,2.791334E-1,1.3316281E0,-9.87441E-1,8.1221884E-1,1.945624E-2,3.711479E-2,4.2739417E-3,-3.436786E-2,-1.4881945E0,-2.545452E-2,-1.0865724E0,1.0515467E0,-1.3595897E-1,1.0069232E0,1.3527437E0,-9.286748E-3,2.7557889E-2,-3.8657885E-2,1.0575241E0,-6.571813E-1,-1.2008855E-2,-1.5007846E0,3.784871E-2,-3.0869512E-2,-2.923387E-1,-1.2926979E0,3.422204E-2,-8.809645E-4,-6.921373E-1,7.5246876E-1,-3.0773447E-3,1.1850308E0,5.95712E-3,1.3724632E0,-1.1970581E0,7.4072635E-1,1.2281722E0,-3.0332182E-2,-0E0,-3.077186E-2,-3.7700545E-2,-2.0448027E-2,1.1807234E-2,-2.3349687E-2,-1.5089551E-2,-3.5434715E-2,8.952024E-3,-2.5080992E-2,-2.1491816E-2,2.9329527E-2,9.964766E-3,3.487584E-2,2.7031053E-2,3.6319572E-2,-1.7185505E-2,-3.787376E-2,2.914991E-2,-9.463522E-3,1.2940242E-2,3.474788E-2],"categories":[],"categories_nodes":[],"categories_segments":[],"categories_sizes":[],"default_left":[0,0,0,0,0,0,0,0,0,0,0,0,0,0,0,0,0,0,0,0,0,0,0,0,0,0,0,0,0,0,0,0,0,0,0,0,0,0,0,0,0,0,0,0,0,0,0,0,0,0,0,0,0,0,0,0,0,0,0,0,0,0,0,0,0,0,0,0,0,0,0],"id":18,"left_children":[1,3,5,7,9,11,13,15,17,19,21,23,25,27,29,-1,-1,-1,-1,31,33,35,37,39,41,43,-1,45,-1,47,49,-1,51,-1,-1,53,55,-1,-1,57,59,-1,61,-1,63,65,67,69,-1,-1,-1,-1,-1,-1,-1,-1,-1,-1,-1,-1,-1,-1,-1,-1,-1,-1,-1,-1,-1,-1,-1],"loss_changes":[2.266316E3,4.106443E2,3.7953088E2,1.6636914E2,1.541322E2,2.3459875E2,2.9471722E2,1.5445251E0,2.8296215E1,8.3990845E1,2.263129E2,8.464476E1,3.38584E1,1.0300461E2,6.709758E1,0E0,0E0,0E0,0E0,8.630127E0,8.30562E1,2.9302673E1,2.3704773E1,8.910411E1,2.08919E1,1.9061157E1,0E0,5.8527515E1,0E0,6.3286835E1,1.0420561E1,0E0,1.5683594E0,0E0,0E0,2.0443558E1,1.0836868E1,0E0,0E0,3.6889706E1,4.8651062E1,0E0,1.3359528E1,0E0,1.7910645E1,1.9847412E0,2.1041702E1,1.54748535E1,0E0,0E0,0E0,0E0,0E0,0E0,0E0,0E0,0E0,0E0,0E0,0E0,0E0,0E0,0E0,0E0,0E0,0E0,0E0,0E0,0E0,0E0,0E0],"parents":[2147483647,0,0,1,1,2,2,3,3,4,4,5,5,6,6,7,7,8,8,9,9,10,10,11,11,12,12,13,13,14,14,19,19,20,20,21,21,22,22,23,23,24,24,25,25,27,27,29,29,30,30,32,32,35,35,36,36,39,39,40,40,42,42,44,44,45,45,46,46,47,47],"right_children":[2,4,6,8,10,12,14,16,18,20,22,24,26,28,30,-1,-1,-1,-1,32,34,36,38,40,42,44,-1,46,-1,48,50,-1,52,-1,-1,54,56,-1,-1,58,60,-1,62,-1,64,66,68,70,-1,-1,-1,-1,-1,-1,-1,-1,-1,-1,-1,-1,-1,-1,-1,-1,-1,-1,-1,-1,-1,-1,-1],"split_conditions":[-1E0,-6E0,4E0,6.3636365E0,-2.598076E0,1.5611111E0,5.4545455E0,3.5E0,2.25E0,5.432692E-2,1.26E-1,9.7E-2,1.32E1,2E0,2.5E-1,1.945624E-2,3.711479E-2,4.2739417E-3,-3.436786E-2,-6.5E-1,-1E1,-2.5E-2,-2.4E0,5.375E0,-2.43E-2,-9E0,-9.286748E-3,1.31E1,-3.8657885E-2,1.2E1,4.585E1,-1.2008855E-2,1.5E1,3.784871E-2,-3.0869512E-2,-1.9E-2,-3.2E0,3.422204E-2,-8.809645E-4,3.498E-1,-1.3E0,-3.0773447E-3,3E-1,5.95712E-3,3.7527769E0,3.2352942E-1,6E-1,1.2E1,-3.0332182E-2,-0E0,-3.077186E-2,-3.7700545E-2,-2.0448027E-2,1.1807234E-2,-2.3349687E-2,-1.5089551E-2,-3.5434715E-2,8.952024E-3,-2.5080992E-2,-2.1491816E-2,2.9329527E-2,9.964766E-3,3.487584E-2,2.7031053E-2,3.6319572E-2,-1.7185505E-2,-3.787376E-2,2.914991E-2,-9.463522E-3,1.2940242E-2,3.474788E-2],"split_indices":[238,252,252,246,237,2,246,230,230,207,100,100,40,185,103,0,0,0,0,103,61,103,63,22,65,209,0,19,0,252,28,0,8,0,0,100,69,0,0,139,75,0,61,0,237,217,31,241,0,0,0,0,0,0,0,0,0,0,0,0,0,0,0,0,0,0,0,0,0,0,0],"split_type":[0,0,0,0,0,0,0,0,0,0,0,0,0,0,0,0,0,0,0,0,0,0,0,0,0,0,0,0,0,0,0,0,0,0,0,0,0,0,0,0,0,0,0,0,0,0,0,0,0,0,0,0,0,0,0,0,0,0,0,0,0,0,0,0,0,0,0,0,0,0,0],"sum_hessian":[2.7765825E3,1.2245892E3,1.5519933E3,1.3871994E2,1.0858694E3,1.1910233E3,3.6096997E2,8.907608E1,4.9643856E1,8.3672986E2,2.491395E2,2.7743152E2,9.135918E2,1.794356E2,1.8153438E2,1.01588955E1,7.891718E1,1.7473896E1,3.216996E1,7.9509155E2,4.1638283E1,1.8288829E2,6.625121E1,1.7727074E2,1.0016078E2,9.028243E2,1.0767545E1,6.409598E1,1.1533962E2,1.5604106E2,2.549332E1,1.0730449E1,7.843611E2,1.808011E1,2.3558174E1,3.8631756E1,1.4425653E2,5.1119347E1,1.513187E1,1.0936316E2,6.790758E1,1.3547579E1,8.6613205E1,1.621454E1,8.8660974E2,2.3111649E1,4.0984325E1,1.4585693E2,1.0184133E1,1.24204645E1,1.3072856E1,7.7405194E2,1.0309165E1,1.7665127E1,2.096663E1,2.3690954E1,1.20565575E2,2.4794065E1,8.456909E1,1.363163E1,5.427595E1,1.9370808E1,6.724239E1,1.9689499E2,6.897147E2,1.0942178E1,1.2169471E1,2.9783884E1,1.1200442E1,2.8442282E1,1.1741465E2],"tree_param":{"num_deleted":"0","num_feature":"255","num_nodes":"71","size_leaf_vector":"1"}},{"base_weights":[-3.5985734E-2,-9.647075E-1,6.84225E-1,-6.274819E-1,-1.4457188E0,-2.744407E-1,1.0671966E0,6.238938E-1,-8.74631E-1,-3.6902085E-2,-2.1960386E-3,1.1573195E0,-8.217803E-1,2.2751203E-1,1.1729101E0,1.2176476E0,-1.0520252E0,7.97052E-1,-1.0298877E0,1.406624E0,-5.3503877E-3,9.5357704E-1,-9.525366E-1,-9.2179626E-1,1.2668926E0,1.2518778E0,-1.21236876E-1,-6.3416422E-3,3.7919816E-2,-3.5031915E-2,-7.1194605E-3,-1.7165227E-2,3.6948472E-2,-1.1103479E0,3.0746404E-2,2.1306217E-2,3.6275916E-2,1.2190013E-2,3.249417E-2,-1.1644381E0,8.516272E-2,1.3330126E-2,-1.4548018E0,1.1294243E-2,3.5305396E-2,8.309562E-2,1.2912729E0,-1.0946006E0,3.3710122E-2,-1.3340654E-2,-3.492366E-2,-3.247995E-2,1.3961426E-2,2.3720143E-2,-3.4460094E-2,-4.0695664E-2,-2.2444084E-2,-3.449446E-2,3.47203E-2,1.0096276E-2,3.3293176E-2,-3.666228E-2,-4.0912027E-3],"categories":[],"categories_nodes":[],"categories_segments":[],"categories_sizes":[],"default_left":[0,0,0,0,0,0,0,0,0,0,0,0,0,0,0,0,0,0,0,0,0,0,0,0,0,0,0,0,0,0,0,0,0,0,0,0,0,0,0,0,0,0,0,0,0,0,0,0,0,0,0,0,0,0,0,0,0,0,0,0,0,0,0],"id":19,"left_children":[1,3,5,7,9,11,13,15,17,-1,-1,19,21,23,25,27,29,31,33,35,-1,37,39,41,43,45,47,-1,-1,-1,-1,-1,-1,49,-1,-1,-1,-1,-1,51,53,-1,55,-1,-1,57,59,61,-1,-1,-1,-1,-1,-1,-1,-1,-1,-1,-1,-1,-1,-1,-1],"loss_changes":[1.7901378E3,1.8784985E2,5.539759E2,2.143052E2,1.9300293E1,3.393459E2,9.4961914E1,1.15953E2,1.510466E2,0E0,0E0,4.1647293E1,7.4020096E1,1.482197E2,9.819507E1,3.8406555E1,7.286976E0,5.1963634E1,9.816681E1,1.8818665E-1,0E0,2.2594547E0,6.465546E1,4.7085285E1,6.3790817E0,4.1081787E1,8.259295E1,0E0,0E0,0E0,0E0,0E0,0E0,8.303577E1,0E0,0E0,0E0,0E0,0E0,5.766928E1,6.610934E1,0E0,1.5114517E0,0E0,0E0,6.24142E1,3.0151611E1,1.1339054E1,0E0,0E0,0E0,0E0,0E0,0E0,0E0,0E0,0E0,0E0,0E0,0E0,0E0,0E0,0E0],"parents":[2147483647,0,0,1,1,2,2,3,3,4,4,5,5,6,6,7,7,8,8,11,11,12,12,13,13,14,14,15,15,16,16,17,17,18,18,19,19,21,21,22,22,23,23,24,24,25,25,26,26,33,33,39,39,40,40,42,42,45,45,46,46,47,47],"right_children":[2,4,6,8,10,12,14,16,18,-1,-1,20,22,24,26,28,30,32,34,36,-1,38,40,42,44,46,48,-1,-1,-1,-1,-1,-1,50,-1,-1,-1,-1,-1,52,54,-1,56,-1,-1,58,60,62,-1,-1,-1,-1,-1,-1,-1,-1,-1,-1,-1,-1,-1,-1,-1],"split_conditions":[-7.4658584E-4,7E0,1E1,-9.55E0,1.075E0,7.45E-1,-7.3E0,2E0,-5.6E0,-3.6902085E-2,-2.1960386E-3,-4.7E-1,2.4E1,5.25E0,4.745E1,2.5E0,3.694E-1,5E0,3.34E1,-2.25E0,-5.3503877E-3,7.6E1,6.13E-1,4.62E-1,-7.027778E-2,-1.48E1,7.380754E0,-6.3416422E-3,3.7919816E-2,-3.5031915E-2,-7.1194605E-3,-1.7165227E-2,3.6948472E-2,2E2,3.0746404E-2,2.1306217E-2,3.6275916E-2,1.2190013E-2,3.249417E-2,1.505E1,1.5E0,1.3330126E-2,-5.3E0,1.1294243E-2,3.5305396E-2,-3.5E0,-6.75E-1,3.266E-1,3.3710122E-2,-1.3340654E-2,-3.492366E-2,-3.247995E-2,1.3961426E-2,2.3720143E-2,-3.4460094E-2,-4.0695664E-2,-2.2444084E-2,-3.449446E-2,3.47203E-2,1.0096276E-2,3.3293176E-2,-3.666228E-2,-4.0912027E-3],"split_indices":[239,2,241,61,107,25,131,57,102,0,0,110,32,2,28,230,34,200,32,110,0,43,163,163,107,61,239,0,0,0,0,0,0,254,0,0,0,0,0,146,228,0,26,0,0,131,107,150,0,0,0,0,0,0,0,0,0,0,0,0,0,0,0],"split_type":[0,0,0,0,0,0,0,0,0,0,0,0,0,0,0,0,0,0,0,0,0,0,0,0,0,0,0,0,0,0,0,0,0,0,0,0,0,0,0,0,0,0,0,0,0,0,0,0,0,0,0,0,0,0,0,0,0,0,0,0,0,0,0],"sum_hessian":[2.6732754E3,1.167516E3,1.5057595E3,6.88616E2,4.788999E2,4.2979266E2,1.0759668E3,1.1306166E2,5.755544E2,4.6815326E2,1.0746628E1,1.18300026E2,3.114926E2,1.21053825E2,9.54913E2,8.387535E1,2.9186314E1,4.8275246E1,5.272791E2,1.0019258E2,1.810745E1,2.061545E1,2.9087717E2,5.747613E1,6.3577694E1,9.001879E2,5.472509E1,1.4097545E1,6.97778E1,1.902561E1,1.0160704E1,1.5089247E1,3.3186E1,5.0997256E2,1.730658E1,1.0011572E1,9.018101E1,1.0573626E1,1.0041825E1,2.4155948E2,4.9317696E1,1.5309203E1,4.2166927E1,1.0760582E1,5.2817112E1,2.9670124E1,8.705178E2,3.323318E1,2.1491909E1,1.7095358E2,3.3901898E2,2.2448582E2,1.7073652E1,3.1433296E1,1.78844E1,2.9699373E1,1.2467554E1,1.3880592E1,1.5789532E1,3.88872E1,8.316306E2,2.2976828E1,1.0256351E1],"tree_param":{"num_deleted":"0","num_feature":"255","num_nodes":"63","size_leaf_vector":"1"}},{"base_weights":[-4.2341813E-3,-9.821114E-1,7.884584E-1,-5.8739495E-1,-1.4300973E0,2.8033506E-2,1.0729722E0,4.8485488E-2,-1.26461E0,-3.653545E-2,-6.220569E-1,1.1155533E0,-3.347348E-1,1.1430976E0,-1.0432912E0,-4.5639795E-1,1.3805721E0,-1.3895476E0,1.5019335E-1,-3.2331854E-2,3.2496918E-3,1.3141322E0,-7.948751E-3,1.0242577E0,-6.3017523E-1,7.5068707E-3,1.2261844E0,3.3180807E-3,-3.8957026E-2,-9.6554226E-1,8.177827E-1,1.1329781E-2,3.726726E-2,-3.943832E-3,-1.4454829E0,-3.0653253E-2,3.0476019E-2,3.5682175E-2,1.6363025E-2,-1.2266112E-2,3.5273947E-2,-9.5676637E-1,2.0391753E-1,6.8762773E-1,-8.1223947E-1,1.2511253E0,-2.4649007E-2,-1.8356718E-3,-2.8189424E-2,-1.7100332E-2,3.0893564E-2,-3.711962E-2,-2.0065261E-2,-8.181646E-3,-3.452228E-2,1.9225813E-2,-2.7652476E-2,3.0704115E-2,-1.0238785E-2,-4.407697E-3,-3.9910097E-2,1.8526783E-2,3.2907665E-2],"categories":[],"categories_nodes":[],"categories_segments":[],"categories_sizes":[],"default_left":[0,0,0,0,0,0,0,0,0,0,0,0,0,0,0,0,0,0,0,0,0,0,0,0,0,0,0,0,0,0,0,0,0,0,0,0,0,0,0,0,0,0,0,0,0,0,0,0,0,0,0,0,0,0,0,0,0,0,0,0,0,0,0],"id":20,"left_children":[1,3,5,7,9,11,13,15,17,-1,19,21,23,25,27,29,31,33,35,-1,-1,37,-1,39,41,43,45,-1,-1,47,49,-1,-1,-1,51,-1,-1,-1,-1,-1,-1,53,55,57,59,61,-1,-1,-1,-1,-1,-1,-1,-1,-1,-1,-1,-1,-1,-1,-1,-1,-1],"loss_changes":[2.0882883E3,2.116283E2,3.216134E2,2.7766565E2,1.2486084E1,1.6121233E2,1.62448E2,2.2538173E2,5.572461E1,0E0,1.2541274E1,2.9930862E1,1.2377794E2,9.8671265E1,2.2041344E1,1.587355E2,8.005829E0,1.9113953E1,4.129257E1,0E0,0E0,4.916046E0,0E0,3.3505108E1,6.9216606E1,4.160147E1,5.5800537E1,0E0,0E0,2.4829529E1,4.5331116E1,0E0,0E0,0E0,4.6835938E0,0E0,0E0,0E0,0E0,0E0,0E0,4.7535477E1,5.4586643E1,2.5192953E1,1.6043085E1,3.026538E1,0E0,0E0,0E0,0E0,0E0,0E0,0E0,0E0,0E0,0E0,0E0,0E0,0E0,0E0,0E0,0E0,0E0],"parents":[2147483647,0,0,1,1,2,2,3,3,4,4,5,5,6,6,7,7,8,8,10,10,11,11,12,12,13,13,14,14,15,15,16,16,17,17,18,18,21,21,23,23,24,24,25,25,26,26,29,29,30,30,34,34,41,41,42,42,43,43,44,44,45,45],"right_children":[2,4,6,8,10,12,14,16,18,-1,20,22,24,26,28,30,32,34,36,-1,-1,38,-1,40,42,44,46,-1,-1,48,50,-1,-1,-1,52,-1,-1,-1,-1,-1,-1,54,56,58,60,62,-1,-1,-1,-1,-1,-1,-1,-1,-1,-1,-1,-1,-1,-1,-1,-1,-1],"split_conditions":[-1E0,6.837153E0,1E1,6E0,2.75E-1,1.094E2,4.5E1,8E0,1.5E1,-3.653545E-2,-3.5E-1,1.6E-2,2.45E1,-4.5E-1,8.714286E0,1.26E-1,9.5E0,1.03E2,4E-1,-3.2331854E-2,3.2496918E-3,6.571429E0,-7.948751E-3,4.38E1,1.44E1,1.85E0,5E0,3.3180807E-3,-3.8957026E-2,-1.1E1,2.5666666E1,1.1329781E-2,3.726726E-2,-3.943832E-3,6E-1,-3.0653253E-2,3.0476019E-2,3.5682175E-2,1.6363025E-2,-1.2266112E-2,3.5273947E-2,2.0454545E-1,3.5E0,-8.15E-3,9.388889E0,1.062E2,-2.4649007E-2,-1.8356718E-3,-2.8189424E-2,-1.7100332E-2,3.0893564E-2,-3.711962E-2,-2.0065261E-2,-8.181646E-3,-3.452228E-2,1.9225813E-2,-2.7652476E-2,3.0704115E-2,-1.0238785E-2,-4.407697E-3,-3.9910097E-2,1.8526783E-2,3.2907665E-2],"split_indices":[238,2,241,124,109,38,182,8,6,0,74,96,32,109,18,100,199,43,70,0,0,245,0,133,146,110,244,0,0,124,32,0,0,0,217,0,0,0,0,0,0,218,51,76,145,38,0,0,0,0,0,0,0,0,0,0,0,0,0,0,0,0,0],"split_type":[0,0,0,0,0,0,0,0,0,0,0,0,0,0,0,0,0,0,0,0,0,0,0,0,0,0,0,0,0,0,0,0,0,0,0,0,0,0,0,0,0,0,0,0,0,0,0,0,0,0,0,0,0,0,0,0,0,0,0,0,0,0,0],"sum_hessian":[2.6909746E3,1.2047147E3,1.4862599E3,6.4251434E2,5.6220044E2,4.053158E2,1.0809441E3,3.3193585E2,3.105785E2,5.398161E2,2.2384312E1,1.0074312E2,3.0457266E2,1.0470334E3,3.3910744E1,2.4131087E2,9.0624985E1,2.8553204E2,2.504644E1,1.1397871E1,1.0986441E1,8.871774E1,1.2025377E1,5.3607403E1,2.5096526E2,7.165995E1,9.753734E2,1.0548222E1,2.3362522E1,1.7278769E2,6.852318E1,1.0625965E1,7.9999016E1,1.2806935E1,2.7272513E2,1.0770167E1,1.4276273E1,7.397803E1,1.47397175E1,1.0714164E1,4.289324E1,1.8036288E2,7.060238E1,3.943093E1,3.222902E1,9.652329E2,1.0140556E1,2.7084179E1,1.457035E2,1.460647E1,5.391671E1,2.5486829E2,1.7856823E1,7.386256E1,1.0650033E2,4.986411E1,2.0738272E1,2.6418694E1,1.3012237E1,1.8951927E1,1.3277091E1,1.11822845E2,8.5341003E2],"tree_param":{"num_deleted":"0","num_feature":"255","num_nodes":"63","size_leaf_vector":"1"}},{"base_weights":[-4.0599625E-3,-9.5759934E-1,7.188016E-1,5.2395284E-1,-1.2137605E0,-3.6892536E-1,1.0235603E0,1.2806367E0,-7.1071756E-1,-1.285724E0,8.336446E-2,9.202766E-1,-1.0282375E0,1.217762E0,3.2606095E-1,3.205843E-3,3.645134E-2,-3.3777907E-2,2.2299835E-1,-1.4402229E0,-5.6340635E-1,-1.0921625E0,3.355437E-2,1.3316759E0,-7.2519815E-1,2.6925964E-2,-1.1558739E0,-1.0804753E-2,1.2605064E0,-1.0355782E-1,1.2520461E0,-1.55943185E-2,2.7967243E-2,-3.6330167E-2,-1.3958059E-2,1.1143051E-1,-8.291627E-1,-1.2987713E-2,-3.4510758E-2,3.5527512E-2,1.4089494E-2,-3.541811E-2,-0E0,-1.3720037E0,-4.251894E-1,1.2899566E0,-1.2108514E-2,4.4526666E-1,-1.0020889E0,1.3217217E-2,3.401715E-2,-6.410791E-3,2.8297722E-2,-2.5805114E-2,-9.323304E-4,-3.6818888E-2,-1.2999855E-2,-2.731934E-2,2.008198E-2,1.4298542E-2,3.418503E-2,-2.7767545E-2,2.0846842E-2,-3.9720267E-2,1.7159035E-2],"categories":[],"categories_nodes":[],"categories_segments":[],"categories_sizes":[],"default_left":[0,0,0,0,0,0,0,0,0,0,0,0,0,0,0,0,0,0,0,0,0,0,0,0,0,0,0,0,0,0,0,0,0,0,0,0,0,0,0,0,0,0,0,0,0,0,0,0,0,0,0,0,0,0,0,0,0,0,0,0,0,0,0,0,0],"id":21,"left_children":[1,3,5,7,9,11,13,15,17,19,21,23,25,27,29,-1,-1,-1,31,33,35,37,-1,39,41,-1,43,-1,45,47,49,-1,-1,-1,-1,51,53,-1,-1,-1,-1,-1,-1,55,57,59,-1,61,63,-1,-1,-1,-1,-1,-1,-1,-1,-1,-1,-1,-1,-1,-1,-1,-1],"loss_changes":[1.7686592E3,4.2103638E2,4.844698E2,1.5474258E2,8.851758E1,2.7373904E2,1.535846E2,2.0328033E1,3.8468155E1,9.821655E1,7.754076E1,7.541577E1,5.9056335E1,6.3846558E1,1.0014305E2,0E0,0E0,0E0,2.1526829E1,6.805542E0,2.9034931E1,3.0105858E0,0E0,4.438858E0,1.116933E1,0E0,3.057431E1,0E0,4.5770264E1,8.582713E1,4.8065033E0,0E0,0E0,0E0,0E0,1.8031717E1,1.8285233E1,0E0,0E0,0E0,0E0,0E0,0E0,1.1720123E1,4.1037476E1,4.6006714E1,0E0,6.661628E1,6.719438E1,0E0,0E0,0E0,0E0,0E0,0E0,0E0,0E0,0E0,0E0,0E0,0E0,0E0,0E0,0E0,0E0],"parents":[2147483647,0,0,1,1,2,2,3,3,4,4,5,5,6,6,7,7,8,8,9,9,10,10,11,11,12,12,13,13,14,14,18,18,19,19,20,20,21,21,23,23,24,24,26,26,28,28,29,29,30,30,35,35,36,36,43,43,44,44,45,45,47,47,48,48],"right_children":[2,4,6,8,10,12,14,16,18,20,22,24,26,28,30,-1,-1,-1,32,34,36,38,-1,40,42,-1,44,-1,46,48,50,-1,-1,-1,-1,52,54,-1,-1,-1,-1,-1,-1,56,58,60,-1,62,64,-1,-1,-1,-1,-1,-1,-1,-1,-1,-1,-1,-1,-1,-1,-1,-1],"split_conditions":[-1.6666667E-1,-5E0,8E0,6.3636365E0,5.432692E-2,1.131E2,4E0,4.6875E-1,-1E0,-2.598076E0,6.1E0,8E0,2.44E1,-1.125E1,1.1818182E1,3.205843E-3,3.645134E-2,-3.3777907E-2,5E0,3.35E-2,4.257143E1,7.928E-1,3.355437E-2,1.3428572E1,7.565E-1,2.6925964E-2,4.728E-1,-1.0804753E-2,5E0,1.6E1,7.434E-1,-1.55943185E-2,2.7967243E-2,-3.6330167E-2,-1.3958059E-2,6E0,